tree
version=v4
num_class=1
num_tree_per_iteration=1
label_index=0
max_feature_idx=56
objective=regression
feature_names=round DayNum T1_FGM T1_FGA T1_FGM3 T1_FGA3 T1_OR T1_Ast T1_TO T1_Stl T1_PF T1_opponent_FGM T1_opponent_FGA T1_opponent_FGM3 T1_opponent_FGA3 T1_opponent_OR T1_opponent_Ast T1_opponent_TO T1_opponent_Stl T1_opponent_Blk T1_PointDiff T2_FGM T2_FGA T2_FGM3 T2_FGA3 T2_OR T2_Ast T2_TO T2_Stl T2_PF T2_opponent_FGM T2_opponent_FGA T2_opponent_FGM3 T2_opponent_FGA3 T2_opponent_OR T2_opponent_Ast T2_opponent_TO T2_opponent_Stl T2_opponent_Blk T2_PointDiff T1_win_ratio_14d T2_win_ratio_14d T1_quality T1_quality_vol T1_quality_points T1_quality_points_vol T2_quality T2_quality_vol T2_quality_points T2_quality_points_vol T1_seed T2_seed Seed_diff qual_diff qual_point_diff avg_qual_point avg_qual
feature_infos=[1:6] [136:154] [20.558823529411764:34.153846153846153] [46.121212121212125:66.878787878787875] [4.03125:11.411764705882353] [11.71875:30.399999999999999] [5.2285714285714286:16.84375] [9.1612903225806459:21.484848484848484] [7.387096774193548:16.9375] [3.4516129032258065:11.823529411764707] [11.3125:24.125] [18.09375:30.129032258064516] [46.193548387096776:67.774193548387103] [3.5151515151515151:10.46875] [11.96774193548387:28.37037037037037] [5.46875:15.199999999999999] [7.6764705882352944:17.625] [7.46875:20.441176470588236] [3.5:9.4193548387096779] [1.4516129032258065:5.5483870967741939] [-4.333333333333333:23.787878787878789] [20.558823529411764:34.153846153846153] [46.121212121212125:66.878787878787875] [4:11.411764705882353] [11.71875:30.399999999999999] [5.2285714285714286:16.84375] [9.1612903225806459:21.484848484848484] [7.387096774193548:16.9375] [3.4516129032258065:11.823529411764707] [11.3125:24.125] [18.09375:30.272727272727273] [46.193548387096776:68.030303030303031] [3.5151515151515151:10.46875] [11.96774193548387:28.37037037037037] [5.46875:15.199999999999999] [7.6764705882352944:17.625] [7.46875:20.441176470588236] [3.5:9.4193548387096779] [1.4516129032258065:5.59375] [-4.333333333333333:23.787878787878789] [0:1] [0:1] [1942.1802258503044:3070.6680113162029] [0.059923500019544093:0.060073192350347124] [2174.9710788928696:2283.4662083820326] [0.059688967430923397:0.059877354213468841] [1959.9679136467726:3070.6680113162029] [0.059923500019544093:0.060073192350347124] [2173.4289010270577:2283.4662083820326] [0.059688967430923397:0.059877354213468841] [1:16] [1:16] [-15:15] [-869.70537683032217:1063.9155375985465] [-93.034664224674088:108.43236232847039] [2185.3493460731261:2276.8580135841221] [2199.7636438526893:2970.9594686260807]
tree_sizes=2701 2697 2681 2700 2686 2692 2687 2695 2700 2685 2701 2696 2700 2679 2696 2696 2698 2702 2697 2710 2699 2695 2727 2692 2684 2715 2697 2715 2714 2702 2706 2697 2689 2707 2692 2711 2709 2706 2710 2700 2715

Tree=0
num_leaves=31
num_cat=0
split_feature=54 54 48 44 54 46 26 5 54 5 22 31 29 43 14 42 43 30 24 37 11 19 10 5 12 29 45 37 18 30
split_gain=64279.5 19745.3 15341.7 4343.24 3910.88 2629.9 2412.04 1788.72 1594.76 1413.39 1679.02 1379.89 1935.68 1387.29 1369.89 1380.83 1093.9 1045.79 1039.71 1029.27 1177.16 1013.87 1431.91 995.657 962.079 944.125 901.414 1160.06 899.385 896.095
threshold=5.0315481008346987 -27.900974121248733 2203.5543506763829 2204.7931526092329 25.132537458463734 2722.8513243117036 15.629166666666668 21.475115740740744 71.878751349676136 18.114835164835167 57.044700460829496 54.449159663865551 15.554193548387099 0.059964721334351455 23.460606060606064 2808.2178877669635 0.059956084926126516 22.015151515151519 22.836007130124781 5.4924242424242431 23.79971590909091 2.8255578093306295 18.268716577540111 18.140394088669954 61.097692307692313 16.246212121212125 0.059718539855531654 6.0923295454545459 5.4514106583072106 24.762121212121215
decision_type=2 2 2 2 2 2 2 2 2 2 2 2 2 2 2 2 2 2 2 2 2 2 2 2 2 2 2 2 2 2
left_child=1 3 8 7 6 9 14 -1 -2 -3 26 -12 -13 -14 15 17 -5 -4 25 -7 23 -19 28 -21 -6 -18 -11 -28 -23 -8
right_child=2 5 4 16 24 19 29 -9 -10 10 11 12 13 -15 -16 -17 18 21 -20 20 -22 22 -24 -25 -26 -27 27 -29 -30 -31
leaf_value=-1.2255147866739482 0.87988110345078374 -0.29216192277988479 -0.12893840840109119 -0.91105591910960249 0.40956443260121278 -0.21706161749275352 0.27584883208938471 -0.72222808091492663 1.3933488549999202 0.32498676815300931 -0.52523812640027956 -0.49174376463552072 0.1284607707448723 -0.21211413395729084 -0.30153212746718644 0.47084882996596922 -0.64359560953349737 -0.09915116938379831 -0.79498449497304335 -0.61415116347751986 -0.69776227631054299 0.56010809692968078 -0.090222594539571099 -0.17415117240165975 0.73360745863031485 -0.26462735960196004 0.16751550166591697 -0.21629402836898085 0.20556581088436765 0.68001550825554169
leaf_weight=55 62 93 47 21 109 67 32 26 20 29 23 27 67 54 21 25 27 33 24 20 36 27 28 36 29 42 45 35 53 24
leaf_count=55 62 93 47 21 109 67 32 26 20 29 23 27 67 54 21 25 27 33 24 20 36 27 28 36 29 42 45 35 53 24
internal_value=-0.0517381 -0.353622 0.378594 -0.784023 0.258559 -0.195862 0.154297 -1.06397 1.00512 -0.12328 -0.0671869 -0.164941 -0.108948 -0.0235313 0.0837548 0.121741 -0.585116 0.0753169 -0.511517 -0.366132 -0.474695 0.143402 0.217515 -0.331294 0.47766 -0.412919 0.0861699 -0.000401168 0.325224 0.449063
internal_weight=0 727 510 195 428 532 290 81 82 373 280 171 148 121 234 213 114 188 93 159 92 141 108 56 138 69 109 80 80 56
internal_count=1237 727 510 195 428 532 290 81 82 373 280 171 148 121 234 213 114 188 93 159 92 141 108 56 138 69 109 80 80 56
is_linear=0
shrinkage=1


Tree=1
num_leaves=31
num_cat=0
split_feature=54 54 54 54 54 39 26 54 5 35 14 42 49 54 29 4 18 30 45 16 8 35 43 16 36 40 4 22 17 26
split_gain=58012.3 17820.2 13924.8 3718.99 3590.76 2669.04 2176.87 1369.39 1302.44 1241.25 1236.32 1246.2 1194.87 1153.14 1493.38 1420.35 1541.59 1386.4 1079.63 991.219 1307.94 1139.65 970.676 953.068 941.804 929.413 918.398 969.297 833.753 813.3
threshold=5.0315481008346987 -27.900974121248733 48.499463026136944 -49.093998559453659 25.132537458463734 12.522281639928702 15.629166666666668 71.878751349676136 18.114835164835167 10.970142602495544 23.460606060606064 2808.2178877669635 0.059733591675533625 -8.2225116087090537 18.110606060606063 7.0625610948191602 5.4165739710789778 22.398073022312378 0.059730457904465163 12.299663299663301 11.039434523809526 12.492424242424244 0.059959455275675727 11.48529411764706 12.158770161290326 0.73214285714285732 6.9384469696969706 58.525625000000012 11.072258064516131 14.230550284629983
decision_type=2 2 2 2 2 2 2 2 2 2 2 2 2 2 2 2 2 2 2 2 2 2 2 2 2 2 2 2 2 2
left_child=1 3 4 9 6 8 10 -4 -3 -1 11 19 29 14 15 -10 -17 -15 -7 20 22 24 -2 -19 -22 -8 -25 -28 -6 -5
right_child=2 5 7 12 28 18 25 -9 13 -11 -12 -13 -14 17 -16 16 -18 23 -20 -21 21 -23 -24 26 -26 -27 27 -29 -30 -31
leaf_value=-0.70065978897942438 0.0042983879645665489 -0.22494189780950546 0.89509661316871636 -0.87017093811716362 0.78666490113193344 -0.23316940003633502 0.26465663931987904 1.3728325653076174 0.14248779330934799 -1.1244280831267437 -0.23730435059184121 0.49645755910873418 -0.17024796389043331 0.34927642771175932 0.21189672249555588 -0.67487050687724892 -0.17833234126921055 -0.18545596095475747 -0.53525316544941492 0.2992360441251235 0.31319968640804291 -0.3871684301983227 0.43417172986885594 -0.20227498114109041 -0.11069449782371521 0.67230669958838107 0.3820013323798776 -0.0014019935446627002 0.45139056088055596 -0.52008688546056991
leaf_weight=27 24 100 60 21 22 100 27 20 21 48 21 25 20 35 25 22 54 47 42 55 20 22 29 20 38 29 32 34 118 79
leaf_count=27 24 100 60 21 22 100 27 20 21 48 21 25 20 35 25 22 54 47 42 55 20 22 29 20 38 29 32 34 118 79
internal_value=0 -0.286789 0.408815 -0.695671 0.296124 -0.136917 0.195733 1.01453 -0.0693398 -0.971871 0.128718 0.164805 -0.523045 -0.0156838 -0.132684 -0.221493 -0.322067 0.0692805 -0.322518 0.120702 0.0468725 -0.0807513 0.239512 -0.00440267 0.0354759 0.475761 0.0945451 0.184491 0.504077 -0.593605
internal_weight=0 727 510 195 430 532 290 80 390 75 234 213 120 290 122 97 76 168 142 188 133 80 53 133 58 56 86 66 140 100
internal_count=1237 727 510 195 430 532 290 80 390 75 234 213 120 290 122 97 76 168 142 188 133 80 53 133 58 56 86 66 140 100
is_linear=0
shrinkage=0.05


Tree=2
num_leaves=31
num_cat=0
split_feature=54 54 48 44 54 39 26 5 55 42 44 45 29 14 54 4 16 44 18 16 43 12 24 42 6 12 29 37 3 9
split_gain=52372.7 17111 11729.1 3648.13 2692.64 2331.6 2170.86 1573.33 1480.65 1253.11 1194.3 1397.47 1144.56 1468.35 1266.36 1343.08 1183.64 1368.68 1042.61 1017.92 965.093 964.847 942.493 920.762 865.545 853.406 836.245 825.552 790.508 784.979
threshold=6.5843312216347849 -27.900974121248733 2203.5543506763829 2204.7931526092329 25.132537458463734 12.522281639928702 16.134135472370769 21.475115740740744 2223.2937414202875 2797.2775691371439 2254.482233010483 0.059727049823585308 18.530330882352946 19.701426024955442 -10.815613237001342 6.7426470588235299 12.359237536656893 2243.2146425721053 4.9660138248847936 11.46966911764706 0.059956084926126516 58.274294670846402 22.836007130124781 2558.7744379262226 11.446394686907022 61.097692307692313 16.246212121212125 5.6306818181818192 60.19385026737968 7.2619825708061017
decision_type=2 2 2 2 2 2 2 2 2 2 2 2 2 2 2 2 2 2 2 2 2 2 2 2 2 2 2 2 2 2
left_child=1 3 8 7 6 12 9 -1 -2 18 11 -7 14 -14 19 -16 17 -17 -4 -3 -5 -21 26 -18 -20 28 -22 -13 -6 -10
right_child=2 5 4 20 25 10 -8 -9 29 -11 -12 27 13 -15 15 16 23 -19 24 21 22 -23 -24 -25 -26 -27 -28 -29 -30 -31
leaf_value=-1.0689628829197451 0.59388495165677302 -0.05686722255271414 0.33470004200935366 -0.78474047013691495 0.48005917846471419 -0.22683022146794332 0.61768052705696652 -0.59694959658842828 0.95538796913333057 0.44105664007365708 -0.048954199521969527 -0.35227255940437319 -0.037812008479466808 0.42238471851899073 -0.17497652889566218 -0.2312243064136609 0.50841297924518591 0.22839779585599898 -0.052568387304959087 -0.55338691671689355 -0.53268303247513593 -0.16492236237372124 -0.67934992140314243 0.099253687465732751 0.18686970174312592 0.71754118576645853 -0.17602261248089018 -0.78723108371098838 0.14458019679242914 1.3374703001976014
leaf_weight=55 21 46 39 21 87 67 28 26 41 32 39 20 52 26 94 46 20 25 92 33 27 31 24 44 64 29 42 24 22 20
leaf_count=55 21 46 39 21 87 67 28 26 41 32 39 20 52 26 94 46 20 25 92 33 27 31 24 44 64 29 42 24 22 20
internal_value=0 -0.256866 0.412067 -0.660887 0.298575 -0.117917 0.202296 -0.917452 0.955999 0.151059 -0.286972 -0.3706 -0.057106 0.115587 -0.0968407 -0.0298635 0.0711781 -0.0693855 0.10347 -0.236275 -0.478591 -0.365224 -0.40946 0.227116 0.0456626 0.476483 -0.315585 -0.589523 0.412348 1.08066
internal_weight=0 762 475 195 393 567 255 81 82 227 150 111 417 78 339 229 135 71 195 110 114 64 93 64 156 138 69 44 109 61
internal_count=1237 762 475 195 393 567 255 81 82 227 150 111 417 78 339 229 135 71 195 110 114 64 93 64 156 138 69 44 109 61
is_linear=0
shrinkage=0.05


Tree=3
num_leaves=31
num_cat=0
split_feature=54 54 54 44 54 39 21 5 54 39 6 18 53 20 44 45 47 30 26 45 29 28 43 50 30 48 38 12 9 18
split_gain=47304.6 14503.2 11416.6 3292.44 2892.99 2180.98 1936.47 1419.93 1222.52 1162.37 1146.11 1224.13 1071.55 1049.38 1042.19 1484.29 946.795 1192.32 1124.63 1209.84 1239.88 1141.74 870.996 864.346 820.7 799.869 801.208 768.449 758.854 921.018
threshold=5.0315481008346987 -27.900974121248733 48.499463026136944 2204.7931526092329 25.132537458463734 12.522281639928702 27.970142602495546 21.475115740740744 71.878751349676136 11.578125000000002 13.707779886148009 4.9270557029177731 228.88672697071163 10.965856481481483 2255.4075282977333 0.059728037680434665 0.059962721132387424 21.09232954545455 16.627005347593585 0.059719865571009591 16.799107142857146 6.4090073529411775 0.059956084926126516 3.5000000000000004 24.800284629981025 2252.1103566008592 3.1668520578420472 55.878676470588239 6.9852941176470598 6.3180147058823541
decision_type=2 2 2 2 2 2 2 2 2 2 2 2 2 2 2 2 2 2 2 2 2 2 2 2 2 2 2 2 2 2
left_child=1 3 4 7 6 9 10 -1 -4 16 11 -2 13 -13 15 -7 17 -3 19 21 -21 -19 -5 -15 27 -24 -27 -18 -6 -30
right_child=2 5 8 22 28 14 -8 -9 -10 -11 -12 12 -14 23 -16 -17 24 18 -20 20 -22 -23 25 -25 -26 26 -28 -29 29 -31
leaf_value=-1.0155147276954217 0.33133561604244766 0.17302754100944318 0.80477391414344313 -0.745503428436461 0.56215233008066823 -0.22860494800014039 0.4909768153691576 -0.56710212299456964 1.2561642956733703 0.30859515890479089 0.47723826187707136 0.065856410704907928 0.29312650236216459 -0.41917245411872872 -0.029816374778747559 -0.61067669575030992 -0.21545369991234373 0.1487414670151633 0.15930949112643367 -0.47110013551378654 -0.16288136937846875 -0.23898597084558926 -0.55777681946754454 0.015951605070204961 0.28525101915001871 -0.41908365283161403 -0.021621479076288998 0.090015948027372367 0.45421369817521839 0.046420853286981589
leaf_weight=55 43 28 60 21 75 73 42 26 20 20 21 105 33 25 30 39 35 37 23 59 73 39 40 21 26 32 21 50 45 20
leaf_count=55 43 28 60 21 75 73 42 26 20 20 21 105 33 25 30 39 35 37 23 59 73 39 40 21 26 32 21 50 45 20
internal_value=0 -0.258973 0.369164 -0.627843 0.267125 -0.123767 0.177015 -0.87158 0.917622 -0.0626796 0.123844 0.0911507 0.0350205 -0.0213868 -0.291543 -0.361648 -0.0827485 -0.13511 -0.17246 -0.209146 -0.300646 -0.0502239 -0.454661 -0.220529 0.0394274 -0.388987 -0.261599 -0.0357657 0.453782 0.328739
internal_weight=0 727 510 195 430 532 290 81 80 390 248 227 184 151 142 112 370 259 231 208 132 76 114 46 111 93 53 85 140 65
internal_count=1237 727 510 195 430 532 290 81 80 390 248 227 184 151 142 112 370 259 231 208 132 76 114 46 111 93 53 85 140 65
is_linear=0
shrinkage=0.05


Tree=4
num_leaves=31
num_cat=0
split_feature=54 54 48 42 54 46 26 32 55 31 4 42 16 44 44 11 47 33 36 5 11 20 37 18 12 6 54 4 22 29
split_gain=42719.2 13924.2 9615.94 3058.62 2164.73 2091.69 1876.91 1381.87 1310.08 1279.38 1082.15 1068.64 1023.44 1366.61 1570.37 987.487 885.379 930.668 872.802 914.003 935.143 865.51 1020.47 855.36 780.218 775.962 781.367 773.777 759.414 984.342
threshold=6.5843312216347849 -27.900974121248733 2203.5543506763829 2240.5705614461158 25.132537458463734 2722.8513243117036 16.134135472370769 6.246212121212122 2223.2937414202875 55.621323529411775 7.2305502846299818 2797.2775691371439 14.029411764705884 2242.5424453388955 2240.4673128369013 25.356470588235297 0.059961325692262646 22.313725490196081 14.33854166666667 18.114835164835167 22.477718360071304 9.6614583333333339 5.338541666666667 4.9660138248847936 61.097692307692313 11.446394686907022 10.765860853326332 7.7459677419354849 58.338235294117652 16.07536764705883
decision_type=2 2 2 2 2 2 2 2 2 2 2 2 2 2 2 2 2 2 2 2 2 2 2 2 2 2 2 2 2 2
left_child=1 3 8 -1 6 12 11 10 -2 -9 -5 23 13 14 16 18 21 -18 19 -7 -21 22 -3 -4 -6 28 -27 -15 29 -25
right_child=2 5 4 7 24 15 -8 9 -10 -11 -12 -13 -14 27 -16 -17 17 -19 -20 20 -22 -23 -24 25 -26 26 -28 -29 -30 -31
leaf_value=-0.99249658141380714 0.52404327669313977 -0.33115104653181571 0.30091994592012505 -0.52059545611264191 0.36759039456827924 -0.34684499502182009 0.56930902142609863 -0.9098672310511271 0.98192210002023672 -0.50130601155035426 -0.10609154076345506 0.40323112457990651 0.25826712984305161 -0.0053847564417019225 -0.44934002260852141 -0.51085406830233915 0.12597334483588063 -0.25844185173511508 -0.41232435124261041 0.18331138799267432 -0.18897890835194975 -0.353978458715555 0.0010101059963414959 0.12760923266410829 0.65940384577060573 0.42281691800980337 0.050730751004329944 0.3018429572519381 0.14281792789697648 -0.30199994795024399
leaf_weight=39 21 31 39 32 109 31 28 27 61 66 31 32 26 57 32 31 74 20 35 31 37 39 91 20 29 21 43 32 32 40
leaf_count=39 21 31 39 32 109 31 28 27 61 66 31 32 26 57 32 31 74 20 35 31 37 39 91 20 29 21 43 32 32 40
internal_value=0 -0.231988 0.372158 -0.596451 0.269397 -0.106644 0.18307 -0.497439 0.86466 -0.619921 -0.316633 0.135428 -0.0451185 -0.0660973 -0.11918 -0.256543 -0.077748 0.0441829 -0.19771 -0.121836 -0.0192583 -0.148937 -0.0833915 0.0914811 0.428914 0.0391214 0.172822 0.105079 -0.0538874 -0.158797
internal_weight=0 762 475 195 393 567 255 156 82 93 63 227 402 376 287 165 255 94 134 99 68 161 122 195 138 156 64 89 92 60
internal_count=1237 762 475 195 393 567 255 156 82 93 63 227 402 376 287 165 255 94 134 99 68 161 122 195 138 156 64 89 92 60
is_linear=0
shrinkage=0.05


Tree=5
num_leaves=31
num_cat=0
split_feature=54 54 54 44 54 39 26 5 54 14 39 29 5 5 42 48 22 9 47 45 26 35 32 20 10 28 43 24 40 49
split_gain=38605 11796.8 9364.13 2773.92 2323.53 1856.57 1640.39 1247.64 1090.72 1082.39 1042.29 953.019 1251.03 1134.59 863.831 910.661 813.844 974.657 800.748 948.558 936.611 891.604 1139.43 1014.05 802.315 815.562 795.657 813.547 772.585 745.438
threshold=5.0315481008346987 -27.900974121248733 48.499463026136944 2204.7931526092329 25.132537458463734 12.522281639928702 15.629166666666668 22.15165441176471 71.878751349676136 23.460606060606064 11.578125000000002 17.149286987522284 19.904737903225811 18.327380952380956 2808.2178877669635 2244.4560531828906 57.507575757575765 6.158770161290323 0.059962721132387424 0.059719865571009591 15.98529411764706 11.061553030303033 6.8208556149732624 9.5847537878787907 16.014285714285716 6.4924242424242431 0.059956084926126516 22.836007130124781 0.73214285714285732 0.059719446208290526
decision_type=2 2 2 2 2 2 2 2 2 2 2 2 2 2 2 2 2 2 2 2 2 2 2 2 2 2 2 2 2 2
left_child=1 3 4 7 6 10 9 -1 -4 14 18 13 -13 -7 15 16 29 -18 19 24 21 23 -23 -21 -3 -26 -5 -28 -8 -2
right_child=2 5 8 26 -6 11 28 -9 -10 -11 -12 12 -14 -15 -16 -17 17 -19 -20 20 -22 22 -24 -25 25 -27 27 -29 -30 -31
leaf_value=-0.90271307828484992 -0.14487556526437403 -0.24963451403638592 0.72361909419298176 -0.68564681424981078 0.40836282266037804 -0.44788481019161364 0.21094001421221981 -0.44764422595500952 1.1499834442138672 -0.24032621114026931 0.29592618256807329 -0.21326860785484314 -0.72557028865611017 -0.06397077839321165 0.41204115676879882 -0.19554666909186735 0.53399524440368018 0.12264220714569092 0.037704781798629072 -0.26395757450507235 0.1101649902083657 -0.49238871321082112 -0.1531171526759863 0.20960530243813991 0.24212591739801259 -0.10463498473167419 -0.25768101025318757 -0.59564678321282072 0.58260892937923303 0.14454812805538308
leaf_weight=61 32 23 60 21 140 27 27 20 20 21 20 26 22 67 25 23 24 36 111 26 22 50 49 20 39 30 69 24 29 73
leaf_count=61 32 23 60 21 140 27 27 20 20 21 20 26 22 67 25 23 24 36 111 26 22 50 49 20 39 30 69 24 29 73
internal_value=0 -0.233951 0.333495 -0.566628 0.241082 -0.112011 0.160326 -0.79035 0.83021 0.102152 -0.0556495 -0.266806 -0.448074 -0.174244 0.135918 0.0991991 0.140285 0.287183 -0.0746536 -0.122807 -0.193828 -0.239951 -0.324466 -0.0580607 0.0061116 0.0913603 -0.407668 -0.344898 0.403411 0.0563428
internal_weight=0 727 510 195 430 532 290 81 80 234 390 142 48 94 213 188 165 60 370 259 167 145 99 46 92 69 114 93 56 105
internal_count=1237 727 510 195 430 532 290 81 80 234 390 142 48 94 213 188 165 60 370 259 167 145 99 46 92 69 114 93 56 105
is_linear=0
shrinkage=0.05


Tree=6
num_leaves=31
num_cat=0
split_feature=54 54 54 42 54 39 21 32 18 31 29 26 28 49 8 54 10 4 36 11 54 39 10 6 23 46 43 16 42 29
split_gain=34882.5 9651.64 9212.87 2595.57 2527.51 1600.25 1434.19 1228.56 1219.36 1129.17 1126.46 1181.77 1172.68 1000.33 1238.35 984.374 974.173 948.348 919.409 904.459 903.395 859.674 846.6 911.883 846.352 1547.41 783.718 742.175 685.173 898.446
threshold=2.6184361552191153 -27.900974121248733 48.499463026136944 2240.5705614461158 25.132537458463734 12.522281639928702 27.907670454545457 6.246212121212122 6.7537878787878798 55.621323529411775 18.530330882352946 15.98529411764706 6.3801313628899843 0.059719153805504702 11.353889943074007 71.878751349676136 15.112698412698414 7.2305502846299818 13.147603485838781 24.730303030303034 14.27993369801675 10.78709677419355 15.765625000000002 12.523689516129034 7.3015151515151517 2656.1703874062423 0.059952999708289115 12.585784313725492 2736.7633908062994 17.343137254901965
decision_type=2 2 2 2 2 2 2 2 2 2 2 2 2 2 2 2 2 2 2 2 2 2 2 2 2 2 2 2 2 2
left_child=1 3 4 -1 6 10 13 17 -7 -9 11 12 22 14 -2 -4 -15 -5 -14 21 -8 -18 -3 -24 25 -20 -13 -11 29 -6
right_child=2 5 15 7 28 8 20 9 -10 27 -12 26 18 16 -16 -17 19 -19 24 -21 -22 -23 23 -25 -26 -27 -28 -29 -30 -31
leaf_value=-0.90313409476135031 0.15806768905548824 -0.3358228132873774 0.68743813417851929 -0.4675425506953616 0.46981523063447739 -0.20274126567270445 0.19458290284330196 -0.83496955677315032 -0.61707207148983367 -0.34058330648619201 0.12880095070408237 0.33845015114003962 -0.4383678136636382 -0.1653447503135318 -0.20696236115808669 1.0924842739105225 0.32125428391354427 -0.079509939974354168 0.29180335005124414 -0.022434297284564458 0.59774880458911261 0.00011658760217519908 0.10579213775895738 -0.26085463635284795 -0.38886915223300456 -0.28046758108668857 -0.063576503373958454 -0.70542220290750268 0.54354078801388439 0.15883652803798518
leaf_weight=39 42 20 60 32 45 115 33 27 21 46 62 22 46 21 52 20 105 31 21 37 24 26 74 22 25 27 27 20 47 48
leaf_count=39 42 20 60 32 45 115 33 27 21 46 62 22 46 21 52 20 105 31 21 37 24 26 74 22 25 27 27 20 47 48
internal_value=0 -0.241484 0.291937 -0.538297 0.209143 -0.121404 0.135519 -0.447087 -0.266719 -0.562575 -0.0642863 -0.106439 -0.153013 0.0894319 -0.0438638 0.7887 0.155727 -0.276606 -0.263289 0.195861 0.364337 0.257517 -0.0398848 0.0217689 -0.152966 -0.030099 0.116925 -0.451141 0.387945 0.30931
internal_weight=0 677 560 195 480 482 340 156 136 93 346 284 235 283 94 80 189 63 119 168 57 131 116 96 73 48 49 66 140 93
internal_count=1237 677 560 195 480 482 340 156 136 93 346 284 235 283 94 80 189 63 119 168 57 131 116 96 73 48 49 66 140 93
is_linear=0
shrinkage=0.05


Tree=7
num_leaves=31
num_cat=0
split_feature=54 54 48 42 54 26 54 4 16 10 55 32 56 31 8 49 14 42 32 5 8 22 40 20 30 16 5 9 12 36
split_gain=31546.3 10205.8 7172.76 2342.51 1536.87 1513.9 1475.85 1203.42 1530.28 1233.04 1136.16 1108.78 1090.55 1019.08 984.231 1009.58 889.679 1132.02 878.312 854.787 812.069 918.841 878.457 963.634 898.385 795.522 772.098 698.954 696.883 711.088
threshold=6.5843312216347849 -27.900974121248733 2203.5543506763829 2240.5705614461158 25.132537458463734 16.134135472370769 -7.6148634469163872 6.6407624633431093 11.48529411764706 16.81534090909091 2223.2937414202875 6.246212121212122 2648.9099289021328 55.621323529411775 10.609481915933531 0.059717685679136052 23.460606060606064 2797.2775691371439 5.6715686274509816 18.190909090909095 11.039434523809526 56.985294117647065 0.69047619047619058 10.061553030303033 23.59099264705883 10.953921568627452 19.904737903225811 7.2619825708061017 61.097692307692313 13.238336713995944
decision_type=2 2 2 2 2 2 2 2 2 2 2 2 2 2 2 2 2 2 2 2 2 2 2 2 2 2 2 2 2 2
left_child=1 3 10 -1 5 16 12 -8 9 -9 -2 18 14 -13 -3 -16 17 20 -5 -14 21 -4 24 -24 -22 -17 -21 -12 29 -6
right_child=2 6 4 11 28 -7 7 8 -10 -11 27 13 19 -15 15 25 -18 -19 -20 26 22 -23 23 -25 -26 -27 -28 -29 -30 -31
leaf_value=-0.85797739640260362 0.42796476114363902 -0.33756804872642865 0.024175143241882326 -0.44652666996698831 0.41869995762263579 0.50520183273724151 -0.15122171852076166 -0.34014676758221218 0.16110640800306722 0.082627798090962809 0.73615927405473669 -0.79322108869199404 -0.56422503112504885 -0.4285835150728059 -0.25843302501099452 0.31939010647210209 -0.19449418996061599 0.43670409630084861 -0.073097025771294871 -0.042349218620973475 0.036115412310112359 0.40381081345919018 0.42485977086153898 -0.033269586165746053 -0.35103093696677168 -0.026510607484070692 -0.35245359679874111 1.0966984245926141 0.58329765918696752 0.16083039730153187
leaf_weight=39 21 33 28 32 62 28 107 35 126 34 41 27 24 66 35 22 21 29 31 34 43 37 22 24 23 68 49 20 29 47
leaf_count=39 21 33 28 32 62 28 107 35 126 34 41 27 24 66 35 22 21 29 31 34 43 37 22 24 23 68 49 20 29 47
internal_value=0 -0.199356 0.319809 -0.511382 0.231057 0.158319 -0.0920452 -0.0164805 0.0574544 -0.131823 0.745168 -0.424733 -0.178161 -0.534446 -0.0946901 -0.0305704 0.115531 0.147136 -0.262776 -0.301416 0.0996927 0.240275 0.0181044 0.185836 -0.0987992 0.0580429 -0.225423 0.854369 0.365464 0.307508
internal_weight=0 762 475 195 393 255 567 302 195 69 82 156 265 93 158 125 227 206 63 107 177 65 112 46 66 90 83 61 138 109
internal_count=1237 762 475 195 393 255 567 302 195 69 82 156 265 93 158 125 227 206 63 107 177 65 112 46 66 90 83 61 138 109
is_linear=0
shrinkage=0.05


Tree=8
num_leaves=31
num_cat=0
split_feature=54 44 54 46 55 28 44 44 16 20 45 53 26 49 47 44 18 36 25 45 47 32 23 45 45 36 20 54 20 38
split_gain=28487.2 7935.72 7559.99 1970.55 1692.52 1550.07 1506.56 1275.32 1265.58 1186.51 1081.67 1081.2 1100.76 1010.88 967.653 1366.42 897.814 851.317 1270.74 1049.58 1414.06 850.624 802.762 787.748 752.759 746.561 742.995 688.287 711.794 691.92
threshold=2.6184361552191153 2210.1697647168871 41.127150537926816 2722.8513243117036 2230.6629997547275 7.790491118077326 2241.6532879300516 2257.7022784024534 14.029411764705884 13.253565062388594 0.059724269329570347 223.74253129167371 15.661764705882353 0.059733591675533625 0.059962721132387424 2246.4045477391346 5.734313725490197 14.149286987522283 10.96966911764706 0.059719198318661688 0.059956225094594924 6.4155597722960165 7.1143790849673207 0.059727790209569122 0.059728986895483047 13.447860962566848 7.2742946708463956 22.630984775846859 10.965856481481483 2.7616632860040573
decision_type=2 2 2 2 2 2 2 2 2 2 2 2 2 2 2 2 2 2 2 2 2 2 2 2 2 2 2 2 2 2
left_child=1 5 6 8 7 13 21 10 14 23 -4 12 27 24 15 17 -14 19 -19 22 -21 -2 -3 -5 -1 -25 -23 28 29 -8
right_child=2 3 4 9 -6 -7 11 -9 -10 -11 -12 -13 16 -15 -16 -17 -18 18 -20 20 -22 26 -24 25 -26 -27 -28 -29 -30 -31
leaf_value=-0.71051944826136948 -0.17021888246716455 0.14802992346882821 0.78067153153880953 -0.22585001983493569 0.31627988861873746 -0.93440784788131726 0.37750506149977447 0.99814877625434628 0.30779571079072499 0.047834192331020653 0.31591153201602756 0.35283738379677138 0.11508594661951066 -0.17615677833557131 0.041340588893472537 0.20465880513191223 0.55054497986004269 0.30421980917453767 -0.21030673295259478 -0.22042578190292528 -0.6216117611527443 0.27481948954589441 -0.23277863081424469 -0.27581074436505637 -0.39461178544795877 -0.60729743144341874 -0.1113952362537384 0.29263038018543741 -0.059625908775606022 0.065176100613640958
leaf_weight=44 43 25 31 100 32 25 25 31 21 26 21 105 20 20 97 25 29 20 30 82 30 33 31 33 33 35 20 40 69 61
leaf_count=44 43 25 31 100 32 25 25 31 21 26 21 105 20 20 97 25 29 20 30 82 30 33 31 33 33 35 20 40 69 61
internal_value=0 -0.218228 0.263822 -0.137967 0.625205 -0.583347 0.17043 0.744308 -0.068901 -0.266487 0.59298 0.218682 0.16095 -0.492868 -0.0921675 -0.145461 0.372807 -0.185612 -0.00449612 -0.239516 -0.327886 -0.00498202 -0.0627748 -0.315132 -0.57513 -0.446429 0.129078 0.107715 0.0599947 0.155969
internal_weight=0 677 560 555 115 122 445 83 361 194 52 349 244 97 340 243 49 218 50 168 112 96 56 168 77 68 53 195 155 86
internal_count=1237 677 560 555 115 122 445 83 361 194 52 349 244 97 340 243 49 218 50 168 112 96 56 168 77 68 53 195 155 86
is_linear=0
shrinkage=0.05


Tree=9
num_leaves=31
num_cat=0
split_feature=54 54 48 42 46 42 1 44 32 10 24 24 32 22 21 31 9 4 5 22 30 3 30 11 3 54 7 55 45 23
split_gain=25784.5 8418.23 5835.24 2003.54 1445.43 1370.76 1269.87 1605.14 1423.18 1168.16 1005.84 1126.8 967.648 924.546 927.81 893.266 817.602 814.026 792.586 1127.65 961.885 1028.25 937.333 806.679 963.527 820.967 982.857 750.468 740.338 803.316
threshold=6.5843312216347849 -27.900974121248733 2203.5543506763829 2240.5705614461158 2795.2474593244506 2796.2385933268724 138.50000000000003 2244.2253887955053 6.4287878787878796 19.045036764705888 21.409007352941178 18.887605042016812 6.246212121212122 54.426406926406933 27.671568627450984 55.621323529411775 6.0151515151515165 7.2305502846299818 18.114835164835167 55.253571428571441 24.762121212121215 57.104567307692314 25.403125000000003 26.060246679316894 56.762121212121222 -10.594580672451228 14.537053571428574 2239.2065098915914 0.05972102418035239 6.7230113636363642
decision_type=2 2 2 2 2 2 2 2 2 2 2 2 2 2 2 2 2 2 2 2 2 2 2 2 2 2 2 2 2 2
left_child=1 3 10 -1 18 6 7 8 -4 13 11 -2 17 -9 -15 -14 -8 -5 28 27 23 -22 -23 24 -21 26 -26 -20 -3 -30
right_child=2 4 5 12 -6 -7 16 9 -10 -11 -12 -13 15 14 -16 -17 -18 -19 19 20 21 22 -24 -25 25 -27 -28 -29 29 -31
leaf_value=-0.78415767451127372 0.6011817628996714 -0.017963149356392195 -0.17745108674909618 -0.40908215288072824 -0.28415857621698415 0.41143080595394843 -0.21661026367434749 0.69760542631149303 0.26412837737136419 -0.0016918221245641294 0.39231527719808668 1.0459967772165935 -0.72825147332968543 0.25233616280205112 0.61664575006474154 -0.38686358087526806 0.10483268705523902 -0.049578382555515541 -0.0019574546529089703 -0.01258287022355944 -0.18893277370012726 0.43157413601875305 0.039869440914619539 0.15470006518686813 -0.20590788529121451 -0.12185969440073803 -0.65841410670961653 0.32560530913372837 -0.10621297524163598 -0.44075306399780162
leaf_weight=39 35 53 37 32 77 69 27 20 36 23 23 24 27 85 22 66 74 31 34 72 26 24 42 24 28 58 21 36 38 34
leaf_count=39 35 53 37 32 77 69 27 20 36 23 23 24 27 85 22 66 74 31 34 72 26 24 42 24 28 58 21 36 38 34
internal_value=0 -0.180233 0.289131 -0.463618 -0.0827722 0.209081 0.165988 0.232605 0.0403141 0.326187 0.672787 0.782123 -0.383483 0.385566 0.327241 -0.485976 0.0189024 -0.232183 -0.0511257 -0.013912 -0.0567224 0.0773918 0.182308 -0.117503 -0.154 -0.249159 -0.399839 0.166503 -0.15979 -0.26419
internal_weight=0 762 475 195 567 393 324 223 73 150 82 59 156 127 107 93 101 63 490 365 295 92 66 203 179 107 49 70 125 72
internal_count=1237 762 475 195 567 393 324 223 73 150 82 59 156 127 107 93 101 63 490 365 295 92 66 203 179 107 49 70 125 72
is_linear=0
shrinkage=0.05


Tree=10
num_leaves=31
num_cat=0
split_feature=52 44 48 39 42 21 21 38 44 48 39 38 42 48 44 49 9 16 20 47 37 44 46 42 2 10 16 43 47 36
split_gain=20124.8 7630.66 6302.4 2262.79 1582.23 1544.36 1534.29 1693.94 1413.79 1569.85 1278.17 1207.36 1120.44 1033.47 959.004 945.175 953.222 915.354 1093.36 1036.44 843.149 791.987 992.35 788.237 784.841 771.604 842.112 706.565 704.605 698.637
threshold=-1.4999999999999998 2211.7014529605235 2207.8434023297564 12.66098484848485 2796.2385933268724 26.596875000000004 28.015151515151519 2.6715686274509807 2243.0370210675442 2243.255530886941 7.8061497326203222 2.8461174242424248 2240.5705614461158 2189.5556403903415 2240.3851192666502 0.059730764941431751 6.6867201426024971 12.515640273704792 5.1225000000000014 0.059962721132387424 6.1039426523297502 2255.6876233422604 2797.2775691371439 2662.3230071135163 25.287683823529417 17.872983870967747 13.031280547409581 0.059951012918922165 0.059954517414095014 13.48529411764706
decision_type=2 2 2 2 2 2 2 2 2 2 2 2 2 2 2 2 2 2 2 2 2 2 2 2 2 2 2 2 2 2
left_child=2 10 5 8 6 13 7 23 14 -10 -2 -9 -12 -1 17 16 -6 19 -19 -3 -20 22 -5 -4 -24 26 27 -13 -14 -21
right_child=1 3 4 21 15 -7 -8 11 9 -11 12 25 28 -15 -16 -17 -18 18 20 29 -22 -23 24 -25 -26 -27 -28 -29 -30 -31
leaf_value=0.99285146474838271 -0.16222750264264288 -0.19579343451478054 0.11574136816824859 -0.17998732709325851 0.46836067835489914 0.22435264686743417 0.3956885381415487 -0.25471239655303796 0.45993239769229188 0.012869119540684754 -0.81142056362854476 0.38117703118107538 -0.71355858246485404 0.58183805257081989 -0.32443676797880072 0.62350010819112267 -0.0080401224749428891 0.25835670957511125 -0.23502029422106166 0.17725155808031559 0.17025726366610755 -0.036625662848756117 -0.22264566148320833 0.49487662034045005 -0.58786958009004597 -0.10155223275401765 -0.085229526381743581 0.10297184375089569 -0.36739275072302141 -0.17888868606338901
leaf_weight=20 21 128 26 80 21 24 40 37 27 72 37 33 21 65 36 24 21 44 33 40 21 37 24 29 38 56 38 74 49 21
leaf_count=20 21 128 26 80 21 24 40 37 27 72 37 33 21 65 36 24 21 44 33 40 21 37 24 29 38 56 38 74 49 21
internal_value=0 -0.168352 0.241592 -0.0936978 0.149543 0.578541 0.105216 0.0655613 -0.0305111 0.134795 -0.518877 0.00776787 -0.588874 0.678547 -0.0811779 0.373193 0.23016 -0.0506646 0.0733411 -0.114964 -0.0774124 -0.242663 -0.296349 0.315649 -0.446493 0.0560851 0.116966 0.188773 -0.471243 0.0546459
internal_weight=0 729 508 601 399 109 333 293 422 99 128 238 107 85 323 66 42 287 98 189 54 179 142 55 62 201 145 107 70 61
internal_count=1237 729 508 601 399 109 333 293 422 99 128 238 107 85 323 66 42 287 98 189 54 179 142 55 62 201 145 107 70 61
is_linear=0
shrinkage=0.05


Tree=11
num_leaves=31
num_cat=0
split_feature=54 54 54 54 55 21 42 18 30 29 35 55 35 21 10 25 5 6 49 56 22 53 4 7 20 35 2 45 49 45
split_gain=21189.9 5860.68 5619.09 1659.14 1324.88 1246.52 1245.57 1217.61 1283 1153.66 1067.63 1039.81 1133.88 1085.16 1116.4 955.767 1247.77 909.18 901.951 860.856 857.61 849.598 804.014 874.003 784.534 901.739 894.167 763.253 731.601 796.619
threshold=2.6184361552191153 -27.900974121248733 41.127150537926816 -50.539885504540727 2230.6629997547275 26.215435606060609 2796.2385933268724 6.6715686274509816 23.933982683982688 18.530330882352946 10.970142602495544 2254.5463748785287 14.217986314760511 27.907670454545457 17.784564393939398 8.6383442265795214 20.784564393939398 11.380831643002031 0.059734008986398808 2552.5749183649727 55.741727941176478 -56.148352589679227 6.5628787878787884 13.835668103448278 12.890625000000002 12.88403361344538 27.059714795008919 0.059714266985232488 0.059730764941431751 0.059718932277515235
decision_type=2 2 2 2 2 2 2 2 2 2 2 2 2 2 2 2 2 2 2 2 2 2 2 2 2 2 2 2 2 2
left_child=1 3 6 10 5 -4 11 9 21 15 -1 12 13 14 17 16 -3 19 -5 -2 22 -9 -17 -24 25 27 -27 -22 29 -8
right_child=2 7 4 18 -6 -7 28 8 -10 -11 -12 -13 -14 -15 -16 20 -18 -19 -20 -21 24 -23 23 -25 -26 26 -28 -29 -30 -31
leaf_value=-0.35241803884506229 0.30035831374781474 0.41350530505180361 0.75364712836250425 -0.36897885302347799 0.26577418390661478 0.30056875303387642 0.45336577097574876 -0.64208963654935358 -0.01179580048278526 0.14123146563768388 -0.75994139975971642 -0.23124073942502343 -0.20087909735739232 0.3832357324494256 -0.032718339785933491 -0.18631672404102378 -0.1212343583504359 0.34262059496775754 -0.0026198069006204607 0.028520979097014981 -0.054481632947921757 -0.2048716925084591 0.36056251363320785 -0.037398201972246171 0.067607550047062065 -0.21187898341852884 0.18119912976803987 -0.36464560950019709 0.56361778726180389 0.039320504894623388
leaf_weight=25 42 20 63 105 32 20 21 25 27 60 45 21 24 45 85 37 24 62 20 95 25 20 22 37 27 39 23 96 24 26
leaf_count=25 42 20 63 105 32 20 21 25 27 60 45 21 24 45 85 37 24 62 20 95 25 20 22 37 27 39 23 96 24 26
internal_value=0 -0.188213 0.227536 -0.419503 0.539095 0.644472 0.147021 -0.0946415 -0.28428 -0.0613391 -0.614397 0.110573 0.130908 0.155111 0.118965 -0.0960655 0.121829 0.183754 -0.310361 0.111858 -0.127397 -0.447771 -0.00359455 0.110994 -0.183992 -0.221113 -0.0660597 -0.300562 0.339012 0.224319
internal_weight=0 677 560 195 115 83 445 482 72 410 70 374 353 329 284 350 44 199 125 137 306 45 96 59 210 183 62 121 71 47
internal_count=1237 677 560 195 115 83 445 482 72 410 70 374 353 329 284 350 44 199 125 137 306 45 96 59 210 183 62 121 71 47
is_linear=0
shrinkage=0.05


Tree=12
num_leaves=31
num_cat=0
split_feature=54 54 54 44 4 54 26 46 38 11 14 19 16 19 25 11 22 35 42 50 24 26 35 54 8 49 22 7 14 23
split_gain=19199.2 6232.47 4332.13 1735.04 1106.72 1042.06 1144.05 930.165 790.025 770.327 765.358 744.905 1000.55 823.619 926.78 777.36 901.164 808.47 737.246 710.458 899.888 1080.62 681.026 679.69 671.156 788.328 766.207 666.598 641.312 637.114
threshold=6.5843312216347849 -25.110247971758778 48.499463026136944 2204.7931526092329 7.9666295884315916 25.132537458463734 16.134135472370769 2722.8513243117036 3.7936105476673432 25.356470588235297 23.460606060606064 2.8070719602977672 10.820855614973263 3.8385416666666674 8.8461174242424256 24.964901477832516 59.215435606060616 11.969223484848486 2797.2775691371439 10.500000000000002 22.836007130124781 14.230550284629983 12.442887931034486 71.878751349676136 11.039434523809526 0.059720259140534276 57.156402737047905 12.016666666666667 20.984848484848488 7.7303427419354849
decision_type=2 2 2 2 2 2 2 2 2 2 2 2 2 2 2 2 2 2 2 2 2 2 2 2 2 2 2 2 2 2
left_child=1 3 5 4 27 6 10 8 11 -9 18 12 -3 14 28 16 22 -17 24 -5 21 -21 -16 -4 26 -26 -2 -1 -13 -7
right_child=2 7 23 19 -6 29 -8 9 -10 -11 -12 13 -14 -15 15 17 -18 -19 -20 20 -22 -23 -24 -25 25 -27 -28 -29 -30 -31
leaf_value=-0.44538654258305377 0.011732376649461945 -0.49055870264768608 0.50087567577759429 -0.48250170297199679 -0.23870835275389257 0.37188346812062051 0.4229106102670942 -0.11798960689920933 0.16673243359352152 -0.4165116307827143 -0.20338214664232163 0.44662860780954361 -0.080442024886222763 -0.20425333870781795 0.075818535744927931 -0.038962236605584621 -0.33895284853599694 0.38584602957680114 0.34716590930675639 -0.34397202234183039 -0.48031951760252317 0.021362453047186137 -0.19758650721872556 0.83744900107383735 -0.18784049050630749 0.09419321276744208 0.35707435709320839 -0.78804105475544928 0.055424890751865775 0.15023605933084208
leaf_weight=22 29 20 60 31 20 89 28 128 48 26 21 20 58 45 69 24 27 21 29 35 24 48 34 20 37 75 36 40 22 51
leaf_count=22 29 20 60 31 20 89 28 128 48 26 21 20 58 45 69 24 27 21 29 35 24 48 34 20 37 75 36 40 22 51
internal_value=0 -0.155523 0.249492 -0.379969 -0.562126 0.181537 0.121363 -0.06442 -0.0231537 -0.168389 0.0841678 -0.0499612 -0.1856 -0.00958014 0.0307899 -0.0198315 -0.0818322 0.159282 0.113481 -0.271731 -0.210666 -0.132694 -0.0144317 0.585019 0.0751938 0.00102136 0.202999 -0.666454 0.241712 0.29114
internal_weight=0 762 475 220 82 395 255 542 388 154 227 340 78 262 217 175 130 45 206 138 107 83 103 80 177 112 65 62 42 140
internal_count=1237 762 475 220 82 395 255 542 388 154 227 340 78 262 217 175 130 45 206 138 107 83 103 80 177 112 65 62 42 140
is_linear=0
shrinkage=0.05


Tree=13
num_leaves=31
num_cat=0
split_feature=54 44 54 46 28 55 21 44 21 53 21 45 43 26 28 35 42 9 10 30 36 4 53 42 7 22 44 19 29 47
split_gain=17353.4 4863.5 4580.06 1355.84 1220.67 1162.91 1096.47 1056.5 910.875 1387.42 913.351 849.916 848.284 1041.17 886.475 857.24 802.069 889.33 797.829 1005 988.286 764.984 714.469 700.139 704.091 687.442 685.084 683.46 645.618 639.535
threshold=2.6184361552191153 2210.1697647168871 41.127150537926816 2795.2474593244506 7.790491118077326 2230.6629997547275 26.215435606060609 2241.6532879300516 27.907670454545457 228.88672697071163 28.226041666666671 0.059725681761132431 0.059952156440124547 14.180194805194807 6.4180035650623894 12.636029411764708 2615.8160562456683 5.7386148007590139 16.07670454545455 21.769412878787882 13.3969696969697 6.5628787878787884 -466.29014598253701 2588.7359976981284 14.605698529411766 56.803030303030312 2254.003047129378 2.8729838709677424 17.619168356997974 0.059962721132387424
decision_type=2 2 2 2 2 2 2 2 2 2 2 2 2 2 2 2 2 2 2 2 2 2 2 2 2 2 2 2 2 2
left_child=1 4 7 12 11 6 -4 23 9 16 -10 -1 13 -3 21 28 25 -18 20 -20 -16 -14 -13 -2 -25 -9 -5 -11 -15 -23
right_child=2 3 5 26 -6 -7 -8 8 10 27 -12 22 14 15 18 -17 17 -19 19 -21 -22 29 -24 24 -26 -27 -28 -29 -30 -31
leaf_value=-0.53830433808775113 0.12419759152417487 -0.1388336112553423 0.68831205330197776 -0.35752377018962112 -0.7676942353248597 0.23112279375782238 0.26337834194302562 0.054099691049619161 0.61792863777705609 0.1242165290990046 0.20507859418521057 -0.45067721099957175 -0.2011076344471229 -0.081411707554108065 -0.28411970647672813 0.39350472384442892 -0.23979637215620486 0.067305887041110846 -0.060420831938584642 -0.35091117102314129 0.12785426249375215 -0.012847311638582213 -0.08027378375331562 0.01822227580206735 -0.36477327251008584 0.44936778491193596 -0.048516337387263776 0.40492078311610646 0.25733817788687618 0.2939298394581546
leaf_weight=44 47 55 63 71 25 32 20 22 21 35 37 23 38 39 24 24 29 126 45 88 37 65 30 28 21 22 24 57 22 23
leaf_count=44 47 55 63 71 25 32 20 22 21 35 37 23 38 39 24 24 29 126 45 88 37 65 30 28 21 22 24 57 22 23
internal_value=0 -0.170324 0.20591 -0.107492 -0.45616 0.487193 0.585918 0.133219 0.173625 0.137563 0.354559 -0.375868 -0.0719772 0.0306761 -0.116888 0.140359 0.0633303 0.00984804 -0.183956 -0.252625 -0.0342339 -0.0136252 -0.241015 -0.0136743 -0.145919 0.251734 -0.279459 0.298131 0.0407604 0.0673331
internal_weight=0 677 560 555 122 115 83 445 349 291 58 97 460 140 320 85 199 155 194 133 61 126 53 96 49 44 95 92 61 88
internal_count=1237 677 560 555 122 115 83 445 349 291 58 97 460 140 320 85 199 155 194 133 61 126 53 96 49 44 95 92 61 88
is_linear=0
shrinkage=0.05


Tree=14
num_leaves=31
num_cat=0
split_feature=54 44 54 46 54 39 42 31 6 2 14 4 22 29 26 54 28 43 43 10 3 2 4 41 18 55 44 31 9 18
split_gain=15661.4 4392.7 4159.84 1248.72 1209.57 979.992 866.667 820.937 818.926 801.482 787.851 741.045 1102.69 1166.83 1040.81 1002.78 922.813 1017.35 885.352 791.676 676.078 666.957 813.429 647.246 625.887 623.009 618.288 608.802 604.459 861.031
threshold=2.6184361552191153 2211.7014529605235 48.499463026136944 2795.2474593244506 25.132537458463734 7.8061497326203222 2240.5705614461158 60.090992647058833 13.953571428571431 24.476310483870972 20.843137254901965 6.1791443850267394 57.044700460829496 15.554193548387099 14.444556451612906 -10.594580672451228 6.4393382352941186 0.059951611798374584 0.059973119344115138 16.187683284457481 57.339743589743598 25.985294117647062 7.6507056451612909 0.77500000000000013 4.9031250000000011 2227.4923278960373 2254.003047129378 54.449159663865551 6.9852941176470598 6.3180147058823541
decision_type=2 2 2 2 2 2 2 2 2 2 2 2 2 2 2 2 2 2 2 2 2 2 2 2 2 2 2 2 2 2
left_child=1 5 4 11 7 -1 -7 8 9 -2 -9 -3 14 -14 15 18 23 -18 -13 -19 -4 22 -11 -15 -23 -22 -5 -26 -6 -30
right_child=2 3 20 26 28 6 -8 10 -10 21 -12 12 13 16 -16 -17 17 19 -20 -21 25 24 -24 -25 27 -27 -28 -29 29 -31
leaf_value=-0.1055942216515541 0.25089375878635206 -0.18876777662290742 0.36034875072757988 -0.33964757689497843 0.36039200925827031 -0.68263019425039362 -0.38344642175095422 0.51275784735168728 0.36135020795322603 -0.29597264279212271 0.074268154799938202 -0.39167605432060859 -0.36543134314673287 0.26197225012336717 0.27707313180797633 0.1525935129717339 0.10072187153916611 -0.04766145603110393 0.058760478645563136 -0.33044623250988403 0.85515075588510148 0.30130009651184086 0.081961576951046791 -0.098499008156359202 -0.15199620828032495 0.48573427960276611 -0.046090517503519855 0.073481335442419318 0.27339211377832628 -0.12089697688817978
leaf_weight=20 38 97 34 71 75 37 70 21 21 35 20 24 35 33 45 43 38 45 20 55 21 22 24 20 40 25 24 119 45 20
leaf_count=20 38 97 34 71 75 37 70 21 21 35 20 24 35 33 45 43 38 45 20 55 21 22 24 20 40 25 24 119 45 20
internal_value=0 -0.161808 0.195615 -0.100607 0.139981 -0.426854 -0.486902 0.089049 0.0602789 0.0375361 0.29886 -0.0661814 -0.0329667 -0.10003 0.0818545 -0.0191206 -0.0513967 -0.119506 -0.186932 -0.203193 0.529417 0.00375445 -0.142237 0.125945 0.0513427 0.654381 -0.265486 0.0167574 0.263672 0.152072
internal_weight=0 677 560 550 480 127 107 340 299 278 41 455 358 226 132 87 191 138 44 100 80 240 59 53 181 46 95 159 140 65
internal_count=1237 677 560 550 480 127 107 340 299 278 41 455 358 226 132 87 191 138 44 100 80 240 59 53 181 46 95 159 140 65
is_linear=0
shrinkage=0.05


Tree=15
num_leaves=31
num_cat=0
split_feature=54 54 54 44 4 42 1 44 32 39 29 5 9 47 29 34 31 15 54 30 10 5 12 50 24 26 7 19 53 24
split_gain=14186.2 4677.22 3202.52 1285.75 925.644 900.735 1082.16 1170.53 1190.02 876.679 881.212 985.312 755.591 709.512 705.902 738.288 796.547 665.945 799.738 790.519 658.169 639.512 858.923 620.055 803.22 975.469 610.045 609.592 684.916 684.956
threshold=6.5843312216347849 -25.110247971758778 48.499463026136944 2204.7931526092329 7.9666295884315916 2796.2385933268724 138.50000000000003 2244.2253887955053 6.4287878787878796 12.522281639928702 17.149286987522284 19.904737903225811 6.9852941176470598 0.05995718534791513 16.81534090909091 8.4058823529411786 54.777721774193559 8.8925189393939412 -6.6453523337486322 23.014705882352946 17.950231481481485 18.327380952380956 54.63068181818182 10.500000000000002 22.836007130124781 14.230550284629983 12.016666666666667 2.7669683257918556 -19.727494063675518 21.523689516129036
decision_type=2 2 2 2 2 2 2 2 2 2 2 2 2 2 2 2 2 2 2 2 2 2 2 2 2 2 2 2 2 2
left_child=1 3 5 4 26 6 7 8 -2 14 21 -12 -9 -8 17 -16 -17 -3 -19 -20 -14 -11 -23 -5 25 -25 -1 -18 29 -29
right_child=2 9 -4 23 -6 -7 13 12 -10 10 11 -13 20 -15 15 16 27 18 19 -21 -22 22 -24 24 -26 -27 -28 28 -30 -31
leaf_value=-0.3688603195404126 -0.18047391305098665 -0.21882502654424082 0.50294639246538286 -0.43185072502181421 -0.18915219262242319 0.32461033258022687 -0.18066790302594504 0.36173120700535089 0.21789539646553366 -0.28471479403972627 -0.13388913986938342 -0.58103740540417759 0.23942141786534737 0.090693042780612673 0.2926365123345302 -0.15872907420763605 -0.12328066565096379 -0.17274966735858471 0.32425133452440302 -0.037063005930039937 -0.10304046846926213 0.28577964864671229 -0.10670736756013788 -0.30496896558574271 -0.43265714620550472 0.042136171506717807 -0.69665766775608073 0.11454226502350398 -0.036123784986280265 0.4503736581653357
leaf_weight=22 37 65 80 31 20 66 39 85 38 25 28 22 47 63 26 52 32 48 24 41 20 20 46 35 24 48 40 49 42 22
leaf_count=22 37 65 80 31 20 66 39 85 38 25 28 22 47 63 26 52 32 48 24 41 20 20 46 35 24 48 40 49 42 22
internal_value=0 -0.133687 0.214462 -0.328122 -0.48493 0.156034 0.122217 0.183003 0.0213665 -0.0547647 -0.162004 -0.330634 0.262758 -0.0130626 -0.0170571 0.0422119 0.00916091 -0.0913099 -0.0179605 0.0963454 0.137194 -0.0693496 0.0122281 -0.234946 -0.177899 -0.104233 -0.580342 0.0693697 0.123926 0.218603
internal_weight=0 762 475 220 82 395 329 227 75 542 141 50 152 102 401 223 197 178 113 65 67 91 66 138 107 83 62 145 113 71
internal_count=1237 762 475 220 82 395 329 227 75 542 141 50 152 102 401 223 197 178 113 65 67 91 66 138 107 83 62 145 113 71
is_linear=0
shrinkage=0.05


Tree=16
num_leaves=31
num_cat=0
split_feature=54 54 48 44 21 53 30 39 3 39 43 29 5 24 9 6 9 55 5 12 12 8 38 15 33 21 19 12 46 46
split_gain=12810.2 3969.52 3139.26 1066.8 989.145 1334.25 984.996 853.818 824.999 805.667 779.572 751.721 872.426 734.285 737.589 721.247 709.53 705.259 702.032 617.863 1298.38 758.243 719.17 701.319 651.389 604.848 629.504 773.368 707.628 725.092
threshold=5.0315481008346987 -27.900974121248733 2203.5543506763829 2193.0271097360824 27.970142602495546 228.88672697071163 21.09232954545455 12.522281639928702 57.339743589743598 11.578125000000002 0.059956084926126516 17.149286987522284 19.904737903225811 21.648823529411768 7.2943722943722955 9.9031250000000011 6.2922201138519931 2230.9101176104818 18.327380952380956 52.551971326164882 54.911612903225816 11.308658008658011 2.7616632860040573 9.2222782258064537 19.257352941176475 29.265395894428156 3.8385416666666674 57.714213709677431 2679.3001820335535 2588.8041532798711
decision_type=2 2 2 2 2 2 2 2 2 2 2 2 2 2 2 2 2 2 2 2 2 2 2 2 2 2 2 2 2 2
left_child=1 3 8 -1 5 19 -7 9 -2 25 -5 18 -13 14 17 -8 -15 -12 -9 -4 24 23 -23 -22 -21 26 27 -3 29 -29
right_child=2 7 4 10 -6 6 15 11 -10 -11 13 12 -14 16 -16 -17 -18 -19 -20 20 21 22 -24 -25 -26 -27 -28 28 -30 -31
leaf_value=-0.655694349787452 0.29173412516713143 -0.090205455300482851 -0.23032542511820797 -0.55050220433622599 0.32605599507689481 -0.080569040491467431 0.11194239873439074 -0.30204707759398003 0.61237626134398138 0.28329195074737074 -0.41326714595779779 -0.13391315776568194 -0.5617291551421989 -0.14141899287700652 0.064332774833396639 0.38170991620669764 -0.50934683162915084 -0.081308136461302638 -5.6633153068485544e-05 0.12244376335825241 0.36935626313090331 0.10698695881913106 -0.18561417645641737 7.6483479804462863e-05 0.46064615404854226 0.21809478402137758 -0.23054454235926919 0.021075745870141275 -0.16080114447589344 0.32420004321371809
leaf_weight=22 35 198 20 24 60 21 37 27 47 20 32 26 22 20 27 75 38 32 67 35 20 30 70 36 24 21 46 47 24 34
leaf_count=22 35 198 20 24 60 21 37 27 47 20 32 26 22 20 27 75 38 32 67 35 20 30 70 36 24 21 46 47 24 34
internal_value=0 -0.134766 0.192108 -0.327745 0.13781 0.107117 0.23367 -0.0640312 0.475517 -0.0258097 -0.286041 -0.169006 -0.329995 -0.243443 -0.154829 0.29259 -0.382475 -0.247288 -0.0867986 0.0354937 0.0602211 -0.015343 -0.0978338 0.131962 0.260018 -0.0425179 -0.0581994 -0.0320348 0.0776584 0.148313
internal_weight=0 727 510 195 428 368 133 532 82 390 173 142 48 149 91 112 58 64 94 235 215 156 100 56 59 370 349 303 105 81
internal_count=1237 727 510 195 428 368 133 532 82 390 173 142 48 149 91 112 58 64 94 235 215 156 100 56 59 370 349 303 105 81
is_linear=0
shrinkage=0.05


Tree=17
num_leaves=31
num_cat=0
split_feature=54 44 54 21 55 41 18 12 21 28 29 1 49 22 47 24 15 11 1 47 49 42 54 54 47 53 23 35 34 14
split_gain=11572.5 3320.53 3090.39 968.437 1023.87 960.53 1040.4 941.306 944.481 868.013 839.664 881.289 968.217 943.912 979.62 829.294 913.206 822.722 818.927 788.199 713.811 712.804 699.833 686.391 961.438 671.213 712.811 670.618 619.927 604.46
threshold=2.6184361552191153 2211.7014529605235 37.09288564699569 26.596875000000004 2230.6629997547275 0.69047619047619058 6.6614583333333348 52.296676441837739 27.907670454545457 7.790491118077326 17.88057040998218 141.50000000000003 0.059721502488688356 55.381048387096783 0.059952655721859087 17.779411764705888 8.9852941176470598 23.640086206896555 136.50000000000003 0.059952655721859087 0.059733591675533625 2282.4889908775322 10.92835829395881 -7.6148634469163872 0.059964187716693221 23.300062989817665 8.1277173913043494 12.442887931034486 8.3492943548387117 17.610722610722615
decision_type=2 2 2 2 2 2 2 2 2 2 2 2 2 2 2 2 2 2 2 2 2 2 2 2 2 2 2 2 2 2
left_child=1 9 7 4 29 6 10 -2 15 20 11 12 -3 -14 -15 18 22 -10 -9 -18 21 -1 -17 -7 27 -21 -27 -25 -24 -4
right_child=2 5 3 -5 -6 23 -8 8 17 -11 -12 -13 13 14 -16 16 19 -19 -20 25 -22 -23 28 24 -26 26 -28 -29 -30 -31
leaf_value=-0.54175149270466394 -0.13699235155394204 0.12557809070134773 0.31767526849483452 0.13000447251833977 0.21108798544966811 -0.20916336744609809 -0.23550526028418026 0.00094826473957962474 0.54815355200659155 -0.62716649759274268 0.18747760325165119 0.21827801558478127 0.070377951552127976 -0.041605127389941904 -0.42527028443973242 -0.049920603065263663 -0.19280270403251054 0.16748137190006673 0.33717807783321901 0.30374511806737808 -0.051323790238662209 -0.23940262134948914 0.13797581781234061 -0.046994801339778035 0.17018810716622018 -0.08454500702587335 0.22903528861546271 -0.39041705372676788 0.49265437613834034 0.63381407295388215
leaf_weight=35 38 39 21 32 33 180 46 27 22 26 59 29 29 28 41 21 48 40 55 21 22 44 28 44 34 74 24 21 22 54
leaf_count=35 38 39 21 32 33 180 46 27 22 26 59 29 29 28 41 21 48 40 55 21 22 44 28 44 34 74 24 21 22 54
internal_value=0 -0.139091 0.168151 0.371594 0.443176 -0.0858801 -0.0188359 0.100337 0.123945 -0.369531 0.025461 -0.0321232 -0.0851279 -0.16898 -0.26958 0.0893388 0.0420925 0.302559 0.226468 -0.0217687 -0.303209 -0.373355 0.192301 -0.151002 -0.0452539 0.0472199 -0.00774983 -0.157947 0.294034 0.545295
internal_weight=0 677 560 140 108 550 271 420 382 127 225 166 137 98 69 320 238 62 82 167 101 79 71 279 99 119 98 65 50 75
internal_count=1237 677 560 140 108 550 271 420 382 127 225 166 137 98 69 320 238 62 82 167 101 79 71 279 99 119 98 65 50 75
is_linear=0
shrinkage=0.05


Tree=18
num_leaves=31
num_cat=0
split_feature=54 54 54 42 22 40 30 10 45 18 22 18 30 53 6 4 6 46 5 56 49 43 47 11 26 9 36 3 27 8
split_gain=10492.1 3492.33 2391.18 1023.34 855.692 784.837 1372.97 1041.96 1043.12 822.548 785.71 735.928 1262.75 1036.09 639.037 636.061 632.019 768.731 999.095 685.553 717.502 864.459 686.224 626.196 978.254 847.752 680.465 597.842 584.433 561.597
threshold=6.5843312216347849 -25.110247971758778 48.499463026136944 2240.5705614461158 54.484359726295217 0.69047619047619058 21.363970588235297 17.907670454545457 0.059723603520877744 6.3180147058823541 56.066964285714292 6.6715686274509816 23.933982683982688 -56.148352589679227 8.1929280397022346 5.9852941176470598 11.388146167557935 2710.4499447454 19.218963831867061 2539.8956431831989 0.05973187429557731 0.05995833882862317 0.059970599568626853 21.828431372549023 15.615275142314992 6.6867201426024971 13.078600405679515 60.257352941176478 13.149286987522283 11.353889943074007
decision_type=2 2 2 2 2 2 2 2 2 2 2 2 2 2 2 2 2 2 2 2 2 2 2 2 2 2 2 2 2 2
left_child=1 3 5 -1 -5 7 -7 8 10 28 -2 16 13 -13 -6 -8 19 18 -18 -3 22 -22 -21 -17 25 26 -25 -16 -10 -4
right_child=2 11 29 4 14 6 15 -9 9 -11 -12 12 -14 -15 27 23 17 -19 -20 20 21 -23 -24 24 -26 -27 -28 -29 -30 -31
leaf_value=-0.51529512306054437 0.13125685691833497 0.12848654486238958 0.3198205807620822 0.067156849162919183 -0.5101791719595592 -0.1061783674263185 0.45630013789050283 -0.15003978364997439 0.21555165465921167 0.00092100966721773156 -0.31194461867213252 -0.56574255156517028 0.07355545709530513 -0.11903890956331183 -0.18680485068049668 0.029208013456728722 -0.0063924678126159986 -0.075900779120505801 0.31991948293315042 -0.076322403758892723 -0.052609677086858188 -0.40660146134240294 0.2329307670146227 0.47730737964312236 0.57635416345936918 -0.0037976935054316666 0.12410509324073792 -0.48280267447233199 0.53535744622349746 0.58780459980754285
leaf_weight=39 20 40 46 21 24 31 32 45 50 32 20 25 30 27 116 36 49 63 45 174 34 35 20 30 21 33 25 20 20 34
leaf_count=39 20 40 46 21 24 31 32 45 50 32 20 25 30 27 116 36 49 63 45 174 34 35 20 30 21 33 25 20 20 34
internal_value=0 -0.11497 0.184436 -0.282982 -0.232925 0.13395 0.200777 0.0596185 0.126059 0.210924 -0.0903439 -0.0467737 -0.184768 -0.3338 -0.272311 0.254537 -0.0221748 0.0592446 0.149821 -0.0643624 -0.093693 -0.232171 -0.0444406 0.21001 0.269724 0.196551 0.316761 -0.230334 0.306925 0.433714
internal_weight=0 762 475 220 181 395 208 187 142 102 40 542 82 52 160 177 460 157 94 303 263 69 194 145 109 88 55 136 70 80
internal_count=1237 762 475 220 181 395 208 187 142 102 40 542 82 52 160 177 460 157 94 303 263 69 194 145 109 88 55 136 70 80
is_linear=0
shrinkage=0.05


Tree=19
num_leaves=31
num_cat=0
split_feature=53 53 52 44 48 30 3 2 56 47 38 31 45 3 5 45 7 48 8 21 37 37 7 52 2 39 26 40 12 31
split_gain=8434.5 4492.08 1255.64 1058.92 980.216 931.884 964.288 988.365 931.247 946.528 975.327 843.274 836.687 758.105 706.284 671.718 669.049 627.893 599.762 579.448 770.183 631.943 571.064 732.8 521.183 519.65 833.387 809.317 745.784 680.066
threshold=223.74253129167371 -230.53382238126298 -13.999999999999998 2204.7931526092329 2243.1796289164899 21.09232954545455 54.118983957219264 26.051315789473687 2650.7079955244758 0.059943966327771402 3.772977941176471 51.738636363636367 0.059730457904465163 53.285161290322584 22.15165441176471 0.059718359898287637 12.016666666666667 2251.5530465860688 11.949519230769232 27.727022058823533 6.1039426523297502 5.8523965141612209 13.835668103448278 8.5000000000000018 27.985294117647062 4.7154882154882163 13.365151515151517 0.45000000000000007 59.790998217468818 58.361904761904768
decision_type=2 2 2 2 2 2 2 2 2 2 2 2 2 2 2 2 2 2 2 2 2 2 2 2 2 2 2 2 2 2
left_child=1 3 24 14 8 -4 -7 -8 9 -3 25 -6 17 -5 16 -9 -1 -13 -12 21 -21 -19 -15 -24 -2 26 -11 -27 29 -29
right_child=2 4 5 13 11 6 7 15 -10 10 18 12 -14 22 -16 -17 -18 19 -20 20 -22 -23 23 -25 -26 27 -28 28 -30 -31
leaf_value=-0.27178058342209888 0.33089830293541866 -0.22953819062028613 -0.07665079012513161 -0.46536799341440205 0.19141333303574859 -0.059986015302794321 0.55811897282799083 0.4488691238287304 0.25414911546605701 0.089511287608183929 0.38821536815414825 0.058755023729535616 -0.20059238872696869 -0.011096285480373311 -0.15445290725678207 0.16730727383374483 -0.62344093785474186 -0.091213402429292378 0.044507674466479907 -0.1264206873001279 0.25869252234697343 -0.4073385294675827 -0.41265287280082702 -0.071211982202349297 0.67542097283446267 0.23589474141597747 -0.2458391809328036 0.0094865233525633814 0.21339169474667871 -0.25228022029905611
leaf_weight=21 21 35 24 20 29 21 30 28 47 32 30 101 113 53 20 87 38 43 22 37 20 25 30 33 23 45 44 100 32 33
leaf_count=21 21 35 24 20 29 21 30 28 47 32 30 101 113 53 20 87 38 43 22 37 20 25 30 33 23 45 44 100 32 33
internal_value=0 -0.0630627 0.270307 -0.265638 -0.00779138 0.21457 0.256674 0.302535 0.0444082 0.0179797 0.0436103 -0.067367 -0.0895045 -0.181067 -0.41123 0.235861 -0.498274 -0.0339606 0.242801 -0.108875 0.00870675 -0.207436 -0.132049 -0.233803 0.51099 0.00739385 -0.104639 0.0479391 -0.00332158 -0.0554631
internal_weight=0 1003 234 215 788 190 166 145 420 373 338 368 339 136 79 115 59 226 52 125 57 68 116 63 44 286 76 210 165 133
internal_count=1237 1003 234 215 788 190 166 145 420 373 338 368 339 136 79 115 59 226 52 125 57 68 116 63 44 286 76 210 165 133
is_linear=0
shrinkage=0.05


Tree=20
num_leaves=31
num_cat=0
split_feature=54 54 48 25 20 24 23 45 54 3 15 26 25 46 35 4 25 20 21 55 5 9 54 4 7 32 25 24 3 15
split_gain=8628 2965.29 1935.92 922.691 852.365 863.996 783.995 965.182 874.942 906.599 850.145 969.465 775.452 732.223 798.767 1482.29 724.173 801.486 765.486 713.699 712.257 659.654 663.341 631.674 1059.28 882.475 850.73 608.083 714.755 604.647
threshold=7.3257070682147978 -25.110247971758778 2203.5543506763829 14.10686274509804 1.2457386363636365 22.836007130124781 7.1143790849673207 0.059719102971074266 1.9072595206905592 59.691176470588239 10.98529411764706 14.199715370018977 13.164438502673798 2529.5745392067711 11.538352272727275 9.0655913978494649 7.3866248693834908 6.4327094474153306 27.907670454545457 2223.2937414202875 17.761140819964353 5.7386148007590139 -5.5570522943905862 7.3492943548387109 14.089572192513371 6.338541666666667 11.65686274509804 18.114835164835167 54.372994652406426 11.209508881922678
decision_type=2 2 2 2 2 2 2 2 2 2 2 2 2 2 2 2 2 2 2 2 2 2 2 2 2 2 2 2 2 2
left_child=1 4 19 6 -1 23 7 -3 9 10 11 -9 16 -8 21 20 -4 -18 27 -2 -16 -15 -23 24 26 -25 -6 -19 -29 -22
right_child=2 3 12 -5 5 -7 13 8 -10 -11 -12 -13 -14 14 15 -17 17 18 -20 -21 29 22 -24 25 -26 -27 -28 28 -30 -31
leaf_value=-0.53827520820001762 0.14044368437358312 0.20449509796366763 0.3132039822436668 -0.28874244302511215 0.025511260097846392 -0.43321311974372617 -0.33220866597615761 -0.11611996460705996 0.19146825773151299 -0.39091384008526808 -0.25257569566369059 0.22986457048938044 0.38205722393812958 -0.36947678498647835 -0.1419504247053906 -0.3771751776337624 -0.21905366962864284 0.20081670320322439 0.28561182189336481 0.47839956752589496 0.084066658419898799 -0.19575773809316024 0.089799128247029861 0.15335561704886114 -0.56833157450670291 -0.21084806810204804 -0.3288075093800823 -0.26243310634046796 0.054173945994457101 0.38592115044593811
leaf_weight=24 21 67 37 35 32 39 26 40 38 20 30 41 27 27 27 20 21 62 47 61 79 53 33 29 21 39 36 20 164 21
leaf_count=24 21 67 37 35 32 39 26 40 38 20 30 41 27 27 27 20 21 62 47 61 79 53 33 29 21 39 36 20 164 21
internal_value=0 -0.101603 0.171622 -0.0402164 -0.257024 -0.222585 -0.0235528 0.0439028 -0.0197639 -0.0810374 -0.0252038 0.059008 0.123847 -0.0792155 -0.0539162 0.0229214 0.103985 0.0793316 0.100718 0.39185 0.0859287 -0.153873 -0.0861836 -0.170264 -0.257929 -0.0555259 -0.162069 0.0653923 0.0197601 0.147456
internal_weight=0 777 460 557 220 196 522 236 169 131 111 81 378 286 260 147 351 314 293 82 127 113 86 157 89 68 68 246 184 100
internal_count=1237 777 460 557 220 196 522 236 169 131 111 81 378 286 260 147 351 314 293 82 127 113 86 157 89 68 68 246 184 100
is_linear=0
shrinkage=0.05


Tree=21
num_leaves=31
num_cat=0
split_feature=54 44 48 24 4 22 12 54 47 25 21 44 44 28 10 16 53 12 47 33 8 38 9 38 7 51 45 45 34 0
split_gain=7789.99 2512.19 1938.07 1049 868.909 1282.86 864.382 816.724 1001 788.177 727.534 767.55 724.848 710.451 670.252 666.527 643.179 911.582 889.346 651.131 620.605 628.652 618.527 614.009 608.41 604.386 592.355 589.219 579.154 700.442
threshold=5.0315481008346987 2211.7014529605235 2207.8434023297564 22.777721774193552 6.5628787878787884 55.381048387096783 51.368595825426951 -10.131942526328428 0.059957832305129001 10.406828703703704 27.970142602495546 2251.3561857319842 2239.7930967528896 7.790491118077326 16.561250000000005 11.819805194805197 228.88672697071163 54.911612903225816 0.059970599568626853 19.257352941176475 11.308658008658011 2.7616632860040573 6.3905180840664721 3.2857862903225814 14.257352941176473 1.5000000000000002 0.059718539855531654 0.059725681761132431 11.031754032258066 1.5000000000000002
decision_type=2 2 2 2 2 2 2 2 2 2 2 2 2 2 2 2 2 2 2 2 2 2 2 2 2 2 2 2 2 2
left_child=1 13 3 -2 25 26 -4 12 15 14 16 -12 28 27 -10 -9 17 19 -18 -8 22 -22 -19 -20 -14 -3 -6 -1 29 -7
right_child=2 4 6 -5 5 7 10 8 9 -11 11 -13 24 -15 -16 -17 18 20 23 -21 21 -23 -24 -25 -26 -27 -28 -29 -30 -31
leaf_value=-0.37668410433416671 0.42357372409967059 -0.37288520165063721 -0.22141308702528475 0.059621477757508937 0.35083274847039814 0.13598803147310165 0.074581787426297258 -0.22303054565563799 0.091003435850143435 -0.042439594145478876 0.086323409199714665 0.46748780286205671 -0.11799265578389169 -0.53947418885162246 0.49544553614798048 0.043313581249474181 0.33958862291046366 -0.098327474973418497 0.19495356344815457 0.4024983923882246 0.08863588402668636 -0.1855263220659201 0.24393736384809017 -0.13355326306819917 -0.49506407406019132 -0.11591284422452251 0.062843800957004231 -0.13559468876231801 -0.26112152173676911 -0.13499361654384096
leaf_weight=47 83 27 20 26 26 41 41 48 20 29 25 28 20 26 21 46 51 22 33 24 30 69 33 25 23 150 57 55 34 57
leaf_count=47 83 27 20 26 26 41 41 48 20 29 25 28 20 26 21 46 51 22 33 24 30 69 33 25 23 150 57 55 34 57
internal_value=0 -0.105092 0.149808 0.336759 -0.0621269 -0.0231261 0.0989911 -0.0662624 0.0139063 0.157053 0.11581 0.287693 -0.141392 -0.306158 0.298157 -0.0926919 0.0880365 0.0386407 0.187281 0.195659 -0.0276332 -0.102447 0.107031 0.0533558 -0.319682 -0.155112 0.153057 -0.246685 -0.0833126 -0.0216237
internal_weight=0 727 510 109 599 422 401 339 164 70 381 53 175 128 41 94 328 219 109 65 154 99 55 58 43 177 83 102 132 98
internal_count=1237 727 510 109 599 422 401 339 164 70 381 53 175 128 41 94 328 219 109 65 154 99 55 58 43 177 83 102 132 98
is_linear=0
shrinkage=0.05


Tree=22
num_leaves=31
num_cat=0
split_feature=54 54 52 10 10 40 25 25 44 29 32 32 53 43 38 55 24 28 26 12 47 24 52 45 55 50 49 49 36 19
split_gain=7044.74 2471.53 1659.06 898.398 1496.68 1151.68 1034.87 794.903 767.007 737.105 856.053 707.302 705.649 656.176 629.763 606.604 596.017 590.048 675.04 768.983 693.351 672.077 861.04 778.193 574.803 546.782 545.757 664.254 545.19 532.577
threshold=7.3257070682147978 -25.110247971758778 -13.999999999999998 16.349294354838715 15.846117424242426 0.73214285714285732 8.883928571428573 14.10686274509804 2193.0271097360824 18.530330882352946 6.6769449715370035 5.3881461675579336 256.53060475142257 0.059956084926126516 2.5075757575757582 2226.7422370492209 22.836007130124781 6.0307765151515165 15.20294117647059 52.985294117647065 0.059964721334351455 23.970142602495546 -2.4999999999999996 0.059726631864421585 2244.244240999159 9.5000000000000018 0.059732691512162046 0.059728870715045769 10.307765151515154 3.2709790209790213
decision_type=2 2 2 2 2 2 2 2 2 2 2 2 2 2 2 2 2 2 2 2 2 2 2 2 2 2 2 2 2 2
left_child=1 8 15 4 6 14 -4 9 -1 17 -11 -7 -6 -10 -5 -2 -15 18 19 -3 -21 22 -19 26 -23 -25 27 29 -20 -24
right_child=2 7 3 5 12 11 -8 -9 13 10 -12 -13 -14 16 -16 -17 -18 21 28 20 -22 24 23 25 -26 -27 -28 -29 -30 -31
leaf_value=-0.51377978162332016 0.65042068541049958 0.20895419681134322 0.33503345008939506 0.20885825668062485 0.27927650438669399 -0.090878159375417808 -0.0067011945156587498 -0.2664406216144562 -0.42231296763337894 0.0065780999579212879 0.3547508285739101 0.22777271299969915 0.62846827092378044 -0.11775374305193072 -0.090849495317154347 0.27757571982219814 -0.35198042927419437 0.20503404504009365 -0.0014931668837865194 -0.21008232885463671 0.12204097587276588 -0.064418385148048402 0.080277535302395175 -0.089999004818023531 -0.38665338736027483 -0.3469598257863844 -0.23787452237946646 0.26018271521450237 0.33818925766757246 -0.18780395840294661
leaf_weight=22 20 24 32 21 39 21 72 35 29 55 26 102 23 135 106 24 34 29 21 55 22 25 44 47 31 37 21 26 27 32
leaf_count=22 20 24 32 21 39 21 72 35 29 55 26 102 23 135 106 24 34 29 21 55 22 25 44 47 31 37 21 26 27 32
internal_value=0 -0.0918092 0.155078 0.124196 0.214368 0.0643214 0.0984479 -0.0357655 -0.233701 -0.0202988 0.118337 0.173369 0.408815 -0.202582 -0.0412915 0.447051 -0.164876 -0.0457626 0.0352015 -0.0381656 -0.11519 -0.0870765 -0.0501255 -0.0858724 -0.242798 -0.203184 -0.00575715 0.0420317 0.189578 -0.0325989
internal_weight=0 777 460 416 166 250 104 557 220 522 81 123 62 198 127 44 169 441 149 101 77 292 236 207 56 84 123 102 48 76
internal_count=1237 777 460 416 166 250 104 557 220 522 81 123 62 198 127 44 169 441 149 101 77 292 236 207 56 84 123 102 48 76
is_linear=0
shrinkage=0.05


Tree=23
num_leaves=31
num_cat=0
split_feature=54 54 54 54 23 46 15 39 35 43 38 29 14 16 16 49 21 42 22 42 6 6 45 21 46 43 35 25 54 6
split_gain=6362.95 1995.15 1843.99 860.521 828.787 771.997 765.385 756.347 703.664 660.128 814.059 739.556 647.51 714.669 883.487 851.688 845.781 620.109 584.496 564.284 541.227 538.533 525.968 800.452 710.698 501.42 498.956 558.526 450.127 439.505
threshold=2.6184361552191153 -50.539885504540727 25.132537458463734 71.878751349676136 7.7303427419354849 2795.2474593244506 9.6715686274509824 4.624613003095976 10.970142602495544 0.059952156440124547 2.5645833333333337 18.292220113851993 23.84924242424243 12.299663299663301 13.031280547409581 0.059718441929780881 25.851470588235298 2679.7572109268376 56.208556149732622 2659.7157948919726 11.446394686907022 10.184659090909092 0.0597238003924307 28.523200757575761 2859.9112563550293 0.059962745170293784 12.636029411764708 9.803225806451616 10.765860853326332 9.3834841628959307
decision_type=2 2 2 2 2 2 2 2 2 2 2 2 2 2 2 2 2 2 2 2 2 2 2 2 2 2 2 2 2 2
left_child=1 8 12 4 6 9 7 -4 -1 11 -11 26 13 15 18 16 -2 -12 -15 -6 28 -8 24 -24 -7 -23 27 -3 -17 -30
right_child=2 5 3 -5 19 22 21 -9 -10 10 17 -13 -14 14 -16 20 -18 -19 -20 -21 -22 25 23 -25 -26 -27 -28 -29 29 -31
leaf_value=-0.14321073827147485 -0.31014890490156233 0.082821529541885666 0.26111445851899961 0.55018668562173845 -0.15551095377831234 -0.28660516909190586 -0.04001143699511886 0.66120636378015796 -0.47405628267261718 0.11459092656771341 -0.13323177546876494 0.26300029680132869 -0.21063356968489561 0.1362789692526514 0.03190450888872147 -0.14944353086212953 0.050615587271749973 0.12152094918374833 0.48067287142787668 0.16192414416443734 0.19589885768909304 0.16854361174057941 -0.46042091634237403 -0.071061560647054156 0.11168861364324888 0.46562982812523845 0.15033310595899821 -0.18835854840521912 0.25067162998020648 -0.02713222371680396
leaf_weight=25 33 31 27 20 21 21 20 21 45 45 294 30 22 22 50 31 32 26 28 42 63 49 33 22 24 20 32 49 24 35
leaf_count=25 33 31 27 20 21 21 20 21 45 45 294 30 22 22 50 31 32 26 28 42 63 49 33 22 24 20 32 49 24 35
internal_value=0 -0.103137 0.124685 0.237478 0.206208 -0.0739882 0.275229 0.436155 -0.355897 -0.0489456 -0.0845315 0.0425251 0.0517012 0.0698502 0.180522 0.0190833 -0.132542 -0.112533 0.32914 0.0561124 0.0834991 0.188438 -0.200954 -0.304677 -0.0741818 0.254656 -0.0165307 -0.0832763 0.00481935 0.0858727
internal_weight=0 677 560 220 200 607 137 48 70 507 365 142 340 318 100 218 65 320 50 63 153 89 100 55 45 69 112 80 90 59
internal_count=1237 677 560 220 200 607 137 48 70 507 365 142 340 318 100 218 65 320 50 63 153 89 100 55 45 69 112 80 90 59
is_linear=0
shrinkage=0.05


Tree=24
num_leaves=31
num_cat=0
split_feature=54 54 44 24 54 6 23 26 30 1 23 31 14 48 28 22 47 44 6 29 15 24 23 8 35 5 5 36 5 28
split_gain=5754.59 2497.19 1312.25 885.77 776.62 752.457 747.981 812.802 750.421 704.631 703.786 764.702 697.588 704.255 644.788 620.093 584.414 935.586 579.371 523.242 733.45 638.075 754.13 797.549 530.491 515.55 575.377 496.454 477.466 467.232
threshold=-7.6148634469163872 25.132537458463734 2204.7931526092329 17.898275862068967 71.878751349676136 13.490740740740742 7.7303427419354849 14.20638945233266 21.861954459203037 136.50000000000003 8.7611408199643517 55.892789373814047 17.610722610722615 2206.5804537329186 6.158770161290323 56.701426024955445 0.059948490793053831 2243.0370210675442 11.276988636363638 17.921399594320487 9.7372122762148354 23.661904761904768 8.3771551724137954 11.288018433179726 11.69223484848485 19.484375000000004 20.476310483870972 12.50757575757576 21.475115740740744 6.0151515151515165
decision_type=2 2 2 2 2 2 2 2 2 2 2 2 2 2 2 2 2 2 2 2 2 2 2 2 2 2 2 2 2 2
left_child=2 3 15 9 6 19 7 8 -3 -2 16 -12 -10 -14 -8 -1 17 -5 -13 21 -21 22 23 27 -22 -25 -27 -4 -17 -28
right_child=1 4 5 10 -6 -7 14 -9 12 -11 11 18 13 -15 -16 28 -18 -19 -20 20 24 -23 -24 25 -26 26 29 -29 -30 -31
leaf_value=-0.13053138798901015 -0.034559618486091494 -0.044877900123596194 -0.3833928723545636 -0.36634873608127239 0.52267735764384271 -0.37797687092553017 0.25721512610713643 0.48207613606937233 0.029225133456797767 0.21722881147985929 -0.12350140909353893 0.10432190804770498 0.52249131475485144 0.17320130245967047 -0.072175208460061979 -0.53908903431711774 -0.0051180017493399135 -0.0036274121701717378 0.44536912560462955 0.19292086314510656 -0.29842374734580518 -0.3083550618709745 0.20867101788520814 -0.15183695296446484 0.061388706309454782 0.27426705747842789 0.13704845135410626 -0.1302431920170784 -0.23410897380894138 -0.14621771912317019
leaf_weight=28 40 25 34 32 20 23 24 32 22 91 21 33 31 27 39 33 280 40 20 37 20 37 20 60 21 20 24 45 21 37
leaf_count=28 40 25 34 32 20 23 24 32 22 91 21 33 31 27 39 33 280 40 20 37 20 37 20 60 21 20 24 45 21 37
internal_value=0 0.0829776 -0.14016 0.0266438 0.225604 -0.100827 0.195897 0.261468 0.194235 0.140347 -0.00832118 0.131844 0.268958 0.359891 0.0533068 -0.321477 -0.0377878 -0.164837 0.233019 -0.0828705 0.0315226 -0.115082 -0.085286 -0.112009 -0.11413 -0.0407501 0.0415364 -0.239194 -0.420486 -0.0347687
internal_weight=0 777 460 557 220 378 200 137 105 131 426 74 80 58 63 82 352 72 53 355 78 277 240 220 41 141 81 79 54 61
internal_count=1237 777 460 557 220 378 200 137 105 131 426 74 80 58 63 82 352 72 53 355 78 277 240 220 41 141 81 79 54 61
is_linear=0
shrinkage=0.05


Tree=25
num_leaves=31
num_cat=0
split_feature=54 44 48 46 10 10 40 25 24 3 9 7 7 20 16 44 44 38 21 48 15 43 29 45 12 34 11 46 45 46
split_gain=5224.38 1877.64 1223.73 794.8 659.275 914.919 813.159 668.229 606.143 605.583 601.229 570.044 567.609 737.618 628.558 755.302 1034.51 545.307 567.311 529.383 542.147 504.197 543.151 1007.85 506.441 637.354 564.609 532.806 474.869 768.033
threshold=7.3257070682147978 2211.7014529605235 2203.5543506763829 2795.2474593244506 16.349294354838715 15.738614800759015 0.69047619047619058 8.883928571428573 21.523689516129036 57.339743589743598 7.2943722943722955 12.016666666666667 16.818933823529417 12.177115987460818 14.029411764705884 2242.3902298058824 2240.4673128369013 2.6715686274509807 27.086875000000003 2244.4560531828906 10.090992647058824 0.059952156440124547 16.954459203036055 0.059726631864421585 52.938446969696976 9.9857142857142875 22.46164772727273 2544.2305605145166 0.059727049823585308 2878.2834229433897
decision_type=2 2 2 2 2 2 2 2 2 2 2 2 2 2 2 2 2 2 2 2 2 2 2 2 2 2 2 2 2 2
left_child=1 8 9 12 5 7 17 -4 10 -2 11 -1 14 -14 15 16 21 -6 -19 -17 -21 22 23 -3 25 -23 -26 -28 29 -5
right_child=2 3 4 28 6 -7 -8 -9 -10 -11 -12 -13 13 -15 -16 19 -18 18 -20 20 -22 24 -24 -25 26 -27 27 -29 -30 -31
leaf_value=-0.032030729055404661 0.15118336388042997 0.17770850825244966 0.28428881583469257 -0.2393657215172425 0.13219449294024502 0.32984707183757073 0.13607740626404327 -0.0065671350383860018 -0.40441791364626795 0.42589726882412082 0.05635903974374136 -0.35513703559720239 -0.3577159596538102 0.042908748686313634 0.21255428464181964 0.32288121059536934 -0.31910730372456947 -0.19817006091633049 0.098001404614611112 -0.078015431609688976 0.15377171618434102 0.29061057215556502 0.20633776833007977 -0.30760638341307645 -0.31421756084476199 -0.061426249746647149 -0.25397210032228501 -0.021041925522988128 -0.29993119977934418 0.13480803320805232
leaf_weight=20 35 23 28 32 29 59 112 67 44 47 21 43 27 20 31 20 34 61 22 49 52 20 41 20 28 36 31 118 43 24
leaf_count=20 35 23 28 32 29 59 112 67 44 47 21 43 27 20 31 20 34 61 22 49 52 20 41 20 28 36 31 118 43 24
internal_value=0 -0.0790626 0.133547 -0.0445443 0.0955636 0.175202 0.0408124 0.0791588 -0.254081 0.308641 -0.175333 -0.252564 -0.0210689 -0.187237 -0.00554226 -0.0198664 -0.0570027 -0.0544527 -0.119667 0.0878595 0.0413205 -0.0288905 0.0761311 -0.0480193 -0.0667524 0.0643012 -0.108216 -0.0695039 -0.174963 -0.0790055
internal_weight=0 777 460 649 378 154 224 95 128 82 84 63 550 47 503 472 351 112 83 121 101 317 84 43 233 56 177 149 99 56
internal_count=1237 777 460 649 378 154 224 95 128 82 84 63 550 47 503 472 351 112 83 121 101 317 84 43 233 56 177 149 99 56
is_linear=0
shrinkage=0.05


Tree=26
num_leaves=31
num_cat=0
split_feature=54 54 54 24 6 42 28 24 22 49 26 16 45 4 44 48 34 28 49 55 1 35 8 15 36 35 28 49 6 25
split_gain=4762.02 2063.23 1092.96 786.2 710.205 705.479 1047.24 1044.4 688.644 1128.69 629.094 625.111 620.231 619.442 819.93 815.202 793.17 715.963 696.323 651.228 604.977 585.271 498.395 744.723 730.738 711.126 1080.09 803.181 696.379 611.025
threshold=-7.6148634469163872 25.132537458463734 -50.539885504540727 17.898275862068967 13.490740740740742 2750.6874454417621 6.158770161290323 20.015625000000004 53.460181451612911 0.05972527200008166 16.384724857685011 11.790625000000002 0.059728037680434665 7.2612085769980519 2244.2253887955053 2238.3700685796225 9.8123167155425239 6.7537878787878798 0.059719710467660773 2247.9205679689217 136.50000000000003 10.970142602495544 10.815340909090912 8.6715686274509824 13.985714285714288 11.969223484848486 6.3801313628899843 0.059714302884073735 9.7537878787878807 11.803308823529415
decision_type=2 2 2 2 2 2 2 2 2 2 2 2 2 2 2 2 2 2 2 2 2 2 2 2 2 2 2 2 2 2
left_child=2 3 21 20 22 6 12 -8 -7 -10 13 -12 -3 14 15 -5 -15 -18 -16 -20 -2 -1 24 -24 -4 27 -27 -25 -29 -28
right_child=1 5 4 10 -6 8 7 -9 9 -11 11 -13 -14 16 18 -17 17 -19 19 -21 -22 -23 23 25 -26 26 29 28 -30 -31
leaf_value=-0.11544862622022629 -0.030667789671570064 0.48160332757234575 -0.27382668098286977 -0.09896043323040489 -0.35266215641796594 0.047143650650978086 0.20115880072116854 -0.16967279047538075 0.18077841123779984 0.5687460678188424 -0.0001001973732792098 0.3489495800889057 0.12575140475916366 0.12471199559289603 -0.18962499817897535 -0.41645771181521324 -0.26787692727521062 0.026733182010979489 0.26218270463868976 -0.071248106934406141 0.20263745213889486 -0.41718043602175181 0.10766428860702687 -0.45392763853073126 0.025993985347449778 0.25879101580189123 0.10272145621478557 -0.37422126442193987 -0.046668202109461612 -0.24957722545950675
leaf_weight=25 40 25 63 62 25 20 37 39 37 38 29 23 24 104 29 30 32 58 32 27 91 45 63 20 30 31 20 20 86 32
leaf_count=25 40 25 63 62 25 20 37 39 37 38 29 23 24 104 29 30 32 58 32 27 91 45 63 20 30 31 20 20 86 32
internal_value=0 0.075483 -0.127501 0.0242774 -0.0948485 0.205126 0.12707 0.0108636 0.307832 0.377349 -0.00866387 0.154287 0.307309 -0.0313202 -0.0981236 -0.202492 0.0306624 -0.0780171 0.0109889 0.109596 0.131399 -0.309419 -0.0771901 -0.0430262 -0.17711 -0.0884496 0.0251865 -0.163305 -0.108471 -0.114078
internal_weight=0 777 460 557 390 220 125 76 95 75 426 52 49 374 180 92 194 90 88 59 131 70 365 272 93 209 83 126 106 52
internal_count=1237 777 460 557 390 220 125 76 95 75 426 52 49 374 180 92 194 90 88 59 131 70 365 272 93 209 83 126 106 52
is_linear=0
shrinkage=0.05


Tree=27
num_leaves=31
num_cat=0
split_feature=54 54 44 24 23 28 25 30 46 19 27 47 30 3 12 4 1 35 47 29 25 32 20 6 10 38 54 44 23 8
split_gain=4297.72 1862.07 998.989 709.546 651.362 905.52 738.172 629.001 621.684 593.822 758.896 615.561 593.799 579.265 638.203 570.006 545.992 541.441 596.881 664.436 569.624 536.428 533.982 509.719 682.207 487.633 756.065 605.963 480.426 480.019
threshold=-7.6148634469163872 25.132537458463734 2204.7931526092329 17.898275862068967 7.8228840125391859 6.158770161290323 8.1846590909090917 21.258272058823533 2797.2775691371439 3.8385416666666674 10.594117647058825 0.05995320853596222 25.250841750841754 53.177419354838719 54.446394686907027 7.9666295884315916 136.50000000000003 13.06350806451613 0.059946158801597933 18.436141304347831 11.765884652981429 6.5606617647058831 4.6956018518518521 11.46966911764706 18.599905303030308 3.297058823529412 11.536298475761443 2239.5897626381252 7.9649014778325133 11.241212121212124
decision_type=2 2 2 2 2 2 2 2 2 2 2 2 2 2 2 2 2 2 2 2 2 2 2 2 2 2 2 2 2 2
left_child=2 3 15 16 6 -6 -3 -8 13 10 12 -11 29 -4 21 -1 -2 18 -16 20 -20 -15 -12 24 25 26 27 -24 -25 -5
right_child=1 4 8 9 5 -7 7 -9 -10 11 22 -13 -14 14 17 -17 -18 -19 19 -21 -22 -23 23 28 -26 -27 -28 -29 -30 -31
leaf_value=-0.35419942277573768 -0.029134396910667423 0.52527368764082594 -0.24743517973593307 -0.066381767562457492 0.3006981054941813 -0.089649297468937364 -0.025523210068543752 0.25654256534762682 -0.22014318261505436 -0.38415012303739787 0.19270484340190888 -0.030546011356636885 0.36354704020883549 0.19881774809049524 -0.35912913056937135 -0.047222358584403989 0.19250558032603055 0.10804697247222067 -0.064729129159486448 0.14386262005126035 -0.31894556760787962 -0.067757119517773398 -0.016430339075270153 -0.04769194048452885 -0.37223366502672439 0.059246770916851592 0.048400898865963285 -0.34671419882556287 0.20120659484104678 0.19026439778114623
leaf_weight=62 40 21 35 35 24 39 24 112 71 20 25 32 22 46 22 20 91 32 83 27 30 32 21 47 20 54 38 41 33 38
leaf_count=62 40 21 35 35 24 39 24 112 71 20 25 32 22 46 22 20 91 32 83 27 30 32 21 47 20 54 38 41 33 38
internal_value=0 0.0717088 -0.121126 0.0230635 0.19487 0.0590545 0.249369 0.206766 -0.0868067 -0.00823068 0.0137813 -0.166548 0.135839 -0.0559699 -0.0313329 -0.279327 0.124829 -0.0798966 -0.117021 -0.0789757 -0.13222 0.0894537 -0.0277796 -0.0494809 -0.0975082 -0.0618296 -0.127211 -0.234844 0.0549787 0.0672149
internal_weight=0 777 460 557 220 63 157 136 378 426 374 52 95 307 272 82 131 194 162 140 113 78 279 254 174 154 100 62 80 73
internal_count=1237 777 460 557 220 63 157 136 378 426 374 52 95 307 272 82 131 194 162 140 113 78 279 254 174 154 100 62 80 73
is_linear=0
shrinkage=0.05


Tree=28
num_leaves=31
num_cat=0
split_feature=53 53 30 21 3 6 4 47 16 16 14 39 19 53 39 45 22 23 38 55 21 38 2 45 16 45 23 4 17 34
split_gain=3581.81 1939.07 816.228 781.868 798.728 706.392 677.174 556.027 621.434 1069.1 804.516 752.564 619.106 567.033 744.526 542.486 528.903 524.39 615.924 561.073 512.854 510.532 489.038 455.12 429.143 468.935 458.142 509.243 467.186 423.772
threshold=223.74253129167371 -230.53382238126298 21.09232954545455 26.627005347593585 54.061669829222019 8.239737274220035 6.5075757575757587 0.05996299050381864 12.323390151515154 13.015151515151517 19.060661764705888 12.522281639928702 3.2857862903225814 43.004573955616031 7.5236895161290329 0.059718359898287637 55.381048387096783 8.560661764705884 2.9701426024955442 2244.1496335898169 28.343582887700538 3.772977941176471 25.950466200466202 0.059726359213070242 13.684659090909092 0.05974333263606655 7.3151364764268001 6.530330882352942 11.903125000000001 8.839743589743593
decision_type=2 2 2 2 2 2 2 2 2 2 2 2 2 2 2 2 2 2 2 2 2 2 2 2 2 2 2 2 2 2
left_child=1 5 -2 4 -4 -1 -7 8 10 13 11 -3 23 14 -10 -6 -8 18 -12 29 22 24 -18 -11 25 26 27 -9 -28 -20
right_child=2 7 3 -5 15 6 16 21 9 12 17 -13 -14 -15 -16 -17 20 -19 19 -21 -22 -23 -24 -25 -26 -27 28 -29 -30 -31
leaf_value=-0.36671975191013939 -0.082417482592993307 0.054498332875618151 -0.011741889800344196 0.06126720779725621 0.50683111806710568 -0.24667307682889136 0.13710502726691109 -0.078398654766772935 0.29480141273566657 0.13927967111166153 -0.40387221022974701 -0.20197920517341511 -0.21671810328960417 0.31167195491078825 -0.07981476205815044 0.26262844109630951 -0.40353587283974601 0.00079242916156848286 -0.42370756985176183 0.0094444208723657285 0.032773687131702901 0.23306335272157896 -0.06230641035806566 -0.15361351924283165 0.23735799152742731 0.16385653511835979 -0.26027180797630745 0.16660328585033615 -0.02762068931380628 -0.11614953059082229
leaf_weight=39 27 126 21 62 30 74 28 38 21 36 32 37 45 36 36 94 21 36 21 34 32 34 21 21 22 39 31 48 71 24
leaf_count=39 27 126 21 62 30 74 28 38 21 36 32 37 45 36 36 94 21 36 21 34 32 34 21 21 22 39 31 48 71 24
internal_value=0 -0.0410954 0.176148 0.209874 0.273417 -0.17419 -0.131527 -0.00478154 -0.036223 0.0337106 -0.0802134 -0.00372049 -0.0780797 0.156319 0.0582017 0.32171 -0.0479901 -0.165032 -0.218813 -0.143852 -0.118026 0.0513242 -0.232921 0.0313717 0.0265084 0.00607365 -0.0266579 0.0583466 -0.0983284 -0.259677
internal_weight=0 1003 234 207 145 215 176 788 505 195 310 163 102 93 57 124 102 147 111 79 74 283 42 57 249 227 188 86 102 45
internal_count=1237 1003 234 207 145 215 176 788 505 195 310 163 102 93 57 124 102 147 111 79 74 283 42 57 249 227 188 86 102 45
is_linear=0
shrinkage=0.05


Tree=29
num_leaves=31
num_cat=0
split_feature=54 54 52 44 38 30 12 49 11 4 31 48 33 11 41 16 54 15 28 15 26 17 10 47 14 10 56 34 34 19
split_gain=3573.26 1162.18 1052.24 656.517 765.291 743.679 650.807 587.796 800.952 556.152 869.763 704.381 860.331 598.658 695.613 704.444 592.373 568.812 511.012 601.372 504.705 543.715 482.075 479.443 521.989 477.014 762.76 467.161 723.971 475.236
threshold=2.6184361552191153 -50.539885504540727 -13.999999999999998 2241.5752936414997 2.453079178885631 21.063636363636366 51.368595825426951 0.059719153805504702 23.671568627450984 6.5075757575757587 52.333165322580648 2244.0577835993577 19.246212121212125 21.09232954545455 0.69047619047619058 12.938446969696971 -10.815613237001342 7.7363523573200998 6.9364919354838719 10.603030303030303 14.230550284629983 12.367003367003369 17.485281385281386 0.059956225094594924 20.369318181818183 16.246212121212125 2616.5887498200982 10.435416666666669 11.43933823529412 2.8360215053763445
decision_type=2 2 2 2 2 2 2 2 2 2 2 2 2 2 2 2 2 2 2 2 2 2 2 2 2 2 2 2 2 2
left_child=1 18 -2 -4 -5 -6 -7 25 23 27 -11 12 -12 -13 15 16 -15 -16 -1 -20 21 -14 -19 -9 -25 -8 -27 29 -29 -3
right_child=2 9 3 4 5 6 7 8 -10 10 11 13 20 14 17 -17 -18 22 19 -21 -22 -23 -24 24 -26 26 -28 28 -30 -31
leaf_value=-0.10956939142839661 0.32814688254994429 -0.41319685497067193 -0.046858180045921322 0.32735028617522299 -0.15495079073213763 -0.16313061257824302 0.14927359512075783 0.41570779923349621 0.06035372656091903 0.197611712962389 0.3006281372987562 0.12998887532287173 -0.32392105914297559 -0.17751092169699925 0.040937809510664509 0.23103472956202251 0.1193910791228215 -0.32634238293681012 -0.58003784418106086 -0.19694073359881129 0.095337476976671998 0.012641055562666485 -0.11983544969558715 0.11021509061877927 0.36656041299474651 0.099633414385949859 -0.24329246527725654 0.104901863839023 -0.18119490807681968 -0.14434288853636154
leaf_weight=29 44 22 93 34 31 22 44 32 103 40 27 27 21 56 22 22 24 65 20 21 49 28 50 63 29 34 31 41 48 65
leaf_count=29 44 22 93 34 31 22 44 32 103 40 27 27 21 56 22 22 24 65 20 21 49 28 50 63 29 34 31 41 48 65
internal_value=0 -0.0772889 0.0934368 0.0734228 0.0998675 0.0799847 0.100328 0.117579 0.163405 -0.0550421 -0.0244584 -0.0471766 0.0507208 -0.093181 -0.118393 -0.0195339 -0.0884403 -0.191996 -0.2702 -0.383817 -0.0181312 -0.1316 -0.236557 0.249004 0.19102 0.0221423 -0.0639159 -0.129937 -0.0493975 -0.212329
internal_weight=0 677 560 516 423 389 358 336 227 607 431 391 125 266 239 102 80 137 70 41 98 49 115 124 92 109 65 176 89 87
internal_count=1237 677 560 516 423 389 358 336 227 607 431 391 125 266 239 102 80 137 70 41 98 49 115 124 92 109 65 176 89 87
is_linear=0
shrinkage=0.05


Tree=30
num_leaves=31
num_cat=0
split_feature=54 54 6 55 39 54 6 4 34 42 47 36 44 38 8 23 26 30 14 48 8 41 4 10 30 15 47 50 6 5
split_gain=3232.64 1440.31 795.915 771.553 658.328 585.537 579.469 618.031 674.367 609.177 604.195 581.721 655.022 718.774 568.396 561.64 704.248 520.9 559.276 521.681 487.069 550.315 540.609 545.015 531.935 618.483 456.182 650.888 454.173 450.662
threshold=-7.6148634469163872 25.132537458463734 13.490740740740742 2230.0231349247292 7.467741935483871 71.878751349676136 14.164438502673798 7.246212121212122 10.872983870967744 2529.102568546195 0.05994805958292846 15.416982922201141 2254.8403917215487 3.0875959079283892 12.784564393939396 7.7303427419354849 14.20638945233266 21.861954459203037 17.610722610722615 2206.5804537329186 13.491379310344829 0.69047619047619058 6.5628787878787884 17.889452332657203 22.26965725806452 8.3442887931034502 0.059967558384830554 3.5000000000000004 8.3488843813387437 23.112836438923399
decision_type=2 2 2 2 2 2 2 2 2 2 2 2 2 2 2 2 2 2 2 2 2 2 2 2 2 2 2 2 2 2
left_child=2 6 3 4 -1 15 7 8 10 -9 -2 12 26 -14 -12 16 17 -3 -19 -20 21 29 -23 24 -24 -26 27 -11 -6 -5
right_child=1 5 -4 20 28 -7 -8 9 -10 11 14 -13 13 -15 -16 -17 -18 18 19 -21 -22 22 23 -25 25 -27 -28 -29 -30 -31
leaf_value=0.0038261122230825759 -0.29282444734658514 -0.060265649795532228 -0.36338726510959019 0.096901973592592228 -0.47387603634879705 0.42846042841672899 0.2078818707187709 0.27895620374142061 0.067629141535288026 -0.22465002447780638 -0.11838657600934258 -0.20102195298920075 0.39645204131419842 0.049387300269944333 0.12063129183017847 0.021156482516773167 0.40688320547342305 -0.013447489928115498 0.42257385277940385 0.12194974287240595 -0.23383362689055504 -0.26781775968916277 0.058996300604836696 0.11189919373927973 -0.015087285637855531 -0.35317459760173675 0.14048907230396501 0.03344177980172007 -0.20483771920684846 -0.1264718384835227
leaf_weight=29 35 25 28 102 21 20 38 28 81 36 101 24 26 35 33 63 32 22 31 27 32 34 29 39 24 31 44 76 62 29
leaf_count=29 35 25 28 102 21 20 38 28 81 36 101 24 26 35 33 63 32 22 31 27 32 34 29 39 24 31 44 76 62 29
internal_value=0 0.0621917 -0.10505 -0.0883058 -0.201253 0.17051 0.0194087 0.00560914 -0.0509884 0.0582091 -0.107841 0.0325621 0.0583963 0.197317 -0.059524 0.144715 0.201534 0.138952 0.201207 0.282628 -0.0487741 -0.0282119 -0.0913462 -0.0425654 -0.114281 -0.205646 0.00407496 -0.0495163 -0.272908 0.0474528
internal_weight=0 777 460 432 112 220 557 519 250 269 169 241 217 61 134 200 137 105 80 58 320 288 157 123 84 55 156 112 83 131
internal_count=1237 777 460 432 112 220 557 519 250 269 169 241 217 61 134 200 137 105 80 58 320 288 157 123 84 55 156 112 83 131
is_linear=0
shrinkage=0.05


Tree=31
num_leaves=31
num_cat=0
split_feature=54 54 54 12 44 30 33 35 42 29 25 12 22 5 13 12 25 12 51 35 23 7 1 26 14 44 22 19 21 49
split_gain=2952.77 956.904 860.726 652.38 639.933 604.823 749.59 564.443 494.807 481.445 860.446 788.47 636.855 791.28 689.577 596.691 578.878 570.315 638.752 464.136 460.53 456.771 435.356 546.175 456.616 552.102 612.622 450.796 554.391 436.294
threshold=2.6184361552191153 -50.539885504540727 71.878751349676136 52.015151515151523 2241.5752936414997 21.363970588235297 17.594117647058827 13.674242424242426 2588.7359976981284 17.88057040998218 9.9692234848484862 50.672014260249561 55.381048387096783 18.368595825426947 7.9852941176470598 54.076704545454554 12.131465517241381 59.108993157380262 3.5000000000000004 10.970142602495544 7.338541666666667 14.306250000000002 143.50000000000003 16.134135472370769 16.230550284629985 2255.6876233422604 54.372994652406426 3.3230550284629987 27.149286987522284 0.05972498135988541
decision_type=2 2 2 2 2 2 2 2 2 2 2 2 2 2 2 2 2 2 2 2 2 2 2 2 2 2 2 2 2 2
left_child=1 19 3 20 8 6 -6 22 -5 11 -11 -3 13 21 15 16 -14 18 -12 -1 -2 -13 23 24 -7 26 -26 28 -24 -27
right_child=2 9 -4 4 5 7 -8 -9 -10 10 17 12 14 -15 -16 -17 -18 -19 -20 -21 -22 -23 27 -25 25 29 -28 -29 -30 -31
leaf_value=-0.072571081817150121 0.044380089112867914 -0.38316198080778124 0.40703741714358332 0.087010432123428294 0.18507924177076507 -0.055311093408437012 -0.18450718416887171 -0.050359142912285673 -0.15427916652068152 0.26144167136761454 0.18459800099198884 0.023352947937590737 0.11066234494842914 0.16638436695241166 0.13570106204213769 -0.15836643847195728 -0.20615744221778143 -0.25192903038114312 -0.076381243520881992 -0.34126962939898176 -0.27232930926098065 -0.28950418248539789 -0.033067867780725166 0.41303415615856648 0.34276514053344731 0.17836504187434912 0.081282846715268017 -0.1512179737351835 0.3144202852791006 0.4374750426610593
leaf_weight=25 24 20 20 42 23 21 34 35 43 31 37 28 46 59 29 228 21 24 64 45 22 20 24 25 28 32 112 20 22 33
leaf_count=25 24 20 20 42 23 21 34 35 43 31 37 28 46 59 29 228 21 24 64 45 22 20 24 25 28 32 112 20 22 33
internal_value=0 -0.0702587 0.0849377 0.0730081 0.0897783 0.115721 -0.0353758 0.140189 -0.0350537 -0.050072 0.0256418 -0.0762612 -0.0620199 0.0437428 -0.0969477 -0.119818 0.0113606 -0.0328366 0.019225 -0.245306 -0.10709 -0.107004 0.161227 0.191274 0.166743 0.18949 0.133579 0.0469585 0.133122 0.309913
internal_weight=0 677 560 540 494 409 57 352 85 607 156 451 431 107 324 295 67 125 101 70 46 48 317 251 226 205 140 66 46 65
internal_count=1237 677 560 540 494 409 57 352 85 607 156 451 431 107 324 295 67 125 101 70 46 48 317 251 226 205 140 66 46 65
is_linear=0
shrinkage=0.05


Tree=32
num_leaves=31
num_cat=0
split_feature=54 54 6 55 22 31 24 7 38 4 23 31 23 42 25 35 28 35 14 6 23 17 33 7 6 1 30 6 22 55
split_gain=2672.82 1194.95 710.804 651.107 625.759 730.164 579.643 560.211 573.636 868.048 512 623.828 501.977 711.989 683.135 488.298 698.472 1017.62 511.129 697.801 650.859 483.786 475.013 466.175 450.279 432.843 415.737 551.407 393.58 391.016
threshold=-7.6148634469163872 25.132537458463734 13.490740740740742 2230.0231349247292 54.962635869565226 55.621323529411775 17.898275862068967 14.946969696969699 3.5931712962962967 7.0625610948191602 8.7611408199643517 55.892789373814047 7.7303427419354849 2750.6874454417621 8.1846590909090917 12.410021551724141 6.7537878787878798 13.17914438502674 20.843137254901965 11.765884652981429 7.8507130124777191 12.671568627450982 17.594117647058827 14.257352941176473 11.276988636363638 136.50000000000003 21.258272058823533 9.7142137096774217 58.338235294117652 2223.2937414202875
decision_type=2 2 2 2 2 2 2 2 2 2 2 2 2 2 2 2 2 2 2 2 2 2 2 2 2 2 2 2 2 2
left_child=2 6 3 4 -1 -6 25 -5 9 -9 15 -12 14 -14 -3 18 17 -17 19 20 22 -18 -8 -20 -13 -2 -16 -28 -11 -7
right_child=1 12 -4 7 5 29 10 8 -10 28 11 24 13 -15 26 16 21 -19 23 -21 -22 -23 -24 -25 -26 -27 27 -29 -30 -31
leaf_value=0.055586327713998886 -0.027523648766800763 0.4788483838737011 -0.3396558353943484 -0.0016792212023224893 -0.46532887357931874 0.032195503190159798 -0.00043161302804946896 -0.48472330797286267 0.088198223859071737 0.027819507955401029 -0.12178085432166147 0.08677320272633525 -0.074203012817435798 0.25859393680095677 -0.022957181682189309 -0.39522467057563759 -0.14244130061518762 -0.005673730522394181 0.29554613096018634 0.12133791000981416 0.088969985051796985 0.12533332864577706 -0.29046073191178345 0.032161721347698145 0.38743407122790813 0.16981874462012406 0.0074635639213598698 0.27251325937453658 -0.25364635431248211 -0.23443866351788697
leaf_weight=22 40 20 28 229 26 20 20 21 20 27 21 33 45 25 24 38 31 30 24 42 26 37 48 56 20 91 26 80 23 44
leaf_count=22 40 20 28 229 26 20 20 21 20 27 21 33 45 25 24 38 31 30 24 42 26 37 48 56 20 91 26 80 23 44
internal_value=0 0.0565507 -0.0955215 -0.079698 -0.183456 -0.241888 0.0175818 -0.0433828 -0.148329 -0.214957 -0.010703 0.108849 0.155213 0.044653 0.206807 -0.035836 -0.110052 -0.223364 0.0108927 -0.0480981 -0.123803 0.0032596 -0.205158 0.111177 0.20023 0.109562 0.164955 0.207501 -0.101655 -0.151115
internal_weight=0 777 460 432 112 90 557 320 91 71 426 74 220 70 150 352 136 68 216 136 94 68 68 80 53 131 130 106 50 64
internal_count=1237 777 460 432 112 90 557 320 91 71 426 74 220 70 150 352 136 68 216 136 94 68 68 80 53 131 130 106 50 64
is_linear=0
shrinkage=0.05


Tree=33
num_leaves=31
num_cat=0
split_feature=54 54 54 12 2 44 30 35 42 38 10 6 23 36 28 6 46 40 20 12 28 15 33 23 33 54 2 3 35 27
split_gain=2446.08 812.005 733.882 577.863 571.133 736.272 578.345 566.967 450.387 441.874 829.975 730.168 676.855 497.945 825.322 672.315 535.205 474.076 469.337 466.606 432.067 509.64 405.623 399.958 393.689 391.386 499.321 498.305 390.079 481.849
threshold=2.6184361552191153 -50.539885504540727 71.878751349676136 52.015151515151523 24.437254901960788 2241.5752936414997 21.363970588235297 13.790491118077325 2588.7359976981284 3.3114224137931036 14.462424242424243 8.2952069716775618 6.0579831932773116 14.149286987522283 6.0307765151515165 10.081154684095862 2727.7366533921554 0.81666666666666676 4.0925047438330173 55.433035714285722 6.9364919354838719 10.603030303030303 18.108387096774198 7.338541666666667 23.624458874458877 25.679344847309043 26.153882575757581 57.980769230769234 13.922287390029327 12.952069716775602
decision_type=2 2 2 2 2 2 2 2 2 2 2 2 2 2 2 2 2 2 2 2 2 2 2 2 2 2 2 2 2 2
left_child=1 20 3 23 -5 8 22 24 -6 10 -3 -12 19 14 15 -13 -15 -17 -14 -11 -1 -22 -7 -2 25 -8 -27 -28 29 -20
right_child=2 9 -4 4 5 6 7 -9 -10 12 11 13 18 16 -16 17 -18 -19 28 -21 21 -23 -24 -25 -26 26 27 -29 -30 -31
leaf_value=-0.077494261542270931 0.037949307635426525 0.20208505773544314 0.37472792059183124 0.27982430889764254 0.054237843444570902 0.047221789618625359 0.074724027898073905 -0.085383130970501139 -0.20192219974422776 0.0033888264938637066 -0.2973211190104485 -0.18264362108376292 0.26782049257308244 0.15738671215814215 -0.18592934861513122 0.00064828479831868964 -0.11031172934806709 0.27527739683335478 -0.064649522977627147 -0.29337744687755524 -0.51030612856149682 -0.15763580167577382 -0.23655300825834275 -0.25719833722264002 0.347945530357815 0.38707567590933584 -0.028218494181831678 0.22067455019130083 0.23192859411239627 0.17349155507981778
leaf_weight=29 24 25 20 34 32 34 168 31 37 27 40 36 24 43 140 55 33 22 88 26 20 21 20 22 21 26 30 61 20 28
leaf_count=29 24 25 20 34 32 34 168 31 37 27 40 36 24 43 140 55 33 22 88 26 20 21 20 22 21 26 30 61 20 28
internal_value=0 -0.063947 0.0773074 0.0662918 0.0820752 0.067459 0.0940324 0.118374 -0.0831233 -0.0453515 -0.076718 -0.0956071 0.0126693 -0.0710826 -0.104797 -0.00427798 0.0411492 0.0791137 0.0639679 -0.142195 -0.225197 -0.32967 -0.05788 -0.103208 0.139017 0.123622 0.193834 0.138622 0.027994 -0.00716719
internal_weight=0 677 560 540 494 460 391 337 69 607 394 369 213 329 253 113 76 77 160 53 70 41 54 46 306 285 117 91 136 116
internal_count=1237 677 560 540 494 460 391 337 69 607 394 369 213 329 253 113 76 77 160 53 70 41 54 46 306 285 117 91 136 116
is_linear=0
shrinkage=0.05


Tree=34
num_leaves=31
num_cat=0
split_feature=54 42 54 12 2 44 38 19 22 4 20 29 6 31 36 10 22 3 34 8 32 3 19 32 48 22 31 30 34 13
split_gain=2207.59 749.7 668.102 602.208 566.33 567.389 653.35 611.525 485.147 860.107 656.307 518.421 884.869 776.758 598.616 818.142 625.737 435.238 431.145 424.455 417.165 413.678 370.549 483.324 366.654 363.316 967.957 571.177 485.324 476.393
threshold=2.6184361552191153 2240.5705614461158 52.123179476843923 52.015151515151523 24.437254901960788 2241.5752936414997 2.7537878787878793 3.8385416666666674 55.381048387096783 6.5628787878787884 13.253565062388594 16.246212121212125 8.1715542521994156 57.506641366223917 14.189903846153848 15.98529411764706 57.40312500000001 56.923624288425053 10.384724857685011 10.69223484848485 7.1341829085457276 55.723011363636367 3.4924242424242427 6.7694497153700199 2243.1796289164899 57.21584440227705 55.348345588235297 26.060246679316894 9.8639705882352953 6.3603896103896114
decision_type=2 2 2 2 2 2 2 2 2 2 2 2 2 2 2 2 2 2 2 2 2 2 2 2 2 2 2 2 2 2
left_child=1 -1 3 18 -5 20 19 25 9 -3 11 12 -10 14 15 -13 -16 -4 -2 -7 -6 -15 23 -23 -14 26 28 -27 29 -8
right_child=2 8 17 4 5 6 7 -9 10 -11 -12 13 24 21 16 -17 -18 -19 -20 -21 -22 22 -24 -25 -26 27 -28 -29 -30 -31
leaf_value=-0.27356231233630424 -0.2969671966135502 -0.11506288512299459 0.054444530248641966 0.26583309754291001 -0.16706551018688415 0.019284089741466399 0.20534551545977592 -0.16656060241643461 -0.46283355734887577 0.12988225574908632 0.13681488377707346 0.013104527278078926 0.054680223762989047 -0.10171247948157161 0.17197961437481424 -0.3200900221179272 -0.13249000742203662 0.31679603665374051 0.031341071501374246 0.27783780981574141 0.094697441581798644 0.21571633704006674 0.23905770714084307 -0.065002032596132034 -0.15356728312810802 0.18166750203437954 -0.14147853732043714 -0.11153545342385769 0.31362196946144105 -0.13976050689816474
leaf_weight=39 20 60 25 34 45 22 20 31 21 89 35 27 26 38 27 58 45 43 20 57 23 23 30 46 113 98 57 20 25 20
leaf_count=39 20 60 25 34 45 22 20 31 21 89 35 27 26 38 27 58 45 43 20 57 23 23 30 46 113 98 57 20 25 20
internal_value=0 -0.0607497 0.073442 0.0531386 0.0695945 0.0536325 0.0793094 0.0424255 -0.0477408 0.0312466 -0.0718085 -0.0878918 -0.160318 -0.0484761 -0.124395 -0.214252 -0.0183139 0.220343 -0.132813 0.205836 -0.078528 0.0385258 0.0923547 0.0285708 -0.114615 0.0694195 0.00891781 0.131972 0.140804 0.0327925
internal_weight=0 677 560 492 452 418 350 271 638 149 489 454 160 294 157 85 72 68 40 79 68 137 99 69 139 240 122 118 65 40
internal_count=1237 677 560 492 452 418 350 271 638 149 489 454 160 294 157 85 72 68 40 79 68 137 99 69 139 240 122 118 65 40
is_linear=0
shrinkage=0.05


Tree=35
num_leaves=31
num_cat=0
split_feature=54 54 48 10 10 40 25 23 45 44 46 48 38 37 46 35 4 5 40 25 2 21 12 46 4 7 7 16 19 49
split_gain=2014.7 821.185 581.985 596.538 929.496 781.137 556.667 562.726 759.523 537.28 561.037 521.916 506.328 565.83 490.845 661.169 1010.43 489.553 464.628 445.648 427.342 494.686 487.567 418.531 416.283 932.041 493.037 552.858 415.353 534.105
threshold=8.2844920452546393 -25.110247971758778 2191.7750080196761 16.349294354838715 15.738614800759015 0.69047619047619058 14.05982142857143 7.1143790849673207 0.059719102971074266 2242.858800837314 2710.4499447454 2244.2723646643603 3.2769886363636371 6.5536053130929801 2529.5745392067711 11.538352272727275 9.0655913978494649 17.761140819964353 0.45000000000000007 8.883928571428573 26.13636363636364 25.618951612903228 60.984848484848492 2741.7243430280555 7.9848484848484853 13.812937062937065 12.880570409982177 11.268716577540109 3.2857862903225814 0.0597292084974494
decision_type=2 2 2 2 2 2 2 2 2 2 2 2 2 2 2 2 2 2 2 2 2 2 2 2 2 2 2 2 2 2
left_child=1 12 -2 4 19 18 7 8 -3 11 -11 28 13 24 -9 20 17 -17 -5 -4 21 -16 -22 -14 25 26 27 -1 29 -10
right_child=2 6 3 5 -6 -7 -8 14 9 10 -12 -13 23 -15 15 16 -18 -19 -20 -21 22 -23 -24 -25 -26 -27 -28 -29 -30 -31
leaf_value=0.011412045769393446 0.3107819269100825 0.19241486183234624 0.20830181577513296 0.088854000823838375 0.29602559025562003 0.11103725550472737 -0.2010348826646805 -0.24838209822773935 0.21807475438285057 0.30974181502436604 -0.028703243046998977 -0.22203584479434149 0.064455286972224718 -0.43067051619291308 -0.071467454877236616 -0.094447283529573017 -0.27952197875295365 0.14523296483082346 -0.12584130648290739 -0.019921922878078795 0.036740420625708932 -0.39940109667570695 -0.25225510150194169 -0.18462676907119413 0.018183368624498448 -0.42079054271021205 0.11172333217802502 -0.34453267194330695 -0.12743887573480606 -0.10937854830175638
leaf_weight=20 27 70 31 35 63 125 38 28 33 24 25 35 48 20 23 27 21 101 90 69 54 23 20 26 30 31 21 24 35 20
leaf_count=20 27 70 31 35 63 125 38 28 33 24 25 35 48 20 23 27 21 101 90 69 54 23 20 26 30 31 21 24 35 20
internal_value=0 -0.0474119 0.0858802 0.0711772 0.145597 0.0226553 -0.0160729 -0.00303295 0.0535642 -0.00294475 0.137066 -0.0587213 -0.129606 -0.183608 -0.0491492 -0.0284112 0.0419362 0.0946754 -0.0657266 0.0508274 -0.115759 -0.235434 -0.0413665 -0.02306 -0.144392 -0.195196 -0.0876054 -0.18274 0.00623336 0.0945075
internal_weight=0 797 440 413 163 250 577 539 242 172 49 123 220 146 297 269 149 128 125 100 120 46 74 74 126 96 65 44 88 53
internal_count=1237 797 440 413 163 250 577 539 242 172 49 123 220 146 297 269 149 128 125 100 120 46 74 74 126 96 65 44 88 53
is_linear=0
shrinkage=0.05


Tree=36
num_leaves=31
num_cat=0
