tree
version=v4
num_class=1
num_tree_per_iteration=1
label_index=0
max_feature_idx=56
objective=regression
feature_names=round DayNum T1_FGM T1_FGA T1_FGM3 T1_FGA3 T1_OR T1_Ast T1_TO T1_Stl T1_PF T1_opponent_FGM T1_opponent_FGA T1_opponent_FGM3 T1_opponent_FGA3 T1_opponent_OR T1_opponent_Ast T1_opponent_TO T1_opponent_Stl T1_opponent_Blk T1_PointDiff T2_FGM T2_FGA T2_FGM3 T2_FGA3 T2_OR T2_Ast T2_TO T2_Stl T2_PF T2_opponent_FGM T2_opponent_FGA T2_opponent_FGM3 T2_opponent_FGA3 T2_opponent_OR T2_opponent_Ast T2_opponent_TO T2_opponent_Stl T2_opponent_Blk T2_PointDiff T1_win_ratio_14d T2_win_ratio_14d T1_quality T1_quality_vol T1_quality_points T1_quality_points_vol T2_quality T2_quality_vol T2_quality_points T2_quality_points_vol T1_seed T2_seed Seed_diff qual_diff qual_point_diff avg_qual_point avg_qual
feature_infos=[1:6] [136:154] [20.558823529411764:34.153846153846153] [46.121212121212125:66.878787878787875] [4.03125:11.411764705882353] [11.71875:30.399999999999999] [5.2285714285714286:16.84375] [9.1612903225806459:21.484848484848484] [7.387096774193548:16.9375] [3.4516129032258065:11.823529411764707] [11.3125:24.125] [18.09375:30.129032258064516] [46.193548387096776:67.774193548387103] [3.5151515151515151:10.46875] [11.96774193548387:28.37037037037037] [5.46875:15.199999999999999] [7.6764705882352944:17.625] [7.46875:20.441176470588236] [3.5:9.4193548387096779] [1.4516129032258065:5.5483870967741939] [-4.333333333333333:23.787878787878789] [20.558823529411764:34.153846153846153] [46.121212121212125:66.878787878787875] [4:11.411764705882353] [11.71875:30.399999999999999] [5.2285714285714286:16.84375] [9.1612903225806459:21.484848484848484] [7.387096774193548:16.9375] [3.4516129032258065:11.823529411764707] [11.3125:24.125] [18.09375:30.272727272727273] [46.193548387096776:68.030303030303031] [3.5151515151515151:10.46875] [11.96774193548387:28.37037037037037] [5.46875:15.199999999999999] [7.6764705882352944:17.625] [7.46875:20.441176470588236] [3.5:9.4193548387096779] [1.4516129032258065:5.59375] [-4.333333333333333:23.787878787878789] [0:1] [0:1] [1942.1802258503044:3070.6680113162029] [0.059923500019544093:0.060073192350347124] [2174.9710788928696:2283.4662083820326] [0.059688967430923397:0.059877354213468841] [1959.9679136467726:3070.6680113162029] [0.059923500019544093:0.060073192350347124] [2173.4289010270577:2283.4662083820326] [0.059688967430923397:0.059877354213468841] [1:16] [1:16] [-15:15] [-869.70537683032217:1063.9155375985465] [-93.034664224674088:108.43236232847039] [2185.3493460731261:2276.8580135841221] [2199.7636438526893:2970.9594686260807]
tree_sizes=726 719 727 727 726 730 732 724 727 721 705 730 732 721 723 725 727 729 729 730 725 730 737 726 726 742 728 730 726 734 729 726 731 727 732 731 728 730 709 727 729 736 732 733 732 737 741 737 734 729 718 721 728 735 729 738 729 727 732 729 731 712 729 731 737 723 719 705 736 725 731 691 733 733 728 725 731 726 711 722 727 712 723 734 734 731 715 737 710 731 727 727 736 731 734 708 720 702 727 732

Tree=0
num_leaves=7
num_cat=0
split_feature=53 53 53 44 53 44
split_gain=54478 24924.5 8370.25 6056.81 2831.03 2127.9
threshold=140.42281987163918 -218.67349737494325 390.97774327101871 2204.7931526092329 -41.900071176604563 2256.6049026281357
decision_type=2 2 2 2 2 2
left_child=1 3 -2 -1 -3 -4
right_child=2 4 5 -5 -6 -7
leaf_value=-1.0694043173282806 0.32522383472192318 -0.21216704075086754 0.58689535436035944 -0.51421965944105408 -0.0073913934294556408 1.093705990619356
leaf_weight=79 240 315 43 146 358 56
leaf_count=79 240 315 43 146 358 56
internal_value=-0.0517381 -0.25561 0.488312 -0.711373 -0.102494 0.878627
internal_weight=0 898 339 225 673 99
internal_count=1237 898 339 225 673 99
is_linear=0
shrinkage=1


Tree=1
num_leaves=7
num_cat=0
split_feature=54 54 54 54 54 26
split_gain=58857 17791.5 13577.1 3571.61 3275.66 2231.9
threshold=5.0315481008346987 -27.900974121248733 48.499463026136944 25.132537458463734 -49.093998559453659 15.629166666666668
decision_type=2 2 2 2 2 2
left_child=1 4 3 5 -1 -2
right_child=2 -3 -4 -5 -6 -7
leaf_value=-0.96549076000849421 0.12517196695264587 -0.13792575836405718 1.012539315596223 0.50854327457291748 -0.52671083066612479 0.48266365006566048
leaf_weight=75 234 532 80 140 120 56
leaf_count=75 234 532 80 140 120 56
internal_value=0 -0.28885 0.411801 0.298873 -0.698036 0.195929
internal_weight=0 727 510 430 195 290
internal_count=1237 727 510 430 195 290
is_linear=0
shrinkage=0.05


Tree=2
num_leaves=7
num_cat=0
split_feature=52 44 48 39 53 21
split_gain=45552.8 16155.5 13834.7 4423.94 3434.97 2743.17
threshold=-1.4999999999999998 2211.7014529605235 2203.5543506763829 12.66098484848485 223.74253129167371 27.907670454545457
decision_type=2 2 2 2 2 2
left_child=2 -2 -1 -3 5 -4
right_child=1 3 4 -5 -6 -7
leaf_value=0.96037543644992318 -0.76418905972968787 -0.053842385985416269 0.062789629260698962 -0.35239589924107217 0.43766199112325527 0.48695536625195057
leaf_weight=82 128 422 225 179 154 47
leaf_count=82 128 422 225 179 154 47
internal_value=0 -0.253246 0.363514 -0.143595 0.247452 0.137921
internal_weight=0 729 508 601 426 272
internal_count=1237 729 508 601 426 272
is_linear=0
shrinkage=0.05


Tree=3
num_leaves=7
num_cat=0
split_feature=54 54 48 54 54 39
split_gain=48790.9 14741.1 11178.1 2826.85 2712.1 2357.85
threshold=5.0315481008346987 -27.900974121248733 2203.5543506763829 25.132537458463734 -49.093998559453659 12.522281639928702
decision_type=2 2 2 2 2 2
left_child=1 4 -2 -4 -1 -3
right_child=2 5 3 -5 -6 -7
leaf_value=-0.87955585164825123 0.91235668128583503 -0.060343503263325264 0.17936201048629552 0.45948861007025282 -0.4787491360182563 -0.30081546716916729
leaf_weight=75 82 390 290 138 120 142
leaf_count=75 82 390 290 138 120 142
internal_value=0 -0.262952 0.374976 0.270851 -0.63547 -0.125469
internal_weight=0 727 510 428 195 532
internal_count=1237 727 510 428 195 532
is_linear=0
shrinkage=0.05


Tree=4
num_leaves=7
num_cat=0
split_feature=54 54 48 44 54 39
split_gain=44063 13303.3 10079.1 2735.89 2546.09 2125.58
threshold=5.0315481008346987 -27.900974121248733 2203.5543506763829 2204.7931526092329 25.132537458463734 12.522281639928702
decision_type=2 2 2 2 2 2
left_child=1 3 -2 -1 -4 -3
right_child=2 5 4 -5 -6 -7
leaf_value=-0.83302397700371567 0.86673884071954876 -0.057326326842825764 0.17039391341651311 -0.4365860774067411 0.43651418034797135 -0.28577469294344759
leaf_weight=81 82 390 290 114 138 142
leaf_count=81 82 390 290 114 138 142
internal_value=0 -0.249908 0.356325 -0.603824 0.257367 -0.119243
internal_weight=0 727 510 195 428 532
internal_count=1237 727 510 195 428 532
is_linear=0
shrinkage=0.05


Tree=5
num_leaves=7
num_cat=0
split_feature=53 53 48 44 48 44
split_gain=33418 18229.8 4125.89 3646.06 3206.92 2901.14
threshold=223.74253129167371 -218.67349737494325 2203.5543506763829 2204.7931526092329 2243.1796289164899 2242.2558584977728
decision_type=2 2 2 2 2 2
left_child=1 3 -2 -1 5 -3
right_child=2 4 -4 -5 -6 -7
leaf_value=-0.80104657407802871 0.83470348998904231 -0.022164727343253705 0.38070755730588718 -0.36748665524072543 -0.12074690943885616 0.24479741546922101
leaf_weight=79 80 253 154 146 358 167
leaf_count=79 80 253 154 146 358 167
internal_value=0 -0.125513 0.538057 -0.521937 -0.0102235 0.082794
internal_weight=0 1003 234 225 778 420
internal_count=1237 1003 234 225 778 420
is_linear=0
shrinkage=0.05


Tree=6
num_leaves=7
num_cat=0
split_feature=53 53 48 44 48 44
split_gain=30174.7 16457.6 3713.4 3280.65 2892.67 2628.01
threshold=223.74253129167371 -218.67349737494325 2203.5543506763829 2204.7931526092329 2243.1796289164899 2242.5424453388955
decision_type=2 2 2 2 2 2
left_child=1 3 -2 -1 5 -3
right_child=2 4 -4 -5 -6 -7
leaf_value=-0.76099425735352921 0.7929683076962829 -0.017244316120828249 0.36167218497434223 -0.34911232702944378 -0.11470956737851963 0.23906027609072394
leaf_weight=79 80 261 154 146 358 159
leaf_count=79 80 261 154 146 358 159
internal_value=0 -0.119287 0.511261 -0.495951 -0.00971235 0.0785948
internal_weight=0 1003 234 225 778 420
internal_count=1237 1003 234 225 778 420
is_linear=0
shrinkage=0.05


Tree=7
num_leaves=7
num_cat=0
split_feature=54 54 54 54 21 44
split_gain=33170.6 9150.02 8227.57 2368.13 1863.26 1843.32
threshold=2.6184361552191153 -27.900974121248733 48.499463026136944 25.132537458463734 27.907670454545457 2204.7931526092329
decision_type=2 2 2 2 2 2
left_child=1 5 3 4 -2 -1
right_child=2 -3 -4 -5 -6 -7
leaf_value=-0.71515052439070048 0.076722498501358108 -0.11725638772581254 0.75644261784851552 0.3799764266503709 0.39442853503452063 -0.38593765342885855
leaf_weight=81 283 482 80 140 57 114
leaf_count=81 283 482 80 140 57 114
internal_value=0 -0.235512 0.284655 0.204982 0.131456 -0.525252
internal_weight=0 677 560 480 340 195
internal_count=1237 677 560 480 340 195
is_linear=0
shrinkage=0.05


Tree=8
num_leaves=7
num_cat=0
split_feature=54 54 54 54 39 44
split_gain=30067 9683.6 6264.07 1940.75 1631.74 1464.21
threshold=6.5843312216347849 -25.110247971758778 48.499463026136944 -50.539885504540727 12.522281639928702 2244.2961043220575
decision_type=2 2 2 2 2 2
left_child=1 3 5 -1 -3 -2
right_child=2 4 -4 -5 -6 -7
leaf_value=-0.70034832954406745 0.047309841701517939 -0.027096223136284705 0.71862050712108616 -0.36630596504608792 -0.22676259452569569 0.28204393944527845
leaf_weight=70 92 401 80 150 141 303
leaf_count=70 92 401 80 150 141 303
internal_value=0 -0.194632 0.312214 -0.474865 -0.0799615 0.228638
internal_weight=0 762 475 220 542 395
internal_count=1237 762 475 220 542 395
is_linear=0
shrinkage=0.05


Tree=9
num_leaves=7
num_cat=0
split_feature=54 54 54 54 42 21
split_gain=27219.8 7446.7 6663.31 2049.99 1700.76 1687.98
threshold=2.6184361552191153 -27.900974121248733 48.499463026136944 25.132537458463734 2249.012412257483 27.907670454545457
decision_type=2 2 2 2 2 2
left_child=1 4 3 5 -1 -2
right_child=2 -3 -4 -5 -6 -7
leaf_value=-0.76492086621217947 0.06532061851382677 -0.10652860719942454 0.68268945608288056 0.34888741246158528 -0.38944508382854498 0.36765570366068889
leaf_weight=43 283 482 80 140 152 57
leaf_count=43 283 482 80 140 152 57
internal_value=0 -0.213344 0.25786 0.186013 -0.474806 0.117477
internal_weight=0 677 560 480 195 340
internal_count=1237 677 560 480 195 340
is_linear=0
shrinkage=0.05


Tree=10
num_leaves=7
num_cat=0
split_feature=53 53 42 52 55 21
split_gain=20869.3 10392.1 3680.43 2590.15 1284.73 1408.58
threshold=-109.12734564954506 223.74253129167371 2240.5705614461158 -13.999999999999998 2230.0231349247292 25.851470588235298
decision_type=2 2 2 2 2 2
left_child=2 -2 -1 -3 -4 -6
right_child=1 3 4 -5 5 -7
leaf_value=-0.76312567934393893 0.030265343184985499 0.7776154894720424 -0.42691960367487702 0.33823132506522696 0 -0.2623356372309037
leaf_weight=40 613 44 82 190 73 195
leaf_count=40 613 44 82 190 73 195
internal_value=0 0.139353 -0.30266 0.422987 -0.248607 -0.192183
internal_weight=0 847 390 234 350 268
internal_count=1237 847 390 234 350 268
is_linear=0
shrinkage=0.05


Tree=11
num_leaves=7
num_cat=0
split_feature=54 54 48 54 5 21
split_gain=22781.2 7210.07 4650.38 1473.86 1466.01 1299.01
threshold=6.5843312216347849 -25.110247971758778 2207.8434023297564 -50.539885504540727 18.114835164835167 27.907670454545457
decision_type=2 2 2 2 2 2
left_child=1 3 -2 -1 -3 -4
right_child=2 4 5 -5 -6 -7
leaf_value=-0.60874992590796739 0.56070346137799254 -0.20939650673762703 0.14138217219709145 -0.31583974195892611 -0.020180725836731552 0.40840296042070057
leaf_weight=70 109 141 309 150 401 57
leaf_count=70 109 141 309 150 401 57
internal_value=0 -0.16943 0.271753 -0.411311 -0.0703273 0.184333
internal_weight=0 762 475 220 542 366
internal_count=1237 762 475 220 542 366
is_linear=0
shrinkage=0.05


Tree=12
num_leaves=7
num_cat=0
split_feature=52 53 44 46 44 21
split_gain=17216.5 5716.77 5374.21 2255.3 1951.2 1571.43
threshold=-1.0000000180025095e-35 286.96567860083638 2211.7014529605235 2795.2474593244506 2242.2558584977728 27.907670454545457
decision_type=2 2 2 2 2 2
left_child=1 4 -2 -4 -1 -6
right_child=2 -3 3 -5 5 -7
leaf_value=-0.058837421143189406 -0.47136355146358255 0.45055018171386901 -0.054348710451864506 -0.32471186461253576 0.11242012285675661 0.4137355716661974
leaf_weight=133 128 159 414 97 251 55
leaf_count=133 128 159 414 97 251 55
internal_value=0 0.192784 -0.180488 -0.106649 0.0982859 0.168212
internal_weight=0 598 639 511 439 306
internal_count=1237 598 639 511 439 306
is_linear=0
shrinkage=0.05


Tree=13
num_leaves=7
num_cat=0
split_feature=53 53 42 48 28 16
split_gain=15748.8 7841.16 2919 1972.3 1088.3 1046.91
threshold=-109.12734564954506 223.74253129167371 2240.5705614461158 2203.5543506763829 5.2154356060606064 12.242647058823531
decision_type=2 2 2 2 2 2
left_child=2 5 -1 -3 -4 -2
right_child=1 3 4 -5 -6 -7
leaf_value=-0.67353010036051275 -0.025379664429009054 0.57401259545236827 0.019483334273099902 0.25682155215929797 -0.24644337050015888 0.10771547683603536
leaf_weight=40 372 80 40 154 310 241
leaf_count=40 372 80 40 154 310 241
internal_value=0 0.121003 -0.262973 0.3674 -0.214623 0.0261308
internal_weight=0 847 390 234 350 613
internal_count=1237 847 390 234 350 613
is_linear=0
shrinkage=0.05


Tree=14
num_leaves=7
num_cat=0
split_feature=54 54 44 42 23 46
split_gain=17707.5 6649.76 2820.41 1476.5 1662.76 1395.79
threshold=-7.6148634469163872 25.132537458463734 2204.7931526092329 2750.6874454417621 7.7303427419354849 2795.2474593244506
decision_type=2 2 2 2 2 2
left_child=2 -2 -1 4 -3 -4
right_child=1 3 5 -5 -6 -7
leaf_value=-0.51521522136541398 0.052551881390284327 0.39472488846513443 -0.13577313165029778 0.53236130969991036 0.0032923093934853868 -0.38301433680951597
leaf_weight=82 557 80 303 95 45 75
leaf_count=82 557 80 303 95 45 75
internal_value=0 0.145524 -0.245898 0.378638 0.257809 -0.186152
internal_weight=0 777 460 220 125 378
internal_count=1237 777 460 220 125 378
is_linear=0
shrinkage=0.05


Tree=15
num_leaves=7
num_cat=0
split_feature=54 54 54 42 29 22
split_gain=16061 4269.19 3814.75 1541.22 1451.74 1292.87
threshold=2.6184361552191153 -27.900974121248733 48.499463026136944 2796.2385933268724 18.530330882352946 55.381048387096783
decision_type=2 2 2 2 2 2
left_child=1 -1 3 -2 5 -3
right_child=2 4 -4 -5 -6 -7
leaf_value=-0.36204191084473564 0.10368180235350706 0.026111178448267072 0.52014246432576339 0.35776073877533826 0.12267277595442785 -0.17219070568895212
leaf_weight=195 407 107 80 73 71 304
leaf_count=195 407 107 80 73 71 304
internal_value=0 -0.163871 0.198083 0.143365 -0.0826604 -0.119348
internal_weight=0 677 560 480 482 411
internal_count=1237 677 560 480 482 411
is_linear=0
shrinkage=0.05


Tree=16
num_leaves=7
num_cat=0
split_feature=54 54 44 24 4 44
split_gain=14624.2 5571.59 2389.02 1341.04 1321.79 1298
threshold=-7.6148634469163872 25.132537458463734 2204.7931526092329 17.898275862068967 7.238859180035651 2244.2253887955053
decision_type=2 2 2 2 2 2
left_child=2 3 -1 -2 5 -5
right_child=1 -3 -4 4 -6 -7
leaf_value=-0.47146812156297085 0.18711923333249261 0.34573411381348373 -0.16824632717743665 -0.21631224802510796 0.08690509468242856 0.034868709130607772
leaf_weight=82 131 220 378 101 226 99
leaf_count=82 131 220 378 101 226 99
internal_value=0 0.132328 -0.223386 0.0471412 0.00292257 -0.0894777
internal_weight=0 777 460 557 426 200
internal_count=1237 777 460 557 426 200
is_linear=0
shrinkage=0.05


Tree=17
num_leaves=7
num_cat=0
split_feature=54 54 48 42 24 39
split_gain=13250.2 4199.25 2815.9 1349.67 1243.21 1229.84
threshold=6.5843312216347849 -25.110247971758778 2203.5543506763829 2796.2385933268724 22.836007130124781 12.522281639928702
decision_type=2 2 2 2 2 2
left_child=1 4 -2 -4 -1 -3
right_child=2 5 3 -5 -6 -7
leaf_value=-0.24921671974853699 0.47668137638488917 -0.0072735238179304357 0.10489325527803123 0.35376754899819696 -0.56095366667617452 -0.18041773233694813
leaf_weight=176 82 401 324 69 44 141
leaf_count=176 82 401 324 69 44 141
internal_value=0 -0.129133 0.207333 0.149861 -0.313837 -0.0532391
internal_weight=0 762 475 393 220 542
internal_count=1237 762 475 393 220 542
is_linear=0
shrinkage=0.05


Tree=18
num_leaves=7
num_cat=0
split_feature=53 48 42 42 47 45
split_gain=9731.6 4959.31 2188.03 1612.34 1460.35 1317.07
threshold=-109.12734564954506 2207.8434023297564 2240.5705614461158 2796.2385933268724 0.05996299050381864 0.059737570684961619
decision_type=2 2 2 2 2 2
left_child=2 -2 -1 4 5 -3
right_child=1 3 -4 -5 -6 -7
leaf_value=-0.56220632918179037 0.40734843658702868 -0.0079545060765205799 -0.16456457629586971 0.24619641234477363 0.10629953345963027 -0.29584305735062
leaf_weight=40 111 323 350 90 277 46
leaf_count=40 111 323 350 90 277 46
internal_value=0 0.0952069 -0.20663 0.0474519 0.018989 -0.0451981
internal_weight=0 847 390 736 646 369
internal_count=1237 847 390 736 646 369
is_linear=0
shrinkage=0.05


Tree=19
num_leaves=7
num_cat=0
split_feature=44 1 44 42 5 10
split_gain=8960.74 3958.31 3023.36 2144.11 1713.34 1705.01
threshold=2242.858800837314 138.50000000000003 2210.1697647168871 2796.2385933268724 17.901612903225807 18.967741935483875
decision_type=2 2 2 2 2 2
left_child=2 5 -1 -3 -4 -2
right_child=1 3 4 -5 -6 -7
leaf_value=-0.3521771914825389 0.31863639782748976 -0.070659973853589783 -0.24477160725871039 0.23526627746147988 -0.025303895967738327 -0.021098755262792111
leaf_weight=123 255 214 116 78 411 40
leaf_count=123 255 214 116 78 411 40
internal_value=0 0.141632 -0.127863 0.00934772 -0.0745605 0.270876
internal_weight=0 587 650 292 527 295
internal_count=1237 587 650 292 527 295
is_linear=0
shrinkage=0.05


Tree=20
num_leaves=7
num_cat=0
split_feature=54 54 54 26 24 52
split_gain=10358.9 3941.69 1690.71 1280.5 1259.81 1204.68
threshold=-7.6148634469163872 25.132537458463734 -49.093998559453659 16.384724857685011 17.898275862068967 -13.999999999999998
decision_type=2 2 2 2 2 2
left_child=2 3 -1 4 -2 -3
right_child=1 5 -4 -5 -6 -7
leaf_value=-0.40895200949907307 0.15405217063755305 0.53357163261283524 -0.1437665331973271 0.2484159139944957 -0.032991586796152481 0.22732020616319706
leaf_weight=75 118 44 385 65 374 176
leaf_count=75 118 44 385 65 374 176
internal_value=0 0.111289 -0.18809 0.0394728 0.0108522 0.290843
internal_weight=0 777 460 557 492 220
internal_count=1237 777 460 557 492 220
is_linear=0
shrinkage=0.05


Tree=21
num_leaves=7
num_cat=0
split_feature=54 54 54 10 10 40
split_gain=9371.91 2958.33 2057.65 1218.38 1407.08 1272.94
threshold=6.5843312216347849 -25.110247971758778 52.123179476843923 16.349294354838715 15.850713012477721 0.69047619047619058
decision_type=2 2 2 2 2 2
left_child=1 -1 3 4 -2 -5
right_child=2 -3 -4 5 -6 -7
leaf_value=-0.26378365051678637 0.11487934406441036 -0.044796943116238913 0.43210262820562895 -0.049998095891929752 0.42743454772618511 0.17652295086469152
leaf_weight=220 101 542 68 127 62 117
leaf_count=220 101 542 68 127 62 117
internal_value=0 -0.108678 0.174295 0.129993 0.236833 0.0565714
internal_weight=0 762 475 407 163 244
internal_count=1237 762 475 407 163 244
is_linear=0
shrinkage=0.05


Tree=22
num_leaves=7
num_cat=0
split_feature=53 53 47 52 39 26
split_gain=6827.27 3943.85 1342.89 1210.62 1178.79 1279.22
threshold=223.74253129167371 -218.67349737494325 0.059962538921696104 -13.999999999999998 12.66098484848485 16.044563279857403
decision_type=2 2 2 2 2 2
left_child=1 -1 4 -2 5 -3
right_child=3 2 -4 -5 -6 -7
leaf_value=-0.24112757156768608 0.48665981113233353 -0.050090118989177895 0.081534728000766221 0.18418360896800695 -0.22263298406330653 0.22938117068868294
leaf_weight=225 44 355 291 190 86 46
leaf_count=225 44 355 291 190 86 46
internal_value=0 -0.0567338 -0.00276387 0.243196 -0.054162 -0.0167842
internal_weight=0 1003 778 234 487 401
internal_count=1237 1003 778 234 487 401
is_linear=0
shrinkage=0.05


Tree=23
num_leaves=7
num_cat=0
split_feature=54 54 44 4 34 20
split_gain=7947.06 3015.1 1397.81 1094.25 1330.92 1156.05
threshold=-7.6148634469163872 25.132537458463734 2204.7931526092329 7.238859180035651 10.872983870967744 6.0952620967741948
decision_type=2 2 2 2 2 2
left_child=2 3 -1 4 -2 -5
right_child=1 -3 -4 5 -6 -7
leaf_value=-0.35507892244836181 -0.11324117657703324 0.25461956991814078 -0.12206202754258084 0.34607430866291361 0.11658917986490624 0.059052675995737949
leaf_weight=82 185 220 378 43 94 235
leaf_count=82 185 220 378 43 94 235
internal_value=0 0.0975349 -0.164687 0.0345931 -0.0340152 0.105247
internal_weight=0 777 460 557 279 278
internal_count=1237 777 460 557 279 278
is_linear=0
shrinkage=0.05


Tree=24
num_leaves=7
num_cat=0
split_feature=54 54 54 18 12 21
split_gain=7223.46 1898.42 1845.97 1484.32 1269.04 1456.08
threshold=2.6184361552191153 -27.900974121248733 52.123179476843923 6.6715686274509816 52.015151515151523 27.907670454545457
decision_type=2 2 2 2 2 2
left_child=1 -1 4 -3 -2 -6
right_child=2 3 -4 -5 5 -7
leaf_value=-0.24225563567800401 -0.16694014973938465 -0.017165855745012625 0.37966098031576945 -0.26512379549029802 0.082471648769273223 0.33613149148658383
leaf_weight=195 40 410 68 72 383 69
leaf_count=195 40 410 68 72 383 69
internal_value=0 -0.109848 0.132891 -0.0552426 0.0977685 0.1223
internal_weight=0 677 560 482 492 452
internal_count=1237 677 560 482 492 452
is_linear=0
shrinkage=0.05


Tree=25
num_leaves=7
num_cat=0
split_feature=53 53 47 16 16 14
split_gain=5199.45 2965.76 1148.04 1135.34 1094.76 1061.74
threshold=223.74253129167371 -218.67349737494325 0.059962538921696104 12.323390151515154 13.015151515151517 19.060661764705888
decision_type=2 2 2 2 2 2
left_child=1 -1 3 5 -5 -3
right_child=-2 2 -4 4 -6 -7
leaf_value=-0.20940182551576034 0.21224982614000132 -0.016631012061586629 0.075286161550400701 0.17161283829559884 -0.067339936482033347 -0.20938868623814214
leaf_weight=225 234 154 291 90 99 144
leaf_count=225 234 154 291 90 99 144
internal_value=0 -0.0494933 -0.00260459 -0.0501738 0.0438016 -0.111454
internal_weight=0 1003 778 487 189 298
internal_count=1237 1003 778 487 189 298
is_linear=0
shrinkage=0.05


Tree=26
num_leaves=7
num_cat=0
split_feature=54 54 42 26 24 22
split_gain=6118.36 2333.31 1185.68 1088.81 1083.22 1056.18
threshold=-7.6148634469163872 25.132537458463734 2249.012412257483 16.384724857685011 17.898275862068967 55.381048387096783
decision_type=2 2 2 2 2 2
left_child=2 3 -1 4 -2 -4
right_child=1 -3 5 -5 -6 -7
leaf_value=-0.39941727345928468 0.13661650257595515 0.22378630466568708 0.023990675058060639 0.22253934538135162 -0.037004338385709094 -0.16077535146516619
leaf_weight=43 118 220 96 65 374 321
leaf_count=43 118 220 96 65 374 321
internal_value=0 0.0855588 -0.144523 0.030065 0.00362017 -0.11704
internal_weight=0 777 460 557 492 417
internal_count=1237 777 460 557 492 417
is_linear=0
shrinkage=0.05


Tree=27
num_leaves=7
num_cat=0
split_feature=54 42 54 5 22 54
split_gain=5591.54 1830.26 1283.89 1201.81 2096.73 1243.16
threshold=6.5843312216347849 2240.5705614461158 52.123179476843923 18.114835164835167 55.138257575757585 -10.131942526328428
decision_type=2 2 2 2 2 2
left_child=1 -1 -2 -3 -5 -6
right_child=2 3 -4 4 5 -7
leaf_value=-0.41546948239207265 0.099313403112260071 -0.17403873742206341 0.33887612331001199 0.18336292678663105 -0.15031176818018199 0.01701230635145801
leaf_weight=40 407 188 68 97 238 199
leaf_count=40 407 188 68 97 238 199
internal_value=0 -0.0839116 0.134661 -0.0648502 -0.0254729 -0.072972
internal_weight=0 762 475 722 534 437
internal_count=1237 762 475 722 534 437
is_linear=0
shrinkage=0.05


Tree=28
num_leaves=7
num_cat=0
split_feature=44 48 5 55 44 22
split_gain=4380.67 3031.41 1640 1598.68 1144.89 1128.02
threshold=2242.858800837314 2251.5530465860688 17.901612903225807 2230.6629997547275 2211.7014529605235 57.561250000000008
decision_type=2 2 2 2 2 2
left_child=2 3 -1 -2 -4 -5
right_child=1 -3 4 5 -6 -7
leaf_value=-0.23027042184449453 0.34305008961045952 -0.10084985239391631 -0.21023793329649113 0.030909486344797694 -0.006985038200150763 0.21704293853501244
leaf_weight=158 99 141 85 201 407 146
leaf_count=158 99 141 85 201 407 146
internal_value=0 0.0990515 -0.0893782 0.16337 -0.0431161 0.110666
internal_weight=0 587 650 446 492 347
internal_count=1237 587 650 446 492 347
is_linear=0
shrinkage=0.05


Tree=29
num_leaves=7
num_cat=0
split_feature=54 54 39 56 56 24
split_gain=4660.38 1858.97 999.55 1128.8 1807.54 951.368
threshold=-10.131942526328428 25.132537458463734 7.3284313725490202 2564.3149804860882 2648.9099289021328 17.898275862068967
decision_type=2 2 2 2 2 2
left_child=2 5 -1 -4 -5 -2
right_child=1 -3 3 4 -6 -7
leaf_value=0.074771802460259593 0.13613114783632188 0.19415365016426556 -0.27787640507621092 0.049743448780128013 -0.22564514456241114 -0.011386972668242979
leaf_weight=47 142 220 139 111 123 455
leaf_count=47 142 220 139 111 123 455
internal_value=0 0.0696002 -0.135341 -0.163157 -0.0928753 0.0228636
internal_weight=0 817 420 373 234 597
internal_count=1237 817 420 373 234 597
is_linear=0
shrinkage=0.05


Tree=30
num_leaves=7
num_cat=0
split_feature=54 44 55 4 53 31
split_gain=4203.43 1748.13 1855.51 1130.88 1164.11 908.83
threshold=-10.131942526328428 2242.858800837314 2230.6629997547275 6.6407624633431093 -19.727494063675518 58.735064935064941
decision_type=2 2 2 2 2 2
left_child=-1 3 -3 -2 -5 -4
right_child=1 2 5 4 -6 -7
leaf_value=-0.12851477990146598 -0.16955253466963771 0.31618990834915278 0.032521479198786278 0.22478096875651132 -0.045418526784929102 0.20684143289871282
leaf_weight=420 100 99 338 58 122 100
leaf_count=420 100 99 338 58 122 100
internal_value=0 0.0661202 0.119142 -0.0337822 0.038868 0.0734621
internal_weight=0 817 537 280 180 438
internal_count=1237 817 537 280 180 438
is_linear=0
shrinkage=0.05


Tree=31
num_leaves=7
num_cat=0
split_feature=54 29 4 22 52 38
split_gain=3850.92 1424 1320.53 2472.9 1267.62 1265.73
threshold=2.6184361552191153 18.530330882352946 6.5628787878787884 55.381048387096783 -13.999999999999998 3.3114224137931036
decision_type=2 2 2 2 2 2
left_child=1 2 -1 -4 -2 -5
right_child=4 -3 3 5 -6 -7
leaf_value=-0.22174837283749618 0.35767140232703909 0.095445159877029562 0.17110148978730044 -0.2015098130793741 0.073860751204698011 0.0059486817382276057
leaf_weight=184 44 96 90 197 516 110
leaf_count=184 44 96 90 197 516 110
internal_value=0 -0.0801816 -0.110061 -0.0570376 0.097053 -0.125547
internal_weight=0 677 581 397 560 307
internal_count=1237 677 581 397 560 307
is_linear=0
shrinkage=0.05


Tree=32
num_leaves=7
num_cat=0
split_feature=54 44 55 47 18 49
split_gain=3557.25 1498.88 1579.77 1010.95 993.508 927.432
threshold=-10.131942526328428 2242.858800837314 2230.6629997547275 0.05995729928444031 5.9402852049910884 0.059735843710807916
decision_type=2 2 2 2 2 2
left_child=5 3 -3 4 -2 -1
right_child=1 2 -4 -5 -6 -7
leaf_value=-0.15086569690565044 -0.0079313058473847141 0.2919571923863406 0.06775444339616353 0.037070758636626934 -0.33460439231660632 0.046783678200262697
leaf_weight=353 55 99 438 180 45 67
leaf_count=353 55 99 438 180 45 67
internal_value=0 0.0609052 0.110019 -0.0315024 -0.159934 -0.118145
internal_weight=0 817 537 280 100 420
internal_count=1237 817 537 280 100 420
is_linear=0
shrinkage=0.05


Tree=33
num_leaves=7
num_cat=0
split_feature=54 42 35 42 25 35
split_gain=3208.17 1426.29 965.431 1385.51 1257.03 1066.08
threshold=-10.131942526328428 2729.5044440449287 12.359237536656893 2580.905282652288 9.060661764705884 13.015151515151517
decision_type=2 2 2 2 2 2
left_child=-1 2 4 5 -2 -4
right_child=1 -3 3 -5 -6 -7
leaf_value=-0.11217864417249249 0.21911702649091783 0.15583070245920683 -0.11291823106817903 -0.17036993564732039 0.0027755296653789335 0.22002436002450332
leaf_weight=420 97 256 40 134 234 56
leaf_count=420 97 256 40 134 234 56
internal_value=0 0.0578599 0.0122618 -0.0653258 0.0676853 0.0760899
internal_weight=0 817 561 230 331 96
internal_count=1237 817 561 230 331 96
is_linear=0
shrinkage=0.05


Tree=34
num_leaves=7
num_cat=0
split_feature=54 54 10 39 30 44
split_gain=2948.45 1232.4 1198.28 961.872 823.601 844.514
threshold=6.5843312216347849 -50.539885504540727 18.149286987522284 12.66098484848485 21.537433155080219 2242.2558584977728
decision_type=2 2 2 2 2 2
left_child=1 -1 4 -3 -2 -6
right_child=2 3 -4 -5 5 -7
leaf_value=-0.26203064624220135 -0.043607554361224182 -0.0023117960249436297 -0.058269493676167218 -0.13525687806864137 -0.022574492317178979 0.19896227357353558
leaf_weight=70 50 501 94 191 46 285
leaf_count=70 50 501 94 191 46 285
internal_value=0 -0.0608063 0.0979118 -0.0397287 0.137757 0.166664
internal_weight=0 762 475 692 381 331
internal_count=1237 762 475 692 381 331
is_linear=0
shrinkage=0.05


Tree=35
num_leaves=7
num_cat=0
split_feature=54 52 24 3 29 24
split_gain=2658.52 1242.81 1162.73 1440.07 1029.89 1064.04
threshold=-10.131942526328428 -13.999999999999998 17.898275862068967 55.303030303030312 18.378676470588239 23.661904761904768
decision_type=2 2 2 2 2 2
left_child=4 -2 -3 -4 5 -1
right_child=1 2 3 -5 -6 -7
leaf_value=-0.099176544034232705 0.31261971809647304 0.14346915714519939 -0.1610669873112982 0.039865617555803923 0.06963915305239135 -0.35247874739123325
leaf_weight=300 44 193 110 470 69 51
leaf_count=300 44 193 110 470 69 51
internal_value=0 0.0525879 0.0371397 0.000895641 -0.102201 -0.137406
internal_weight=0 817 773 580 420 351
internal_count=1237 817 773 580 420 351
is_linear=0
shrinkage=0.05


Tree=36
num_leaves=7
num_cat=0
split_feature=48 42 35 31 42 3
split_gain=2238.34 1498.5 1141.92 1225.27 1002.22 938.934
threshold=2243.1796289164899 2807.4697587389551 14.641739980449659 53.169034090909101 2249.012412257483 58.14870689655173
decision_type=2 2 2 2 2 2
left_child=2 4 3 -1 -2 -5
right_child=1 -3 -4 5 -6 -7
leaf_value=-0.054236607778612091 -0.33779514312017256 0.18179780021309855 -0.18815178176978742 0.052162584781828794 -0.075578095066283366 0.19541092351691364
leaf_weight=127 41 52 41 266 491 219
leaf_count=127 41 52 41 266 491 219
internal_value=0 -0.0710701 0.0636569 0.0813434 -0.0967264 0.117877
internal_weight=0 584 653 612 532 485
internal_count=1237 584 653 612 532 485
is_linear=0
shrinkage=0.05


Tree=37
num_leaves=7
num_cat=0
split_feature=54 5 22 10 29 25
split_gain=2294.29 1127.04 1489.95 1086.27 1025.01 1104.67
threshold=6.5843312216347849 17.901612903225807 55.381048387096783 18.149286987522284 17.921399594320487 10.846117424242426
decision_type=2 2 2 2 2 2
left_child=1 -1 -3 -2 -4 -6
right_child=3 2 4 -5 5 -7
leaf_value=-0.1581078486291442 0.12427917641582667 0.14313741630237353 -0.10594703013515983 -0.062447220824183303 0.26025403185851043 -0.044597143732102183
leaf_weight=194 381 114 327 94 45 82
leaf_count=194 381 114 327 94 45 82
internal_value=0 -0.0537342 -0.0172052 0.0862744 -0.0585688 0.059484
internal_weight=0 762 568 475 454 127
internal_count=1237 762 568 475 454 127
is_linear=0
shrinkage=0.05


Tree=38
num_leaves=7
num_cat=0
split_feature=54 55 29 39 28 4
split_gain=2089.5 1467.55 1143.11 937.448 903.118 932.084
threshold=23.566270195453175 2229.4822862191413 19.045036764705888 7.467741935483871 6.0307765151515165 6.5628787878787884
decision_type=2 2 2 2 2 2
left_child=1 3 4 -1 5 -3
right_child=-2 2 -4 -5 -6 -7
leaf_value=0 0.13245542817904304 -0.093564777107288444 0.15703289244444141 -0.28149453705515376 -0.066718066210103746 0.11138647585774267
leaf_weight=42 240 78 93 88 517 179
leaf_count=42 240 78 93 88 517 179
internal_value=0 -0.0318768 -0.00778438 -0.188709 -0.028234 0.0472378
internal_weight=0 997 867 130 774 257
internal_count=1237 997 867 130 774 257
is_linear=0
shrinkage=0.05


Tree=39
num_leaves=7
num_cat=0
split_feature=54 44 25 11 39 47
split_gain=1921.23 1094.15 1204.69 883.324 1119.33 863.673
threshold=-10.131942526328428 2242.858800837314 8.6568627450980404 21.09232954545455 7.3284313725490202 0.05995729928444031
decision_type=2 2 2 2 2 2
left_child=3 5 -3 -1 -5 -2
right_child=1 2 -4 4 -6 -7
leaf_value=0.1250982430453102 -0.15280554574355484 0.25285834397148826 0.051275667963716923 0.12857654460864823 -0.1424942444189167 0.028968828597830405
leaf_weight=42 100 92 445 41 337 180
leaf_count=42 100 92 445 41 337 180
internal_value=0 0.0446934 0.0867423 -0.0868924 -0.11177 -0.0341649
internal_weight=0 817 537 420 378 280
internal_count=1237 817 537 420 378 280
is_linear=0
shrinkage=0.05


Tree=40
num_leaves=7
num_cat=0
split_feature=44 30 46 19 3 19
split_gain=1757.73 1602.17 1529.34 1336.89 1080.82 1075.04
threshold=2254.8403917215487 25.328431372549023 2740.5686212546557 2.8153409090909096 55.409007352941181 3.2857862903225814
decision_type=2 2 2 2 2 2
left_child=2 4 3 -1 -2 -5
right_child=1 -3 -4 5 -6 -7
leaf_value=-0.11451026753143029 -0.15582580981268124 0.40284127169066952 -0.15361249138643246 0.11278402846681873 0.12067640678760427 -0.020697598670146422
leaf_weight=189 44 42 199 268 161 334
leaf_count=189 44 42 199 268 161 334
internal_value=0 0.1194 -0.0296952 0.00084789 0.0588906 0.0378956
internal_weight=0 247 990 791 205 602
internal_count=1237 247 990 791 205 602
is_linear=0
shrinkage=0.05


Tree=41
num_leaves=7
num_cat=0
split_feature=20 48 38 38 6 22
split_gain=1593.67 1589.74 1220.85 1294.9 979.367 1009.13
threshold=13.148841354723709 2243.1796289164899 2.6899038461538467 2.8461174242424248 8.2952069716775618 55.381048387096783
decision_type=2 2 2 2 2 2
left_child=1 2 -1 -4 -3 -6
right_child=-2 4 3 -5 5 -7
leaf_value=0.18618378280174164 0.12378594387452618 -0.27407923727941053 -0.23541346613388017 0.028598214966815805 0.068164649437764818 -0.10699798298708629
leaf_weight=105 215 65 53 372 107 320
leaf_count=105 215 65 53 372 107 320
internal_value=0 -0.0259784 0.0334168 -0.00314912 -0.0909774 -0.0619338
internal_weight=0 1022 530 425 492 427
internal_count=1237 1022 530 425 492 427
is_linear=0
shrinkage=0.05


Tree=42
num_leaves=7
num_cat=0
split_feature=54 55 29 28 6 4
split_gain=1543.88 1231.38 1015.78 905.645 1243.57 1176.44
threshold=23.566270195453175 2229.4822862191413 19.261385199240991 6.0307765151515165 10.081154684095862 6.5628787878787884
decision_type=2 2 2 2 2 2
left_child=1 -1 3 4 -3 -6
right_child=-2 2 -4 -5 5 -7
leaf_value=-0.17096693963242265 0.11391933338250966 -0.093378723543751374 0.17117347914624859 -0.060290902509597843 -0.033504948113113643 0.23296580840448994
leaf_weight=130 240 91 74 531 62 109
leaf_count=130 240 91 74 531 62 109
internal_value=0 -0.0273368 -0.00522391 -0.0223152 0.0527424 0.133427
internal_weight=0 997 867 793 262 171
internal_count=1237 997 867 793 262 171
is_linear=0
shrinkage=0.05


Tree=43
num_leaves=7
num_cat=0
split_feature=44 31 46 19 7 43
split_gain=1403.78 1492.62 1306.25 1118.2 1047.81 965.786
threshold=2254.8403917215487 58.78768382352942 2795.2474593244506 2.7537878787878793 16.878676470588239 0.059952156440124547
decision_type=2 2 2 2 2 2
left_child=2 -2 3 -1 5 -5
right_child=1 -3 -4 4 -6 -7
leaf_value=-0.11912376738552538 0.037947510894203638 0.33753575606779623 -0.18832523740475646 0.12674524258408282 -0.1859793341566216 -0.0015963471849372625
leaf_weight=175 192 55 111 216 55 433
leaf_count=175 192 55 111 216 55 433
internal_value=0 0.106682 -0.0265595 -0.00556288 0.0219558 0.0403478
internal_weight=0 247 990 879 704 649
internal_count=1237 247 990 879 704 649
is_linear=0
shrinkage=0.05


Tree=44
num_leaves=7
num_cat=0
split_feature=54 55 29 23 28 26
split_gain=1348.01 1063.53 955.819 909.781 837.552 913.627
threshold=25.132537458463734 2229.4822862191413 19.261385199240991 7.7303427419354849 6.0307765151515165 15.20294117647059
decision_type=2 2 2 2 2 2
left_child=1 -1 4 -2 5 -3
right_child=3 2 -4 -5 -6 -7
leaf_value=-0.15733411467744338 0.18222451699028414 -0.0051750287588220095 0.1648130244526424 -0.03056549467279443 -0.056760395258878549 0.19637088357144361
leaf_weight=131 150 192 76 70 541 77
leaf_count=131 150 192 76 70 541 77
internal_value=0 -0.0242531 -0.004012 0.112246 -0.0204697 0.0506578
internal_weight=0 1017 886 220 810 269
internal_count=1237 1017 886 220 810 269
is_linear=0
shrinkage=0.05


Tree=45
num_leaves=7
num_cat=0
split_feature=20 22 46 10 19 19
split_gain=1239.18 1447.06 1696.48 959.425 898.749 1099.08
threshold=13.148841354723709 55.303030303030312 2795.2474593244506 19.014705882352946 2.7537878787878793 3.8805704099821754
decision_type=2 2 2 2 2 2
left_child=1 3 4 -1 -3 -6
right_child=-2 2 -4 -5 5 -7
leaf_value=0.12619384172357626 0.10911049090629055 -0.14711013121361083 -0.26317590908871757 -0.10283482113986142 0.027923779893071439 -0.17738746197796185
leaf_weight=211 215 132 90 56 457 76
leaf_count=211 215 132 90 56 457 76
internal_value=0 -0.0229516 -0.0587081 0.0762852 -0.0302839 -0.000413283
internal_weight=0 1022 755 267 665 533
internal_count=1237 1022 755 267 665 533
is_linear=0
shrinkage=0.05


Tree=46
num_leaves=7
num_cat=0
split_feature=54 55 29 49 49 19
split_gain=1158.6 939.355 858.38 868.318 1042.37 1077.32
threshold=25.132537458463734 2229.4822862191413 19.261385199240991 0.059718441929780881 0.059722783722263161 2.7537878787878793
decision_type=2 2 2 2 2 2
left_child=1 -1 3 -3 -5 -6
right_child=-2 2 -4 4 5 -7
leaf_value=-0.14759440275179295 0.10402179924220863 -0.10544626981713051 0.15649477527721933 0.12433897106013461 -0.16788217925394958 0.015208417012427861
leaf_weight=131 220 215 76 153 104 338
leaf_count=131 220 215 76 153 104 338
internal_value=0 -0.0225247 -0.00346815 -0.0190943 0.0112682 -0.0267405
internal_weight=0 1017 886 810 595 442
internal_count=1237 1017 886 810 595 442
is_linear=0
shrinkage=0.05


Tree=47
num_leaves=7
num_cat=0
split_feature=48 42 3 38 38 24
split_gain=1140.75 1225.44 1277.58 955.062 1220.13 951.146
threshold=2255.2822853264065 2738.1005696250409 55.409007352941181 2.6715686274509807 3.2857862903225814 19.885620915032685
decision_type=2 2 2 2 2 2
left_child=1 3 -3 -1 5 -5
right_child=-2 2 -4 4 -6 -7
leaf_value=0.11694092797460381 -0.094926338092911816 -0.09267782280842464 0.20323447265217487 -0.0013565686657219321 0.038232816847471096 -0.1768253948708827
leaf_weight=135 252 45 156 148 325 176
leaf_count=135 252 45 156 148 325 176
internal_value=0 0.0242891 0.134498 -0.00332825 -0.0291161 -0.0982162
internal_weight=0 985 201 784 649 324
internal_count=1237 985 201 784 649 324
is_linear=0
shrinkage=0.05


Tree=48
num_leaves=7
num_cat=0
split_feature=25 19 44 45 23 38
split_gain=1102.88 1206.12 1032.75 794.755 1251.98 1189.56
threshold=8.6383442265795214 3.63961038961039 2204.7931526092329 0.059717778604325235 7.1143790849673207 3.8911764705882357
decision_type=2 2 2 2 2 2
left_child=1 -1 -2 4 -4 -5
right_child=2 -3 3 5 -6 -7
leaf_value=0.1743890891965878 -0.20064144227150324 -0.12805920052342118 0.18999654831858273 -0.054287822352978223 -0.033665106542321153 0.16275506494701775
leaf_weight=154 74 40 117 655 128 69
leaf_count=154 74 40 117 655 128 69
internal_value=0 0.109451 -0.0203791 -0.00609697 0.0711039 -0.0329122
internal_weight=0 194 1043 969 245 724
internal_count=1237 194 1043 969 245 724
is_linear=0
shrinkage=0.05


Tree=49
num_leaves=7
num_cat=0
split_feature=20 28 48 38 23 7
split_gain=1036.72 1098.5 1375.29 1011.27 983.628 934.978
threshold=13.148841354723709 6.1311827956989253 2217.7414024985696 3.8911764705882357 8.3457880434782634 13.115966386554623
decision_type=2 2 2 2 2 2
left_child=1 2 -1 -3 5 -4
right_child=-2 3 4 -5 -6 -7
leaf_value=0.2961052812749938 0.099761250408929456 -0.080899013652089347 0.10917952344882198 0.11158489279945692 0.18184342564585118 -0.10537187389599478
leaf_weight=49 215 598 72 75 65 163
leaf_count=49 215 598 72 75 65 163
internal_value=0 -0.0210318 0.0501842 -0.0587054 0.00835044 -0.0375093
internal_weight=0 1022 349 673 300 235
internal_count=1237 1022 349 673 300 235
is_linear=0
shrinkage=0.05


Tree=50
num_leaves=7
num_cat=0
split_feature=42 48 19 19 19 49
split_gain=982.521 869.913 766.45 843.098 835.539 1183.05
threshold=2240.5705614461158 2203.5543506763829 3.8911764705882357 4.1846590909090917 2.7537878787878793 0.059718350683015474
decision_type=2 2 2 2 2 2
left_child=-1 -2 4 -4 -3 -6
right_child=1 2 3 -5 5 -7
leaf_value=-0.24374054416082799 0.16344596557319166 -0.067402398233885871 -0.27205281429133327 0 -0.06467067842089122 0.076370573877690792
leaf_weight=40 84 252 53 63 201 544
leaf_count=40 84 252 53 63 201 544
internal_value=0 0.00817137 -0.00309823 -0.125084 0.0105932 0.0376467
internal_weight=0 1197 1113 116 997 745
internal_count=1237 1197 1113 116 997 745
is_linear=0
shrinkage=0.05


Tree=51
num_leaves=7
num_cat=0
split_feature=48 42 3 32 4 6
split_gain=929.651 1002.13 1142.6 950.513 1129.94 895.851
threshold=2255.2822853264065 2738.1005696250409 55.409007352941181 6.2922201138519931 6.9696691176470598 11.380831643002031
decision_type=2 2 2 2 2 2
left_child=1 5 -3 4 -2 -1
right_child=3 2 -4 -5 -6 -7
leaf_value=-0.043456634001008104 -0.13640237936986163 -0.093073866979943382 0.18669706574903849 -0.19257719702365106 0.14981862631306719 0.068005829024727335
leaf_weight=504 71 45 156 114 67 280
leaf_count=504 71 45 156 114 67 280
internal_value=0 0.0219045 0.121574 -0.0857164 0 -0.00301086
internal_weight=0 985 201 252 138 784
internal_count=1237 985 201 252 138 784
is_linear=0
shrinkage=0.05


Tree=52
num_leaves=7
num_cat=0
split_feature=25 10 6 46 26 49
split_gain=946.904 1392.75 1180.18 1360.42 1071.35 1019.43
threshold=8.6383442265795214 16.77524038461539 11.380831643002031 2741.7243430280555 16.09232954545455 0.059714302884073735
decision_type=2 2 2 2 2 2
left_child=1 -1 -2 4 5 -4
right_child=2 -3 3 -5 -6 -7
leaf_value=0.23192974788323048 -0.063435795044836277 -0.032154898302867378 -0.13566615534946322 -0.12352785080995249 0.33411644566349868 0.1021458041010557
leaf_weight=100 617 94 54 92 41 239
leaf_count=100 617 94 54 92 41 239
internal_value=0 0.101394 -0.0189058 0.0444157 0.0921726 0.0566105
internal_weight=0 194 1043 426 334 293
internal_count=1237 194 1043 426 334 293
is_linear=0
shrinkage=0.05


Tree=53
num_leaves=7
num_cat=0
split_feature=20 22 51 31 29 26
split_gain=857.163 1165.33 1081.81 1091.13 1426.79 1013.94
threshold=13.148841354723709 55.303030303030312 1.5000000000000002 53.265625000000007 19.27698863636364 17.12916666666667
decision_type=2 2 2 2 2 2
left_child=1 -1 -3 -4 5 -5
right_child=-2 2 3 4 -6 -7
leaf_value=0.069845360578892388 0.090687609872845729 -0.20523184075951578 -0.20795720012204066 -0.057322102531325074 0.20102297122011314 0.18482919595343003
leaf_weight=267 215 100 74 460 74 47
leaf_count=267 215 100 74 460 74 47
internal_value=0 -0.0191476 -0.0512815 -0.0270142 -0.00310756 -0.033888
internal_weight=0 1022 755 655 581 507
internal_count=1237 1022 755 655 581 507
is_linear=0
shrinkage=0.05


Tree=54
num_leaves=7
num_cat=0
split_feature=25 10 13 38 42 5
split_gain=853.009 1261.13 775.761 762.16 916.137 1404.01
threshold=8.6383442265795214 16.77524038461539 6.8507130124777191 3.6228448275862073 2662.3230071135163 22.627450980392162
decision_type=2 2 2 2 2 2
left_child=1 2 -1 4 5 -2
right_child=3 -3 -4 -5 -6 -7
leaf_value=0.39537883006036284 -0.12536158308060841 -0.030622431729979655 0.0955600980979701 0.06457004777160108 0.023805291561032733 0.081597408611327416
leaf_weight=40 400 94 60 217 326 100
leaf_count=40 400 94 60 217 326 100
internal_value=0 0.0962384 0.220488 -0.0179412 -0.0402232 -0.0829698
internal_weight=0 194 100 1043 826 500
internal_count=1237 194 100 1043 826 500
is_linear=0
shrinkage=0.05


Tree=55
num_leaves=7
num_cat=0
split_feature=42 19 45 22 5 5
split_gain=764.809 746.049 777.551 946.439 844.686 1103.75
threshold=2240.5705614461158 3.8911764705882357 0.059717689751645896 58.259615384615394 19.560661764705888 20.121323529411768
decision_type=2 2 2 2 2 2
left_child=-1 2 3 -2 -4 -6
right_child=1 -3 4 -5 5 -7
leaf_value=-0.21504131972789767 0.16516823360879471 -0.10825291209996889 -0.062697103815866545 -0.023561019742606229 0.22375674157270364 0.006254575598751518
leaf_weight=40 173 124 346 101 70 383
leaf_count=40 173 124 346 101 70 383
internal_value=0 0.007215 0.0210249 0.0937753 -0.00329753 0.0409679
internal_weight=0 1197 1073 274 799 453
internal_count=1237 1197 1073 274 799 453
is_linear=0
shrinkage=0.05


Tree=56
num_leaves=7
num_cat=0
split_feature=44 18 21 48 28 24
split_gain=720.253 980.49 880.985 828.048 758.478 885.526
threshold=2254.8403917215487 4.530330882352942 24.697768762677487 2249.1984970206254 6.1311827956989253 22.563333333333336
decision_type=2 2 2 2 2 2
left_child=1 -1 -2 -4 -3 -6
right_child=2 4 3 -5 5 -7
leaf_value=0.21303790968214706 -0.07679506006435706 0.0307612364085821 0.22424868639593698 0.0011777814477682115 -0.026626500216360878 -0.16559214761504268
leaf_weight=43 65 325 106 76 464 158
leaf_count=43 65 325 106 76 464 158
internal_value=0 -0.0190507 0.0763894 0.133845 -0.0301171 -0.0627303
internal_weight=0 990 247 182 947 622
internal_count=1237 990 247 182 947 622
is_linear=0
shrinkage=0.05


Tree=57
num_leaves=7
num_cat=0
split_feature=25 10 6 46 6 33
split_gain=746.31 1125.85 1019.84 1150.82 907.454 1300.6
threshold=8.6383442265795214 16.77524038461539 11.380831643002031 2741.7243430280555 12.564583333333335 18.867965367965372
decision_type=2 2 2 2 2 2
left_child=1 -1 -2 4 5 -4
right_child=2 -3 3 -5 -6 -7
leaf_value=0.20752412676811219 -0.058148064415726813 -0.029547999228568791 0.021591789381558535 -0.11214356070951276 -0.0030251006243398062 0.29238614164372928
leaf_weight=100 617 94 93 92 148 93
leaf_count=100 617 94 93 92 148 93
internal_value=0 0.0900768 -0.0167232 0.042101 0.0860845 0.159677
internal_weight=0 194 1043 426 334 186
internal_count=1237 194 1043 426 334 186
is_linear=0
shrinkage=0.05


Tree=58
num_leaves=7
num_cat=0
split_feature=20 7 22 46 38 38
split_gain=675.986 1074.35 1010.59 1161.17 1043.82 894.817
threshold=13.148841354723709 16.878676470588239 55.741727941176478 2795.2474593244506 3.8768939393939399 2.5645833333333337
decision_type=2 2 2 2 2 2
left_child=1 2 -1 4 5 -4
right_child=-2 -3 3 -5 -6 -7
leaf_value=0.076302375431195599 0.080590906059802625 -0.20325153243934946 0.14428848125419375 -0.21295109157700365 0.1676613180596434 -0.060957249982057364
leaf_weight=283 215 72 59 82 71 455
leaf_count=283 215 72 59 82 71 455
internal_value=0 -0.0169482 -0.0023021 -0.0364026 -0.010801 -0.0364252
internal_weight=0 1022 950 667 585 514
internal_count=1237 1022 950 667 585 514
is_linear=0
shrinkage=0.05


Tree=59
num_leaves=7
num_cat=0
split_feature=12 44 30 22 30 5
split_gain=732.576 795.378 859.939 786.677 937.514 793.238
threshold=50.672014260249561 2254.8403917215487 25.250841750841754 54.307291666666679 20.485294117647062 18.368595825426947
decision_type=2 2 2 2 2 2
left_child=-1 3 -3 5 -5 -2
right_child=1 2 -4 4 -6 -7
leaf_value=-0.19576420881178069 -0.033584092026858622 0.043260785073209074 0.30033421196588655 -0.26949013985693454 -0.019452898682874573 0.1908678909988496
leaf_weight=46 66 195 41 40 762 87
leaf_count=46 66 195 41 40 762 87
internal_value=0 0.00758673 0.0900405 -0.0122657 -0.032547 0.0907775
internal_weight=0 1191 236 955 802 153
internal_count=1237 1191 236 955 802 153
is_linear=0
shrinkage=0.05


Tree=60
num_leaves=7
num_cat=0
split_feature=25 10 6 46 38 6
split_gain=653.436 1026.68 893.454 991.7 889.508 959.896
threshold=8.6383442265795214 16.77524038461539 11.380831643002031 2741.7243430280555 3.2769886363636371 8.8200431034482776
decision_type=2 2 2 2 2 2
left_child=1 -1 4 -4 5 -2
right_child=2 -3 3 -5 -6 -7
leaf_value=0.19648711442388594 -0.26181979292555702 -0.029801889645688712 0.080233929480821975 -0.10366191873326898 0.013739905954615876 -0.059857060789953981
leaf_weight=100 79 94 334 92 262 276
leaf_count=100 79 94 334 92 262 276
internal_value=0 0.0842646 -0.0156694 0.0393456 -0.0544643 -0.106209
internal_weight=0 194 1043 426 617 355
internal_count=1237 194 1043 426 617 355
is_linear=0
shrinkage=0.05


Tree=61
num_leaves=7
num_cat=0
split_feature=12 12 48 47 8 48
split_gain=654.211 674.191 906.937 942.068 1135.86 847.607
threshold=50.672014260249561 54.753787878787882 2255.2822853264065 0.059947258222020516 11.530330882352944 2261.2371820960311
decision_type=2 2 2 2 2 2
left_child=-1 -2 3 4 -3 -4
right_child=1 2 5 -5 -6 -7
leaf_value=-0.18503807932138444 0.06882268293975638 0.047621097544143946 -0.21841950501266283 0.03812361320556798 -0.24286628643637653 0
leaf_weight=46 325 58 95 563 73 77
leaf_count=46 325 58 95 563 73 77
internal_value=0 0.00712902 -0.0154466 0.00936078 -0.110437 -0.118448
internal_weight=0 1191 866 694 131 172
internal_count=1237 1191 866 694 131 172
is_linear=0
shrinkage=0.05


Tree=62
num_leaves=7
num_cat=0
split_feature=52 17 6 17 6 45
split_gain=598.128 754.019 1167.19 895.921 781.907 693.359
threshold=-13.999999999999998 9.711226851851853 8.76166328600406 12.146428571428574 7.906158357771262 0.059718359898287637
decision_type=2 2 2 2 2 2
left_child=-1 -2 3 -3 -5 -4
right_child=1 2 5 4 -6 -7
leaf_value=0.18103969825262375 0.18669144914795954 -0.24817945866406649 0.077138465242642992 0.13837021084093468 -0.15334633314142043 -0.018789518853641638
leaf_weight=44 48 87 255 41 51 711
leaf_count=44 48 87 255 41 51 711
internal_value=0 -0.00667808 -0.0152211 -0.132621 -0.0179074 0.00601549
internal_weight=0 1193 1145 179 92 966
internal_count=1237 1193 1145 179 92 966
is_linear=0
shrinkage=0.05


Tree=63
num_leaves=7
num_cat=0
split_feature=12 12 5 48 12 26
split_gain=589.868 609.53 830.854 816.828 847.989 852.313
threshold=50.672014260249561 54.753787878787882 22.757352941176475 2255.2822853264065 55.242647058823536 16.384724857685011
decision_type=2 2 2 2 2 2
left_child=-1 2 -2 4 -3 -6
right_child=1 3 -4 -5 5 -7
leaf_value=-0.17566769294764684 0.030977168797405176 -0.20237513640048832 0.26386926075362643 -0.11239976668513792 0.0030111329572111217 0.18757433442425142
leaf_weight=46 279 44 46 172 579 71
leaf_count=46 279 44 46 172 579 71
internal_value=0 0.00680485 0.0654788 -0.0146375 0.00887135 0.0239403
internal_weight=0 1191 325 866 694 650
internal_count=1237 1191 325 866 694 650
is_linear=0
shrinkage=0.05


Tree=64
num_leaves=7
num_cat=0
split_feature=19 25 10 6 38 43
split_gain=636.891 730.139 1007.94 783.671 1022.18 1192.42
threshold=3.8911764705882357 8.6568627450980404 16.920168067226893 11.380831643002031 3.2769886363636371 0.059953367293253179
decision_type=2 2 2 2 2 2
left_child=1 2 -1 4 -3 -6
right_child=-2 3 -4 -5 5 -7
leaf_value=0.21568817874843568 -0.10465496013657405 -0.099520375648100151 -0.017163300406501956 0.053036755761698889 0.21686452287390379 -0.030119607912686964
leaf_weight=96 130 329 83 353 66 180
leaf_count=96 130 329 83 353 66 180
internal_value=0 0.0123332 0.104925 -0.00498782 -0.0414794 0.0341119
internal_weight=0 1107 179 928 575 246
internal_count=1237 1107 179 928 575 246
is_linear=0
shrinkage=0.05


Tree=65
num_leaves=7
num_cat=0
split_feature=19 26 26 3 23 2
split_gain=574.56 726.21 789.751 666.095 1042.01 1009.29
threshold=3.8911764705882357 13.3969696969697 15.032392894461863 55.461647727272734 7.338541666666667 24.597147950089131
decision_type=2 2 2 2 2 2
left_child=3 -2 -3 4 -1 -5
right_child=1 2 -4 5 -6 -7
leaf_value=0.021037688520684675 0.060067618776892512 -0.33747379414217415 -0.022645946744490754 0.25155630450622712 -0.17008224247590356 0.02022352423326651
leaf_weight=178 43 43 44 51 115 763
leaf_count=178 43 43 44 51 115 763
internal_value=0 -0.0994222 -0.183998 0.0116939 -0.0522688 0.0353316
internal_weight=0 130 87 1107 293 814
internal_count=1237 130 87 1107 293 814
is_linear=0
shrinkage=0.05


Tree=66
num_leaves=7
num_cat=0
split_feature=52 49 6 46 2 38
split_gain=524.767 569.625 806.597 928.234 1068.31 883.256
threshold=-13.999999999999998 0.059717685679136052 11.380831643002031 2741.7243430280555 26.671568627450984 2.6899038461538467
decision_type=2 2 2 2 2 2
left_child=-1 -2 5 4 -4 -3
right_child=1 2 3 -5 -6 -7
leaf_value=0.16961088321087037 -0.065327394066463693 0.089850687860296319 0.20393924276259812 -0.083622655056524969 0 -0.05834253729389155
leaf_weight=44 306 130 154 69 110 424
leaf_count=44 306 130 154 69 110 424
internal_value=0 -0.00621845 0.0136094 0.0754601 0.118933 -0.0226654
internal_weight=0 1193 887 333 264 554
internal_count=1237 1193 887 333 264 554
is_linear=0
shrinkage=0.05


Tree=67
num_leaves=7
num_cat=0
split_feature=18 38 6 39 54 28
split_gain=541.142 824.96 637.903 962.842 963.173 800.979
threshold=4.7464285714285728 3.2769886363636371 8.76166328600406 8.2769886363636385 0.92568272342214197 6.0307765151515165
decision_type=2 2 2 2 2 2
left_child=1 -1 3 4 -2 -4
right_child=2 -3 5 -5 -6 -7
leaf_value=0 0.19026667725208193 0.26722526611841241 0.074700951844710733 -0.20944311770019672 -0.14294741618078807 -0.025138560789321081
leaf_weight=74 43 46 290 93 43 648
leaf_count=74 43 46 290 93 43 648
internal_value=0 0.10093 -0.0108057 -0.0974496 0.0178457 0.00519562
internal_weight=0 120 1117 179 86 938
internal_count=1237 120 1117 179 86 938
is_linear=0
shrinkage=0.05


Tree=68
num_leaves=7
num_cat=0
split_feature=25 10 29 6 6 28
split_gain=513.348 824.431 627.915 756.758 908.805 1352.63
threshold=8.6383442265795214 16.77524038461539 19.261385199240991 11.380831643002031 12.564583333333335 6.0151515151515165
decision_type=2 2 2 2 2 2
left_child=1 -1 3 -2 5 -5
right_child=2 -3 -4 4 -6 -7
leaf_value=0.17536036958266052 -0.066768475345119399 -0.027046813518601533 0.088911719887983062 0.27730783752768356 -0.064630655753930483 0.0042889912071562303
leaf_weight=100 542 94 128 68 157 148
leaf_count=100 542 94 128 68 157 148
internal_value=0 0.0747095 -0.0138668 -0.0287911 0.0250528 0.0925542
internal_weight=0 194 1043 915 373 216
internal_count=1237 194 1043 915 373 216
is_linear=0
shrinkage=0.05


Tree=69
num_leaves=7
num_cat=0
split_feature=19 31 25 10 13 38
split_gain=532.499 698.83 600.149 832.137 658.383 643.029
threshold=3.8911764705882357 55.892789373814047 8.6568627450980404 16.920168067226893 7.014705882352942 3.3284313725490202
decision_type=2 2 2 2 2 2
left_child=2 -2 3 4 -1 -4
right_child=1 -3 5 -5 -6 -7
leaf_value=0.35102577547474612 -0.21392050128197299 0.011390021093415493 -0.036438342179717254 -0.015182890116899128 0.071201562515713954 0.049874275186989225
leaf_weight=41 64 66 589 83 55 339
leaf_count=41 64 66 589 83 55 339
internal_value=0 -0.0956859 0.0112856 0.09524 0.195918 -0.0043694
internal_weight=0 130 1107 179 96 928
internal_count=1237 130 1107 179 96 928
is_linear=0
shrinkage=0.05


Tree=70
num_leaves=7
num_cat=0
split_feature=12 12 34 8 5 47
split_gain=517.036 538.079 750.493 1119.88 1008.96 722.54
threshold=50.672014260249561 54.753787878787882 11.76767676767677 11.288018433179726 18.95627705627706 0.059942366180550259
decision_type=2 2 2 2 2 2
left_child=-1 2 3 -2 -5 -3
right_child=1 5 -4 4 -6 -7
leaf_value=-0.16442157940372179 -0.014636426482699874 -0.17820068340027526 -0.098895355833596321 0.046036662043978091 0.31404446541116787 -0.00039617246484838025
leaf_weight=46 117 62 57 73 78 804
leaf_count=46 117 62 57 73 78 804
internal_value=0 0.00641451 0.0615589 0.0975511 0.187789 -0.0137032
internal_weight=0 1191 325 268 151 866
internal_count=1237 1191 325 268 151 866
is_linear=0
shrinkage=0.05


Tree=71
num_leaves=7
num_cat=0
split_feature=18 38 17 6 17 19
split_gain=493.321 721.318 611.182 1234.42 1270.79 534.634
threshold=4.7464285714285728 3.2769886363636371 9.711226851851853 8.7346041055718491 12.409007352941179 3.8911764705882357
decision_type=2 2 2 2 2 2
left_child=1 -1 -2 4 -4 -5
right_child=2 -3 3 5 -6 -7
leaf_value=0 0.16909295820527606 0.25181559249758723 -0.29315578293103678 0.017343129337915712 0 -0.09906958070517119
leaf_weight=74 45 46 77 811 72 112
leaf_count=74 45 46 77 811 72 112
internal_value=0 0.0963334 -0.0103514 -0.0183505 -0.151954 0.0026755
internal_weight=0 120 1117 1072 149 923
internal_count=1237 120 1117 1072 149 923
is_linear=0
shrinkage=0.05


Tree=72
num_leaves=7
num_cat=0
split_feature=10 6 6 47 10 54
split_gain=473.632 1021.92 894.058 769.595 807.945 639.553
threshold=18.530330882352946 10.753787878787881 12.925579322638148 0.05995729928444031 18.059714795008919 7.3257070682147978
decision_type=2 2 2 2 2 2
left_child=3 -2 -3 4 5 -1
right_child=1 2 -4 -5 -6 -7
leaf_value=-0.10537094944905417 -0.23166882745348494 0.066385208759996775 -0.16748612180095296 0.053135167893234629 0.16202576192603871 0.041884909159674938
leaf_weight=255 65 138 58 579 44 98
leaf_count=255 65 138 58 579 44 98
internal_value=0 -0.0598142 -0.000270593 0.0160139 -0.0368658 -0.0630733
internal_weight=0 261 196 976 397 353
internal_count=1237 261 196 976 397 353
is_linear=0
shrinkage=0.05


Tree=73
num_leaves=7
num_cat=0
split_feature=42 19 19 31 23 35
split_gain=446.205 696.494 1109.11 1238.57 1074.99 718.942
threshold=2729.5044440449287 2.7537878787878793 3.2857862903225814 53.265625000000007 7.7459677419354849 10.171568627450982
decision_type=2 2 2 2 2 2
left_child=1 4 5 -4 -1 -3
right_child=-2 2 3 -5 -6 -7
leaf_value=-0.0064445798610889811 0.05646393478595594 0.23942922720754589 -0.23170480277727951 -0.0073331152459225023 -0.2541533764813923 0.03779696926205979
leaf_weight=123 273 54 77 332 72 306
leaf_count=123 273 54 77 332 72 306
internal_value=0 -0.0159466 0.00483639 -0.0507967 -0.10047 0.0694307
internal_weight=0 964 769 409 195 360
internal_count=1237 964 769 409 195 360
is_linear=0
shrinkage=0.05


Tree=74
num_leaves=7
num_cat=0
split_feature=45 23 4 31 48 26
split_gain=446.681 688.288 662.105 1081.98 938.953 796.47
threshold=0.059717689751645896 7.1143790849673207 7.3053613053613065 52.25833333333334 2249.780591557515 15.910427807486633
decision_type=2 2 2 2 2 2
left_child=1 -1 5 -4 -5 -2
right_child=2 -3 3 4 -6 -7
leaf_value=0.13818978243192334 -0.091357557255919875 -0.0098403314609875839 0.26463419643858838 0.048410545789489626 -0.12356310528110376 0.062870600280686501
leaf_weight=133 385 178 43 285 110 103
leaf_count=133 385 178 43 285 110 103
internal_value=0 0.0518574 -0.0174003 0.0264483 0 -0.0577807
internal_weight=0 311 926 438 395 488
internal_count=1237 311 926 438 395 488
is_linear=0
shrinkage=0.05


Tree=75
num_leaves=7
num_cat=0
split_feature=12 44 31 1 18 22
split_gain=446.863 551.225 785.784 631.404 713.237 595.85
threshold=50.672014260249561 2254.8403917215487 58.78768382352942 138.50000000000003 5.7777217741935489 54.307291666666679
decision_type=2 2 2 2 2 2
left_child=-1 5 3 -3 -5 -2
right_child=1 2 -4 4 -6 -7
leaf_value=-0.1528829802799484 0.079057442562447663 0.1298178363405168 0.24519062756367452 0.053129462971641075 -0.20775693804866427 -0.028225549175973027
leaf_weight=46 153 80 53 58 45 802
leaf_count=46 153 80 53 58 45 802
internal_value=0 0.00593776 0.0746313 0.022502 -0.0559957 -0.0105142
internal_weight=0 1191 236 183 103 955
internal_count=1237 1191 236 183 103 955
is_linear=0
shrinkage=0.05


Tree=76
num_leaves=7
num_cat=0
split_feature=29 25 16 10 34 38
split_gain=431.066 834.159 748.561 764.017 1155.46 700.276
threshold=19.261385199240991 11.681985294117649 13.015151515151517 16.349294354838715 11.317540322580646 3.8805704099821754
decision_type=2 2 2 2 2 2
left_child=1 5 3 -3 -5 -1
right_child=-2 2 -4 4 -6 -7
leaf_value=0.003676274938070176 0.085813057522168612 0.091126097179949295 -0.25146661958911204 0.013112262162295255 -0.25101281441684353 0.21416873740298406
leaf_weight=777 131 71 55 88 73 42
leaf_count=777 131 71 55 88 73 42
internal_value=0 -0.0101078 -0.0837309 -0.0418108 -0.103541 0.0150813
internal_weight=0 1106 287 232 161 819
internal_count=1237 1106 287 232 161 819
is_linear=0
shrinkage=0.05


Tree=77
num_leaves=7
num_cat=0
split_feature=17 6 39 17 25 22
split_gain=438.95 874.712 1186.86 644.57 500.549 627.254
threshold=9.711226851851853 8.7346041055718491 8.2769886363636385 12.146428571428574 11.681985294117649 60.986111111111121
decision_type=2 2 2 2 2 2
left_child=-1 2 3 -2 -3 -6
right_child=1 4 -4 -5 5 -7
leaf_value=0.14522940538823606 -0.12297234615174735 0.036547384212433913 -0.23939156121817759 0.14675969243683715 -0.071386657011841909 0.10375913340048713
leaf_weight=50 41 677 88 47 273 61
leaf_count=50 41 677 88 47 273 61
internal_value=0 -0.00600446 -0.109151 0.0154073 0.0114573 -0.0379019
internal_weight=0 1187 176 88 1011 334
internal_count=1237 1187 176 88 1011 334
is_linear=0
shrinkage=0.05


Tree=78
num_leaves=7
num_cat=0
split_feature=18 38 31 18 31 47
split_gain=427.552 643.955 506.643 819.961 1413.69 836.53
threshold=4.7464285714285728 3.2769886363636371 54.048160173160177 6.4090073529411775 52.296676441837739 0.059962402626539089
decision_type=2 2 2 2 2 2
left_child=1 -1 3 4 5 -2
right_child=2 -3 -4 -5 -6 -7
leaf_value=0 0.29290518327507864 0.236721920222044 0.0095348614177103354 -0.20478739896317638 -0.13186097103294678 -0.0021779124090012085
leaf_weight=74 43 46 835 79 113 47
leaf_count=74 43 46 835 79 113 47
internal_value=0 0.0898066 -0.00951148 -0.0676806 -0.0118607 0.133251
internal_weight=0 120 1117 282 203 90
internal_count=1237 120 1117 282 203 90
is_linear=0
shrinkage=0.05


Tree=79
num_leaves=7
num_cat=0
split_feature=10 6 6 25 25 31
split_gain=411.733 899.32 773.749 533.843 693.582 657.149
threshold=18.530330882352946 10.753787878787881 12.925579322638148 8.6383442265795214 9.3592375366568934 59.134135472370779
decision_type=2 2 2 2 2 2
left_child=3 -2 -3 5 -5 -1
right_child=1 2 -4 4 -6 -7
leaf_value=0.16129211005596919 -0.21687154930371505 0.062178967828335978 -0.1554100992864576 -0.11427666588614767 0.017283693669178399 -0.051473605738525899
leaf_weight=118 65 138 58 117 693 48
leaf_count=118 65 138 58 117 693 48
internal_value=0 -0.0556695 0 0.0150297 -0.00110219 0.0967574
internal_weight=0 261 196 976 810 166
internal_count=1237 261 196 976 810 166
is_linear=0
shrinkage=0.05


Tree=80
num_leaves=7
num_cat=0
split_feature=49 15 3 5 6 3
split_gain=399.243 537.716 662.666 660.864 529.093 773.247
threshold=0.059718350683015474 11.030776515151517 58.206293706293714 19.075757575757581 11.43933823529412 61.196236559139791
decision_type=2 2 2 2 2 2
left_child=1 2 -1 -3 -2 -6
right_child=4 3 -4 -5 5 -7
leaf_value=-0.071657649499877379 -0.010968428442318892 -0.016422957956790923 0.10213137222989195 -0.29719747503598531 0.10164938143664791 -0.10460645946172567
leaf_weight=147 580 50 87 42 279 52
leaf_count=147 580 50 87 42 279 52
internal_value=0 -0.0473978 -0.00490703 -0.150037 0.017079 0.0677361
internal_weight=0 326 234 92 911 331
internal_count=1237 326 234 92 911 331
is_linear=0
shrinkage=0.05


Tree=81
num_leaves=7
num_cat=0
split_feature=18 38 31 4 31 18
split_gain=378.663 579.681 463.342 1012.41 824.304 608.672
threshold=4.7464285714285728 3.2769886363636371 54.048160173160177 7.3151364764268001 52.25833333333334 5.2922201138519931
decision_type=2 2 2 2 2 2
left_child=1 -1 3 -2 -5 -4
right_child=2 -3 5 4 -6 -7
leaf_value=0 -0.14179059546767622 0.22382371784694011 -0.08507378515388285 0.19231792119918045 -0.076840262860059738 0.028845222323543307
leaf_weight=74 171 46 140 54 57 695
leaf_count=74 171 46 140 54 57 695
internal_value=0 0.0844227 -0.0090455 -0.0646841 0.0495971 0.00914623
internal_weight=0 120 1117 282 111 835
internal_count=1237 120 1117 282 111 835
is_linear=0
shrinkage=0.05


Tree=82
num_leaves=7
num_cat=0
split_feature=12 12 8 34 5 51
split_gain=394.275 472.411 642.599 1076.33 814.447 738.566
threshold=50.672014260249561 54.793850806451623 11.288018433179726 11.790998217468807 18.95627705627706 4.5000000000000009
decision_type=2 2 2 2 2 2
left_child=-1 2 5 4 -4 -2
right_child=1 -3 3 -5 -6 -7
leaf_value=-0.14362138940588287 -0.1871167035099674 -0.013466160163494546 0.052821439092880812 -0.099294134679921847 0.29253710838846669 0.057558786461866178
leaf_weight=46 47 861 76 43 78 86
leaf_count=46 47 861 76 43 78 86
internal_value=0 0.00556161 0.056722 0.114531 0.177483 -0.0251461
internal_weight=0 1191 330 197 154 133
internal_count=1237 1191 330 197 154 133
is_linear=0
shrinkage=0.05


Tree=83
num_leaves=7
num_cat=0
split_feature=17 29 26 29 28 36
split_gain=385.717 613.773 609.469 606.698 602.367 689.328
threshold=10.307765151515154 19.261385199240991 14.537053571428574 19.738162878787882 6.0307765151515165 10.270283975659231
decision_type=2 2 2 2 2 2
left_child=2 4 -1 -3 5 -2
right_child=1 3 -4 -5 -6 -7
leaf_value=-0.021551328597172181 -0.086744497545149138 0.25152288795936678 0.21853615719079975 0.0096145350299775608 -0.048969593675553626 0.074852703351402303
leaf_weight=49 87 42 50 80 676 253
leaf_count=49 87 42 50 80 676 253
internal_value=0 -0.00824197 0.0946545 0.0969928 -0.0213706 0.0320322
internal_weight=0 1138 99 122 1016 340
internal_count=1237 1138 99 122 1016 340
is_linear=0
shrinkage=0.05


Tree=84
num_leaves=7
num_cat=0
split_feature=10 19 25 25 5 5
split_gain=381.589 522.097 584.53 654.219 657.896 842.327
threshold=18.530330882352946 3.8911764705882357 8.6568627450980404 9.3592375366568934 22.627450980392162 20.059714795008919
decision_type=2 2 2 2 2 2
left_child=1 2 -1 -4 5 -5
right_child=-2 -3 3 4 -6 -7
leaf_value=0.11525222910568118 -0.053688014071377646 -0.10764695715300646 -0.10932153459385181 0.03908192407058067 0.11903738960438429 -0.10634362058633047
leaf_weight=152 261 79 103 357 147 138
leaf_count=152 261 79 103 357 147 138
internal_value=0 0.0143744 0.0256784 0.00673182 0.0261298 -0.000450854
internal_weight=0 976 897 745 642 495
internal_count=1237 976 897 745 642 495
is_linear=0
shrinkage=0.05


Tree=85
num_leaves=7
num_cat=0
split_feature=45 29 18 28 17 9
split_gain=371.67 633.617 670.06 626.62 600.609 622.159
threshold=0.059718701689904112 19.059714795008919 5.8461174242424248 6.4090073529411775 9.9540719696969706 6.2063894523326582
decision_type=2 2 2 2 2 2
left_child=3 4 -3 -1 -2 -6
right_child=1 2 -4 -5 5 -7
leaf_value=0.12218993829336722 0.14763637319473286 0.19032039095248496 -0.044063286878624743 -0.013333696290414702 -0.11947028990880831 -0.015266185361212138
leaf_weight=148 42 70 49 188 203 537
leaf_count=148 42 70 49 188 203 537
internal_value=0 -0.016744 0.0896078 0.0448731 -0.0335674 -0.0445276
internal_weight=0 901 119 336 782 740
internal_count=1237 901 119 336 782 740
is_linear=0
shrinkage=0.05


Tree=86
num_leaves=7
num_cat=0
split_feature=7 42 38 47 9 42
split_gain=370.528 622.368 769.801 755.877 637.121 621.521
threshold=14.476673427991889 2662.3230071135163 3.3066875653082555 0.059959015019421649 7.2282878411910678 2796.2385933268724
decision_type=2 2 2 2 2 2
left_child=1 2 -1 -3 -4 -2
right_child=5 3 4 -5 -6 -7
leaf_value=-0.052549699295570351 -0.053227257148142429 0 0.0060724347258727385 0.1937947957224927 0.22524747145625779 0.082440137431025518
leaf_weight=303 482 94 102 103 53 100
leaf_count=303 482 94 102 103 53 100
internal_value=0 0.0257679 -0.00516387 0.100219 0.084242 -0.0290576
internal_weight=0 655 458 197 155 582
internal_count=1237 655 458 197 155 582
is_linear=0
shrinkage=0.05


Tree=87
num_leaves=7
num_cat=0
split_feature=49 19 19 30 47 23
split_gain=355.873 489.469 1184.91 818.139 849.814 807.125
threshold=0.059718350683015474 2.7669683257918556 3.2857862903225814 21.363970588235297 0.059952179718467356 7.9848484848484853
decision_type=2 2 2 2 2 2
left_child=-1 5 -3 -4 -5 -2
right_child=1 2 3 4 -6 -7
leaf_value=-0.044825603390695315 0.0091567998665764375 0.1034677781713122 -0.19184859170308036 -0.13862370892117423 0.06016490620128704 -0.19922849199187662
leaf_weight=326 162 343 62 72 209 63
leaf_count=326 162 343 62 72 209 63
internal_value=0 0.0160487 0.0374466 -0.0271168 0.00745039 -0.0469689
internal_weight=0 911 686 343 281 225
internal_count=1237 911 686 343 281 225
is_linear=0
shrinkage=0.05


Tree=88
num_leaves=7
num_cat=0
split_feature=40 8 34 11 45 26
split_gain=371.132 586.048 565.33 857.162 821.358 961.3
threshold=0.36666666666666675 10.952620967741938 8.5968750000000025 22.328431372549023 0.059714901499721522 17.12916666666667
decision_type=2 2 2 2 2 2
left_child=1 -1 3 -2 -4 -6
right_child=2 -3 4 -5 5 -7
leaf_value=0.20118403354925768 0.11961877315559172 0 0.10751733677627068 -0.11841483984334929 -0.03510848084480455 0.186429785416936
leaf_weight=56 44 112 169 213 590 53
leaf_count=56 44 112 169 213 590 53
internal_value=0 0.0690704 -0.0108718 -0.0757165 0.00903597 -0.0160703
internal_weight=0 168 1069 257 812 643
internal_count=1237 168 1069 257 812 643
is_linear=0
shrinkage=0.05


Tree=89
num_leaves=7
num_cat=0
split_feature=46 45 26 26 44 7
split_gain=362.739 773.02 556.688 833.64 784.459 881.539
threshold=2795.2474593244506 0.0597238003924307 14.20638945233266 14.015151515151517 2207.8434023297564 14.946969696969699
decision_type=2 2 2 2 2 2
left_child=2 -2 3 -1 -4 -6
right_child=1 -3 4 -5 5 -7
leaf_value=-0.0031372609056578662 0.049342349278075355 -0.18075275187250936 -0.16173411607742311 -0.20496655565782868 0.11339188708517206 -0.02037132794919767
leaf_weight=483 63 79 41 58 323 190
leaf_count=483 63 79 41 58 323 190
internal_value=0 -0.0751472 0.00979048 -0.0256994 0.0453501 0.0628753
internal_weight=0 142 1095 541 554 513
internal_count=1237 142 1095 541 554 513
is_linear=0
shrinkage=0.05


Tree=90
num_leaves=7
num_cat=0
split_feature=12 44 21 49 7 25
split_gain=358.133 450.596 889.125 736.185 626.601 494.615
threshold=50.672014260249561 2254.8403917215487 24.697768762677487 0.059724845247919864 16.878676470588239 14.05982142857143
decision_type=2 2 2 2 2 2
left_child=-1 4 -3 -4 5 -2
right_child=1 2 3 -5 -6 -7
leaf_value=-0.13691633223839428 0.010465723064484164 -0.088808172852510511 0.025408827761809034 0.2392294194363058 -0.1514777722458045 -0.16327737361885783
leaf_weight=46 840 63 93 80 72 43
leaf_count=46 840 63 93 80 72 43
internal_value=0 0.00526477 0.0674003 0.127176 -0.00956662 0.0014386
internal_weight=0 1191 236 173 955 883
internal_count=1237 1191 236 173 955 883
is_linear=0
shrinkage=0.05


Tree=91
num_leaves=7
num_cat=0
split_feature=23 12 44 46 26 10
split_gain=347.289 1017.12 1013.96 666.842 853.493 834.439
threshold=7.3053613053613065 52.090992647058833 2254.482233010483 2797.2775691371439 16.15165441176471 16.852813852813856
decision_type=2 2 2 2 2 2
left_child=-1 -2 3 4 5 -3
right_child=1 2 -4 -5 -6 -7
leaf_value=0.024729592660583107 -0.23738809587117637 0.027317954144332891 0.15061956620665595 -0.21244473978116807 0.121688122135298 -0.13645422663778448
leaf_weight=660 53 147 85 49 87 156
leaf_count=660 53 147 85 49 87 156
internal_value=0 -0.028376 -0.00628126 -0.0377996 -0.014575 -0.0553502
internal_weight=0 577 524 439 390 303
internal_count=1237 577 524 439 390 303
is_linear=0
shrinkage=0.05


Tree=92
num_leaves=7
num_cat=0
split_feature=40 4 45 22 29 11
split_gain=341.252 659.172 460.952 704.953 568.803 551.214
threshold=0.36666666666666675 6.6407624633431093 0.059717778604325235 58.376890756302529 19.059714795008919 23.671568627450984
decision_type=2 2 2 2 2 2
left_child=1 -1 3 -2 -4 -5
right_child=2 -3 4 5 -6 -7
leaf_value=-0.09361015355045145 0.095746251182429798 0.12697472045979194 -0.049010810557306272 0.072528524558211488 0.079771465233837574 -0.15165322029323722
leaf_weight=44 204 124 659 43 96 67
leaf_count=44 204 124 659 43 96 67
internal_value=0 0.0662263 -0.0104302 0.0397777 -0.0319736 -0.0594731
internal_weight=0 168 1069 314 755 110
internal_count=1237 168 1069 314 755 110
is_linear=0
shrinkage=0.05


Tree=93
num_leaves=7
num_cat=0
split_feature=2 2 23 31 23 6
split_gain=337.274 922.244 484.857 826.388 869.479 752.233
threshold=30.622678396871947 29.6867201426025 7.3053613053613065 55.746434937611419 7.6030303030303044 11.681985294117649
decision_type=2 2 2 2 2 2
left_child=1 2 -1 -4 -5 -6
right_child=-2 -3 3 4 5 -7
leaf_value=0.033538273837057292 0.12721068283915521 -0.23013468364422973 -0.11381880656326525 -0.17328304341610742 0.0043708438890231816 0.20277649058797764
leaf_weight=613 50 44 195 51 221 63
leaf_count=613 50 44 195 51 221 63
internal_value=0 -0.00535652 0.00285891 -0.0316816 0.0146371 0.0501439
internal_weight=0 1187 1143 530 335 284
internal_count=1237 1187 1143 530 335 284
is_linear=0
shrinkage=0.05


Tree=94
num_leaves=7
num_cat=0
split_feature=35 33 47 6 6 51
split_gain=336.208 579.273 477.534 546.768 646.719 575.73
threshold=14.790998217468807 24.363970588235297 0.059939887043265007 8.7346041055718491 9.1471861471861491 5.5000000000000009
decision_type=2 2 2 2 2 2
left_child=1 2 -1 5 -5 -4
right_child=-2 -3 3 4 -6 -7
leaf_value=-0.15246562522649765 -0.13413737714290619 0.19221907793544235 -0.16471143723256218 0.16104140310696829 0.0078810209769616339 0.014468428591427244
leaf_weight=50 45 40 89 76 856 81
leaf_count=50 45 40 89 76 856 81
internal_value=0 0.00508675 -0.000976871 0.00544276 0.020907 -0.0763963
internal_weight=0 1192 1152 1102 932 170
internal_count=1237 1192 1152 1102 932 170
is_linear=0
shrinkage=0.05


Tree=95
num_leaves=7
num_cat=0
split_feature=7 33 39 3 42 22
split_gain=323.547 843.033 862.242 810.357 734.111 702.362
threshold=14.209001782531196 18.867965367965372 11.716517857142859 62.181985294117659 2799.6516850584371 54.426406926406933
decision_type=2 2 2 2 2 2
left_child=5 2 -2 4 -3 -1
right_child=1 3 -4 -5 -6 -7
leaf_value=0.14240262335752724 -0.04483334912973292 0.015405460785529235 -0.28122228923833598 -0.1502745234557698 0.22532676187705022 0
leaf_weight=108 170 328 53 62 49 467
leaf_count=108 170 328 53 62 49 467
internal_value=0 -0.0237907 -0.103258 0.0154373 0.0440159 0.0274788
internal_weight=0 662 223 439 377 575
internal_count=1237 662 223 439 377 575
is_linear=0
shrinkage=0.05


Tree=96
num_leaves=7
num_cat=0
split_feature=10 6 6 47 3 24
split_gain=325.176 719.993 650.908 577.582 711.33 883.926
threshold=18.530330882352946 10.753787878787881 13.061553030303033 0.05995729928444031 54.947957839262195 18.203448275862073
decision_type=2 2 2 2 2 2
left_child=3 -2 -3 -1 5 -5
right_child=1 2 -4 4 -6 -7
leaf_value=-0.032407174814933493 -0.19374618471815036 0.055931711074497015 -0.14573092581039029 0.10443074188449167 0.078005554223827989 -0.14710105549544097
leaf_weight=397 65 140 56 55 434 90
leaf_count=397 65 140 56 55 434 90
internal_value=0 -0.0495172 0 0.0133129 0.0455251 -0.0482442
internal_weight=0 261 196 976 579 145
internal_count=1237 261 196 976 579 145
is_linear=0
shrinkage=0.05


Tree=97
num_leaves=7
num_cat=0
split_feature=17 6 39 42 6 26
split_gain=313.533 640.404 990.642 772.626 425.865 576.352
threshold=9.711226851851853 8.76166328600406 8.2769886363636385 2554.8209642375045 9.2752100840336151 14.537053571428574
decision_type=2 2 2 2 2 2
left_child=-1 2 3 -2 5 -3
right_child=1 4 -4 -5 -6 -7
leaf_value=0.1226829061359167 0.17900537176187648 0 -0.20764741231889827 -0.11245222575169929 -0.00086753615490692173 0.2283129187822342
leaf_weight=50 43 61 92 47 894 50
leaf_count=50 43 61 92 47 894 50
internal_value=0 -0.00513332 -0.091712 0.0212442 0.0100481 0.102468
internal_weight=0 1187 182 90 1005 111
internal_count=1237 1187 182 90 1005 111
is_linear=0
shrinkage=0.05


Tree=98
num_leaves=7
num_cat=0
split_feature=18 1 25 16 48 21
split_gain=313.585 508.125 401.705 714.843 570.951 512.7
threshold=4.7464285714285728 138.50000000000003 11.681985294117649 13.015151515151517 2236.3661356062048 26.514705882352946
decision_type=2 2 2 2 2 2
left_child=1 -1 -2 4 -4 -6
right_child=2 -3 3 -5 5 -7
leaf_value=0.1609539948110405 0.01041602538908336 -0.043176339424036925 0.10860949232314641 -0.20882442889194333 -0.13588802208688772 0.022044657187329397
leaf_weight=73 793 47 65 62 107 90
leaf_count=73 793 47 65 62 107 90
internal_value=0 0.0768363 -0.00822166 -0.0553812 -0.0171618 -0.061198
internal_weight=0 120 1117 324 262 197
internal_count=1237 120 1117 324 262 197
is_linear=0
shrinkage=0.05


Tree=99
num_leaves=7
num_cat=0
split_feature=2 3 19 23 21 19
split_gain=308.204 827.868 443.012 763.435 728.714 704.104
threshold=30.622678396871947 62.671568627450988 2.7537878787878793 6.886752136752138 25.368518518518524 2.8851648351648356
decision_type=2 2 2 2 2 2
left_child=1 2 3 4 -1 -4
right_child=-2 -3 5 -5 -6 -7
leaf_value=-0.096125986069440839 0.12165128638595342 -0.22059918115738522 0.13728471129881134 -0.12813372723233968 0.15560620090109298 0.002324557396178917
leaf_weight=50 50 43 112 151 64 767
leaf_count=50 50 43 112 151 64 767
internal_value=0 -0.00507383 0.00259015 -0.0535687 0.0408114 0.0200897
internal_weight=0 1187 1144 265 114 879
internal_count=1237 1187 1144 265 114 879
is_linear=0
shrinkage=0.05


end of trees

feature_importances:
qual_point_diff=69
T1_quality_points=33
T1_OR=29
T1_quality=25
T2_quality_points=24
T1_opponent_Blk=22
T1_PF=20
T2_opponent_Blk=20
qual_diff=20
T2_OR=19
T2_Ast=17
T2_FGA=16
T1_FGA3=15
T2_PF=15
T1_opponent_FGA=14
T2_opponent_FGA=14
T2_PointDiff=14
T2_quality_vol=13
T1_opponent_Stl=12
T2_FGM3=12
T2_quality=12
T1_FGA=11
T2_FGM=11
T1_FGM3=10
T2_FGA3=10
T2_Stl=10
T1_opponent_TO=9
T1_quality_points_vol=9
T2_quality_points_vol=9
Seed_diff=9
avg_qual_point=8
T1_Ast=7
T1_PointDiff=6
T1_FGM=5
T1_opponent_Ast=5
T2_opponent_FGM=5
T2_opponent_OR=5
T2_opponent_Ast=5
T1_TO=4
DayNum=3
T1_opponent_FGM=3
T2_opponent_FGA3=3
T1_win_ratio_14d=3
T2_seed=3
T1_Stl=2
T1_opponent_FGM3=2
T1_quality_vol=2
avg_qual=2
T1_opponent_FGA3=1
T1_opponent_OR=1
T2_opponent_FGM3=1
T2_opponent_TO=1

parameters:
[boosting: gbdt]
[objective: regression]
[metric: l1]
[tree_learner: serial]
[device_type: cpu]
[data_sample_strategy: bagging]
[data: ]
[valid: ]
[num_iterations: 3000]
[learning_rate: 0.05]
[num_leaves: 7]
[num_threads: 0]
[seed: 0]
[deterministic: 0]
[force_col_wise: 0]
[force_row_wise: 0]
[histogram_pool_size: -1]
[max_depth: -1]
[min_data_in_leaf: 40]
[min_sum_hessian_in_leaf: 0.001]
[bagging_fraction: 0.35]
[pos_bagging_fraction: 1]
[neg_bagging_fraction: 1]
[bagging_freq: 0]
[bagging_seed: 3]
[feature_fraction: 0.7]
[feature_fraction_bynode: 1]
[feature_fraction_seed: 2]
[extra_trees: 0]
[extra_seed: 6]
[early_stopping_round: 0]
[early_stopping_min_delta: 0]
[first_metric_only: 0]
[max_delta_step: 0]
[lambda_l1: 10]
[lambda_l2: 0]
[linear_lambda: 0]
[min_gain_to_split: 0]
[drop_rate: 0.1]
[max_drop: 50]
[skip_drop: 0.5]
[xgboost_dart_mode: 0]
[uniform_drop: 0]
[drop_seed: 4]
[top_rate: 0.2]
[other_rate: 0.1]
[min_data_per_group: 100]
[max_cat_threshold: 32]
[cat_l2: 10]
[cat_smooth: 10]
[max_cat_to_onehot: 4]
[top_k: 20]
[monotone_constraints: ]
[monotone_constraints_method: basic]
[monotone_penalty: 0]
[feature_contri: ]
[forcedsplits_filename: ]
[refit_decay_rate: 0.9]
[cegb_tradeoff: 1]
[cegb_penalty_split: 0]
[cegb_penalty_feature_lazy: ]
[cegb_penalty_feature_coupled: ]
[path_smooth: 0]
[interaction_constraints: ]
[verbosity: -1]
[saved_feature_importance_type: 0]
[use_quantized_grad: 0]
[num_grad_quant_bins: 4]
[quant_train_renew_leaf: 0]
[stochastic_rounding: 1]
[linear_tree: 0]
[max_bin: 255]
[max_bin_by_feature: ]
[min_data_in_bin: 3]
[bin_construct_sample_cnt: 200000]
[data_random_seed: 1]
[is_enable_sparse: 1]
[enable_bundle: 1]
[use_missing: 1]
[zero_as_missing: 0]
[feature_pre_filter: 1]
[pre_partition: 0]
[two_round: 0]
[header: 0]
[label_column: ]
[weight_column: ]
[group_column: ]
[ignore_column: ]
[categorical_feature: ]
[forcedbins_filename: ]
[precise_float_parser: 0]
[parser_config_file: ]
[objective_seed: 5]
[num_class: 1]
[is_unbalance: 0]
[scale_pos_weight: 1]
[sigmoid: 1]
[boost_from_average: 1]
[reg_sqrt: 0]
[alpha: 0.9]
[fair_c: 1]
[poisson_max_delta_step: 0.7]
[tweedie_variance_power: 1.5]
[lambdarank_truncation_level: 30]
[lambdarank_norm: 1]
[label_gain: ]
[lambdarank_position_bias_regularization: 0]
[eval_at: ]
[multi_error_top_k: 1]
[auc_mu_weights: ]
[num_machines: 1]
[local_listen_port: 12400]
[time_out: 120]
[machine_list_filename: ]
[machines: ]
[gpu_platform_id: -1]
[gpu_device_id: -1]
[gpu_use_dp: 0]
[num_gpu: 1]

end of parameters

pandas_categorical:[]
