tree
version=v4
num_class=1
num_tree_per_iteration=1
label_index=0
max_feature_idx=47
objective=regression
feature_names=DayNum T1_FGMmean T1_FGAmean T1_FGM3mean T1_FGA3mean T1_ORmean T1_Astmean T1_TOmean T1_Stlmean T1_PFmean T1_opponent_FGMmean T1_opponent_FGAmean T1_opponent_FGM3mean T1_opponent_FGA3mean T1_opponent_ORmean T1_opponent_Astmean T1_opponent_TOmean T1_opponent_Stlmean T1_opponent_Blkmean T1_PointDiffmean T2_FGMmean T2_FGAmean T2_FGM3mean T2_FGA3mean T2_ORmean T2_Astmean T2_TOmean T2_Stlmean T2_PFmean T2_opponent_FGMmean T2_opponent_FGAmean T2_opponent_FGM3mean T2_opponent_FGA3mean T2_opponent_ORmean T2_opponent_Astmean T2_opponent_TOmean T2_opponent_Stlmean T2_opponent_Blkmean T2_PointDiffmean T1_win_ratio_14d T2_win_ratio_14d T1_quality T2_quality T1_seed T2_seed Seed_diff qual_diff avg_qual
feature_infos=[136:155] [19.65625:35.060606060606062] [48.833333333333336:76.040000000000006] [1.1612903225806452:12.060606060606061] [4.806451612903226:34.96153846153846] [5.9000000000000004:19.733333333333334] [9.5666666666666664:23.34375] [9.1875:21.366666666666667] [3.903225806451613:13.903225806451612] [9.5161290322580641:23.766666666666666] [15.5:30.148148148148149] [46.896551724137929:70.71875] [1.8125:8.32258064516129] [8.625:26.258064516129032] [5.2272727272727275:16.96551724137931] [7.71875:19.34375] [8.5882352941176467:27.733333333333334] [4.125:10.379310344827585] [1.0800000000000001:5.15625] [-5.59375:42.060606060606062] [19.65625:35.060606060606062] [50.15625:76.040000000000006] [1.1612903225806452:11.903225806451612] [4.806451612903226:34.96153846153846] [5.6333333333333337:19.733333333333334] [9.5666666666666664:23.34375] [9.1875:21.366666666666667] [3.5806451612903225:13.903225806451612] [10.870967741935484:23.766666666666666] [15.5:30.148148148148149] [46.896551724137929:70.71875] [1.8125:8.3548387096774199] [8.625:28.677419354838708] [5.2272727272727275:16.96551724137931] [7.71875:19.34375] [8.5882352941176467:27.733333333333334] [4.125:10.379310344827585] [1.0800000000000001:5.15625] [-5.59375:42.060606060606062] [0:1] [0:1] [2157.1829951269478:2347.1993482602406] [2157.1829951269478:2347.1993482602406] [1:16] [1:16] [-15:15] [-170.67108679997136:170.67108679997136] [2186.5111616098638:2328.6989013503089]
tree_sizes=2652 2658 2659 2668 2669 2672 2675 2678 2677 2675 2676 2676 2687 2672 2681 2689 2688 2693 2699 2683 2711 2694 2701 2696 2691 2696 2699 2685 2684 2705 2693 2710 2708 2690 2708 2692 2699 2701 2694 2713 2691 2689 2698 2719 2698 2706 2702 2704 2696 2696

Tree=0
num_leaves=31
num_cat=0
split_feature=43 44 42 44 41 41 41 19 41 42 38 38 42 42 42 10 42 47 26 6 29 38 29 19 19 24 14 17 16 42
split_gain=151005 75021.4 50000.2 26555 16370 14834.9 10245.4 9444.54 9171.44 5902.13 5714.86 4858.25 4219.35 2945.49 2539.79 2488.54 2452.64 2967.42 1875.07 1743.96 1674.05 1579.08 1574.18 2083.22 1532.57 1521.2 1479.77 1387.33 1320.02 1267
threshold=7.5000000000000009 13.500000000000002 2273.5047181457685 3.5000000000000004 2288.7360250406641 2220.1029275868109 2294.6762983571866 24.621323529411768 2234.0669100225155 2260.406134934005 24.384581105169342 25.251008064516132 2303.72077430933 2249.647587251306 2202.3014917057417 19.484375000000004 2232.1481661631192 2261.8764146975559 14.515640273704792 14.19052419354839 20.590322580645168 19.441558441558445 20.383203559510573 11.724759615384617 15.984375000000002 11.557526881720433 10.310096153846155 6.8598039215686279 16.635080645161292 2256.6056593762428
decision_type=2 2 2 2 2 2 2 2 2 2 2 2 2 2 2 2 2 2 2 2 2 2 2 2 2 2 2 2 2 2
left_child=1 3 8 6 9 10 11 14 19 16 -4 18 25 -10 -3 -6 26 -18 -1 -2 -15 -8 -11 -24 -16 -7 -5 -22 -20 -17
right_child=2 7 5 4 15 12 21 -9 13 22 -12 -13 -14 20 24 29 17 -19 28 -21 27 -23 23 -25 -26 -27 -28 -29 -30 -31
leaf_value=-0.24117192808658106 -0.75043479127499935 1.9017297261648061 -1.3919823969257648 1.2421842625883444 1.6721842665619873 -0.22672880395432243 0.80235665767792153 2.6471842427201295 0.42818423600467292 0.54968424142869554 -2.3048990906132043 -0.71334206339666062 -1.3828157302590984 0.29874673278602204 1.1371842544139932 1.3351152974821696 0.40658273131221523 0.88439355063653424 0.3953323785058328 -0.3070710820510888 -0.29896960133227091 0.30012540995784143 -0.2821261025870343 0.25675870378795151 1.6159342625883446 -0.71654123426942973 0.72160284436795752 0.059684234914759382 -0.079378257528223195 0.90328180539180647
leaf_weight=73 42 33 60 20 24 23 29 24 50 20 24 38 20 32 35 29 133 43 27 47 52 34 29 47 32 51 43 56 32 41
leaf_count=73 42 33 60 20 24 23 29 24 50 20 24 38 20 32 35 29 133 43 27 47 52 34 29 47 32 51 43 56 32 41
internal_value=0.207562 0.627782 -0.515179 0.416369 0.649748 -1.16995 -0.0133308 1.75646 -0.0974394 0.486139 -1.65282 -0.215169 -0.738454 0.0987632 1.54268 1.23282 0.619151 0.523321 -0.0717552 -0.516299 -0.0188872 0.531311 0.154997 0.0511316 1.36584 -0.564302 0.886867 -0.113001 0.137862 1.08218
internal_weight=0 786 457 662 429 178 233 124 279 335 84 170 94 190 100 94 239 176 132 89 140 63 96 76 67 74 63 108 59 70
internal_count=1243 786 457 662 429 178 233 124 279 335 84 170 94 190 100 94 239 176 132 89 140 63 96 76 67 74 63 108 59 70
is_linear=0
shrinkage=1


Tree=1
num_leaves=31
num_cat=0
split_feature=46 46 46 46 46 46 46 46 46 27 32 10 36 21 3 29 6 38 32 34 12 27 22 20 37 46 35 29 1 32
split_gain=210204 58487.2 55317.8 12963.1 10774.3 8596.33 4578.95 4114.66 2078.74 1740.87 1586.96 1549.33 1545.73 1302.38 1288.9 1192.69 1175.78 1285.18 1155.82 1111.83 1079.5 1038.07 1181.2 972.575 1015.51 967.249 1612.22 949.3 936.301 912.516
threshold=1.0000000180025095e-35 -44.208551458825006 52.136819302621014 -78.836378085104101 101.2464668653936 20.72852854935218 -119.57916270983991 -17.251758678921302 71.107605060755319 8.8284313725490211 21.548589341692793 20.481554677206855 8.2165178571428594 58.711981566820285 5.4565756823821348 20.968245967741939 13.965476190476192 16.877791563275437 19.803225806451618 12.577450980392159 6.3810483870967749 7.4625000000000012 5.7680491551459303 28.593352883675468 3.3385416666666674 28.869282504469997 17.874877810361685 20.590322580645168 27.428787878787883 16.03398617511521
decision_type=2 2 2 2 2 2 2 2 2 2 2 2 2 2 2 2 2 2 2 2 2 2 2 2 2 2 2 2 2 2
left_child=1 3 5 6 8 10 -1 13 21 14 12 -10 29 -3 -7 -8 -5 -18 19 23 27 -4 -23 24 -15 -11 -27 -9 -16 -2
right_child=2 7 4 16 -6 9 15 20 11 25 -12 -13 -14 18 28 -17 17 -19 -20 -21 -22 22 -24 -25 -26 26 -28 -29 -30 -31
leaf_value=-2.5568196773529053 0.29141088370765961 -0.20346902125590557 1.334156221151352 -1.2405772408572111 2.2585392624139788 0.89219348857987613 -1.8962780677355253 0.0059562739802569882 1.7532673080762227 0.2300619431031056 -0.27308433294296264 1.2496697811853319 0.58964368755167185 -0.58579942596995316 0.32770672142505647 -1.4074841856956484 -0.65294457662564065 -1.0963373044675047 -0.31497172079187763 -0.94689230442047112 0.14666886258125306 1.1408500075340271 0.62737006094484105 -0.74279529422521595 -0.21187974135080975 0.23534577215711275 0.76741466896874577 -0.2689890550588494 0.69403178838064095 0.065276183406027352
leaf_weight=20 70 37 20 55 32 53 26 41 24 39 20 42 22 46 26 24 26 44 47 20 25 24 21 40 30 24 35 134 53 123
leaf_count=20 70 37 20 55 32 53 26 41 24 39 20 42 22 46 26 24 26 44 47 20 25 24 21 40 30 24 35 134 53 123
internal_value=0 -0.657049 0.643447 -1.37265 1.43605 0.36561 -1.91742 -0.324806 1.23514 0.582915 0.152929 1.4328 0.192558 -0.474022 0.701442 -1.66166 -1.06758 -0.931649 -0.528724 -0.602594 -0.160668 1.03444 0.901226 -0.543233 -0.4382 0.423268 0.55098 -0.204573 0.573469 0.147294
internal_weight=0 615 628 195 163 465 70 420 131 230 235 66 215 220 132 50 125 70 183 136 200 65 45 116 76 98 59 175 79 193
internal_count=1243 615 628 195 163 465 70 420 131 230 235 66 215 220 132 50 125 70 183 136 200 65 45 116 76 98 59 175 79 193
is_linear=0
shrinkage=0.05


Tree=2
num_leaves=31
num_cat=0
split_feature=46 46 46 46 46 46 46 46 46 8 10 46 36 29 46 21 29 2 42 26 24 5 13 21 36 31 8 11 22 15
split_gain=189709 52784.7 49924.3 11699.2 9723.76 7803.51 4132.5 3766.79 1876.06 1416.65 1398.27 1392.61 1384.1 1300.36 1407.18 1482.88 1076.4 1043.41 1114.45 1772.46 988.037 971.19 949.053 929.971 1247.48 1209.09 921.826 1191.96 1074.88 899.545
threshold=1.0000000180025095e-35 -44.208551458825006 52.136819302621014 -78.836378085104101 101.2464668653936 16.496678486325894 -119.57916270983991 -20.687674179487654 71.107605060755319 7.4408045977011499 20.481554677206855 28.869282504469997 6.1492869875222826 20.532291666666669 -9.3782066953340273 63.386458333333344 20.968245967741939 60.076811594202908 2250.6966942285458 13.650705645161292 12.790322580645162 11.64076246334311 17.285786290322584 60.579796264855695 7.338541666666667 5.3279569892473129 7.6373954599761058 57.963624338624349 5.9692234848484853 12.787176724137932
decision_type=2 2 2 2 2 2 2 2 2 2 2 2 2 2 2 2 2 2 2 2 2 2 2 2 2 2 2 2 2 2
left_child=1 3 5 6 8 23 -1 26 20 -5 -10 17 -11 22 15 -15 -8 -7 19 -19 -4 -16 -9 25 29 -2 -3 28 -28 -25
right_child=2 7 4 9 -6 11 16 13 10 12 -12 -13 -14 14 21 -17 -18 18 -20 -21 -22 -23 -24 24 -26 -27 27 -29 -30 -31
leaf_value=-2.4289786958694459 0.1462937976936905 -0.62373130041010239 1.1746767549803765 -1.2737877910201616 2.145612242817879 0.13020983918987472 -1.8014641486681424 -0.14016820808936811 1.6656038840611775 -1.2031072704880328 1.1871862712360564 0.61921041004720234 -0.77312701425102892 -0.25328306555747987 0.12852474960588642 -0.70452509546279918 -1.3371100008487702 0.60440687252127612 0.66125223331508187 -0.0309398284980229 0.78475147681310775 -0.21516790951861711 0.29533352824774656 -0.039040713331529073 0.43925889311610045 -0.23236699273457401 -0.4534103566408158 -0.60952261744475944 -0.076815325849586058 0.33999987866567527
leaf_weight=20 49 68 33 37 32 29 26 29 24 27 42 155 61 67 31 25 24 23 42 21 32 61 22 49 37 37 40 41 36 23
leaf_count=20 49 68 33 37 32 29 26 29 24 27 42 155 61 67 31 25 24 23 42 21 32 61 22 49 37 37 40 41 36 23
internal_value=0 -0.624196 0.611275 -1.30402 1.36425 0.34733 -1.82155 -0.308566 1.17338 -1.0142 1.36116 0.5214 -0.905053 -0.175709 -0.237631 -0.375903 -1.57857 0.389568 0.477026 0.301173 0.982714 -0.0993584 0.0476953 0.10631 0.203299 -0.0166184 -0.477329 -0.392241 -0.275023 0.0820417
internal_weight=0 615 628 195 163 465 70 420 131 125 66 270 88 235 184 92 50 115 86 44 65 92 51 195 109 86 185 117 76 72
internal_count=1243 615 628 195 163 465 70 420 131 125 66 270 88 235 184 92 50 115 86 44 65 92 51 195 109 86 185 117 76 72
is_linear=0
shrinkage=0.05


Tree=3
num_leaves=31
num_cat=0
split_feature=45 41 45 19 42 38 19 45 42 41 42 41 42 41 38 42 47 41 28 44 27 17 14 1 6 41 40 18 41 43
split_gain=157343 39410.6 36457.2 9552.09 8182.14 7151.93 6496.5 5967.4 3544 3213.38 2899.44 2710.37 2338.6 2088.73 2467.32 1847.53 2354.52 1823.03 1818.31 1817.47 1611.52 1352.43 1288.01 1285.8 1278.43 1112.69 1410.78 1021.23 957.25 1651.75
threshold=-1.0000000180025095e-35 2218.5924964064848 -10.499999999999998 19.349294354838715 2314.7390144262276 24.384581105169342 24.621323529411768 5.5000000000000009 2257.3559853588436 2270.7044428927115 2270.7044428927115 2328.0907040671104 2273.5047181457685 2294.6762983571866 16.523200757575761 2232.1481661631192 2261.8764146975559 2275.9566894095933 18.66081593927894 3.5000000000000004 8.6228448275862082 6.6507056451612909 10.33854166666667 26.016129032258068 13.850446428571431 2250.3630530807372 0.29166666666666669 3.4833147942157958 2258.5132336194961 3.5000000000000004
decision_type=2 2 2 2 2 2 2 2 2 2 2 2 2 2 2 2 2 2 2 2 2 2 2 2 2 2 2 2 2 2
left_child=2 5 6 8 7 12 17 13 15 -6 24 19 -2 14 18 22 28 -1 25 -5 21 -10 -4 -12 -9 -3 -27 -28 -17 -30
right_child=1 4 3 11 9 -7 -8 10 20 -11 23 -13 -14 -15 -16 16 -18 -19 -20 -21 -22 -23 -24 -25 -26 26 27 -29 29 -31
leaf_value=0.82617297232151032 -0.86273575680596493 -0.31827879159510891 0.91093802452087402 0.29662174129486085 -1.4273412839226101 -2.1536491433779399 2.0530201473236085 -0.65644154406729205 0.47984664177894598 -0.56076523065567019 -0.89755343265003629 1.2900690396626793 -1.3837389349937439 0.25145969335706186 -0.448719653541722 0.034528164881265776 0.63694743804029519 1.2900897223088477 0.3048830503767187 0.79518564193345176 -0.17247179217104402 -0.021980966524831183 0.42940765886408533 -0.50140109242814956 -0.19785111700607971 0.30770384788513189 -0.05021502018447907 -0.42790200614929202 -0.10150870844012215 0.40018309728304546
leaf_weight=30 35 79 21 25 23 24 25 21 25 20 54 21 56 26 82 59 37 72 22 68 56 29 41 33 55 20 63 25 21 75
leaf_count=30 35 79 21 25 23 24 25 21 25 20 54 21 56 26 82 59 37 72 22 68 56 29 41 33 55 20 63 25 21 75
internal_value=0 -0.547804 0.577684 0.377618 -0.36353 -1.38585 1.33069 -0.304337 0.252533 -1.02428 -0.550191 0.777014 -1.18335 -0.17792 -0.216284 0.355203 0.278574 1.15364 -0.125089 0.661163 0.0154573 0.210347 0.592507 -0.747289 -0.324567 -0.175674 -0.0713613 -0.157512 0.193027 0.290438
internal_weight=0 638 605 478 523 115 127 480 364 43 163 114 91 317 291 254 192 102 209 93 110 54 62 87 76 187 108 88 155 96
internal_count=1243 638 605 478 523 115 127 480 364 43 163 114 91 317 291 254 192 102 209 93 110 54 62 87 76 187 108 88 155 96
is_linear=0
shrinkage=0.05


Tree=4
num_leaves=31
num_cat=0
split_feature=46 46 46 46 46 46 46 46 29 27 46 32 46 10 36 29 46 21 8 46 1 4 33 21 36 13 4 18 27 35
split_gain=155112 43276.2 40868.4 7805.57 7719.12 6852.42 5049.46 2676.32 1793.29 1755.83 1426.99 1385.77 1351.49 1858.42 1340.86 1178.55 1189.28 1332.6 1045.89 1002.91 989.604 1012.73 866.064 852.852 1075.02 825.654 818.916 815.181 797.57 1319.21
threshold=1.0000000180025095e-35 -52.494905637389131 58.687539969140978 20.72852854935218 -119.57916270983991 117.8238625669385 -20.687674179487654 -74.048856374833335 20.067816091954025 8.8284313725490211 -44.208551458825006 21.548589341692793 76.511906596261056 20.481554677206855 8.2165178571428594 20.532291666666669 -9.3782066953340273 63.386458333333344 7.4408045977011499 40.658154682732864 27.412121212121217 18.196774193548389 12.246212121212123 59.693750000000009 7.0615530303030312 17.285786290322584 17.951075268817206 3.5968750000000003 10.403125000000001 17.123106060606066
decision_type=2 2 2 2 2 2 2 2 2 2 2 2 2 2 2 2 2 2 2 2 2 2 2 2 2 2 2 2 2 2
left_child=1 4 3 11 -1 12 10 8 -6 20 -3 14 -4 -14 28 25 17 -17 -9 23 21 -5 -18 -11 -25 -8 27 -12 29 -2
right_child=2 6 5 9 7 -7 15 18 -10 19 26 -13 13 -15 -16 16 22 -19 -20 -21 -22 -23 -24 24 -26 -27 -28 -29 -30 -31
leaf_value=-2.2036967849731446 0.072131415955517281 -0.76104415179230278 0.98662761541930122 0.65108514949679375 -1.76233704884847 2.1685951232910159 -0.12139339755321372 -1.2221115892583674 -1.2007512076334521 0.077610333311942323 -0.24318162403468577 -0.2672952872514725 1.6294534615107947 1.0829413962364196 0.53766637119379912 -0.22867772032075853 0.02952699791966823 -0.65644342899322516 -0.8057883663723866 0.62530580553515203 0.73248928655879675 0.19516095011716797 -0.28645881158964975 0.19538335669040682 0.68064775736559013 0.28481034338474276 -0.53408710655021041 -0.60513631150126468 -0.10231613283976913 0.37820470510767057
leaf_weight=20 109 40 55 29 21 20 29 22 44 31 70 20 28 35 22 67 57 25 48 29 99 21 35 25 21 22 95 20 32 52
leaf_count=20 109 40 55 29 21 20 29 22 44 31 70 20 28 35 22 67 57 25 48 29 99 21 35 25 21 22 95 20 32 52
internal_value=0 -0.564416 0.552732 0.338677 -1.28697 1.31278 -0.320947 -1.15116 -1.38219 0.530252 -0.490247 0.130798 1.16773 1.32584 0.16783 -0.158851 -0.217802 -0.344918 -0.936633 0.374698 0.640915 0.459597 -0.090685 0.280313 0.416917 0.0538317 -0.431696 -0.323616 0.125673 0.170987
internal_weight=0 615 628 490 155 138 460 135 65 255 225 235 118 63 215 235 184 92 70 106 149 50 92 77 46 51 185 90 193 161
internal_count=1243 615 628 490 155 138 460 135 65 255 225 235 118 63 215 235 184 92 70 106 149 50 92 77 46 51 185 90 193 161
is_linear=0
shrinkage=0.05


Tree=5
num_leaves=31
num_cat=0
split_feature=46 46 46 46 46 46 46 46 25 1 8 4 33 20 36 8 20 14 33 9 32 44 22 30 31 34 15 31 34 38
split_gain=140150 49319.8 27676.1 8724.79 6184.31 6021.4 3104.1 3099.66 2188.76 1419.33 1163.2 1138.26 1138.09 1127.04 1071.12 1066.98 1040.39 1027.14 1308.36 1133.75 997.353 1018.79 997.137 1048.42 994.908 913.458 880.639 1072.18 1020.34 873.824
threshold=10.187032749342736 -44.208551458825006 58.687539969140978 -78.836378085104101 117.8238625669385 -10.165528699770219 -119.57916270983991 28.869282504469997 12.606451612903227 24.237903225806456 7.8418750000000008 19.184659090909097 11.790998217468807 27.716907675194665 7.3175403225806459 7.9344086021505387 29.032866379310349 13.095262096774196 10.050115207373274 16.031754032258068 16.09232954545455 6.5000000000000009 6.7580645161290329 60.374509803921576 4.9047379032258069 12.381048387096776 12.606451612903227 5.9364919354838719 10.649553571428573 12.85215053763441
decision_type=2 2 2 2 2 2 2 2 2 2 2 2 2 2 2 2 2 2 2 2 2 2 2 2 2 2 2 2 2 2
left_child=1 3 7 6 8 11 -1 22 -4 -7 12 26 -5 29 20 -10 -15 18 19 -9 -11 -22 23 24 -2 -20 27 28 -3 -13
right_child=2 5 4 10 -6 9 -8 17 15 14 -12 13 -14 16 -16 -17 -18 -19 25 -21 21 -23 -24 -25 -26 -27 -28 -29 -30 -31
leaf_value=-2.0935119581222534 0.089549287036061298 -0.094948367029428493 1.5469924014547598 -1.2514314667383832 2.0601653861999512 -0.304434221812657 -1.3564790959358215 0.24600499780739057 0.74418027778821338 0.17554278453000083 -0.74531832917531338 -0.47162635308646017 -0.76450052589178086 -0.91146023287659605 0.20090290029411731 1.1117117001716772 -0.45259700179100038 0.30177700673380209 0.6141136310994626 0.7132672213017941 -0.24866606636393454 0.074992234185338028 0.44837229922413829 -0.10244051801661652 0.39975598489202691 0.93850047640940726 -0.46235392017419952 0.13531078748404979 -0.39109736057845029 -0.10279722924415882
leaf_weight=20 46 52 23 30 20 35 50 34 28 39 75 42 20 21 69 67 30 31 60 21 62 40 56 24 59 34 43 20 66 26
leaf_count=20 46 52 23 30 20 35 50 34 28 39 75 42 20 21 69 67 30 31 60 21 62 40 56 24 59 34 43 20 66 26
internal_value=0 -0.437723 0.643966 -1.12013 1.24714 -0.193557 -1.56706 0.415915 1.10934 -0.00965035 -0.869855 -0.343748 -1.05666 -0.463862 0.0394803 1.00339 -0.641541 0.563632 0.618112 0.424414 -0.0395137 -0.121741 0.27219 0.195708 0.263856 0.731445 -0.264778 -0.203214 -0.260591 -0.330603
internal_weight=0 740 503 195 138 545 70 365 118 245 125 300 50 119 210 95 51 180 149 55 141 102 185 129 105 94 181 138 118 68
internal_count=1243 740 503 195 138 545 70 365 118 245 125 300 50 119 210 95 51 180 149 55 141 102 185 129 105 94 181 138 118 68
is_linear=0
shrinkage=0.05


Tree=6
num_leaves=31
num_cat=0
split_feature=46 46 46 46 46 46 46 46 29 46 13 1 46 46 29 7 6 12 18 46 12 35 5 34 8 24 21 31 47 8
split_gain=126554 35362.8 33422.5 6746.1 6264.7 5285.68 4153.35 2220.8 1596.88 1288.64 1270.46 1111.44 1387.06 1100.47 1055.23 1042.86 1039.86 1147.55 987.547 976.601 1287.67 1005.76 979.312 917.759 859.269 858.394 838.169 875.632 991.656 767.584
threshold=1.0000000180025095e-35 -52.494905637389131 52.136819302621014 101.2464668653936 -119.57916270983991 16.496678486325894 -20.687674179487654 -74.048856374833335 20.067816091954025 71.107605060755319 19.803225806451618 28.703125000000004 39.693156059571727 -44.208551458825006 20.532291666666669 14.516685205784206 16.109375000000004 5.2295698924731191 2.6720430107526885 -6.9547397997994258 5.0307765151515165 14.457471264367818 13.546920821114371 12.594117647058825 7.4408045977011499 12.790322580645162 61.492424242424249 5.3279569892473129 2256.1647681344671 7.6373954599761058
decision_type=2 2 2 2 2 2 2 2 2 2 2 2 2 2 2 2 2 2 2 2 2 2 2 2 2 2 2 2 2 2
left_child=1 4 5 9 -1 26 13 8 -6 25 11 12 16 -3 -8 -10 17 -7 -11 21 -21 -16 23 -23 -9 -4 27 -2 -29 -15
right_child=2 6 3 -5 7 10 14 24 15 18 -12 -13 -14 29 19 -17 -18 -19 -20 20 -22 22 -24 -25 -26 -27 -28 28 -30 -31
leaf_value=-1.9888363838195802 0.11514061778539518 -0.68108173280954365 0.97727694923453257 1.7661754488945007 -1.6098067828587124 0.29179155396357664 0.058527354092574591 -1.103967745737596 -1.3465201902389528 1.3444480101267497 0.25167797864601016 0.66460911072790629 0.7827566404073012 -0.52545162726412797 -0.014202277779579163 -0.85765582968791332 0.013192895352840423 0.67744925245642662 0.95107300503131675 -0.33324329930323143 0.10002558843252507 -0.34074433836443674 -0.17697464666432805 -0.78101361811161052 -0.72661145737705135 0.61383241345174611 0.19924638656984001 0.090913217812776573 -0.37739057626861794 -0.31421393894741678
leaf_weight=20 61 40 33 32 21 62 51 22 20 27 75 64 21 68 25 24 20 28 39 27 47 29 36 20 48 32 88 20 26 117
leaf_count=20 61 40 33 32 21 62 51 22 20 27 75 64 21 68 25 24 20 28 39 27 47 29 36 20 48 32 88 20 26 117
internal_value=0 -0.509818 0.499264 1.11535 -1.16298 0.283302 -0.289731 -1.04063 -1.25108 0.956372 0.426564 0.493828 0.410392 -0.443276 -0.142721 -1.07987 0.339305 0.411774 1.112 -0.198502 -0.058059 -0.292982 -0.374976 -0.520446 -0.845209 0.79835 0.0849404 -0.00906835 -0.17378 -0.391858
internal_weight=0 615 628 163 155 465 460 135 65 131 270 195 131 225 235 44 110 90 66 184 74 110 85 49 70 65 195 107 46 185
internal_count=1243 615 628 163 155 465 460 135 65 131 270 195 131 225 235 44 110 90 66 184 74 110 85 49 70 65 195 107 46 185
is_linear=0
shrinkage=0.05


Tree=7
num_leaves=31
num_cat=0
split_feature=46 46 46 46 46 46 46 25 46 46 1 8 19 29 34 34 28 11 27 25 14 33 27 4 28 47 34 36 38 41
split_gain=114311 40135.6 22583.9 7159.49 5156.55 4914.42 2588.83 1909.98 1726.05 1524.15 1274.56 1191.23 1117.78 1041.97 1061.2 1001.99 1165.78 980.773 955.354 1171.32 912.066 1125.73 1148.41 899.669 1016.33 1055.64 818.055 782.31 708.314 662.445
threshold=10.187032749342736 -44.208551458825006 58.687539969140978 -91.579374076062308 117.8238625669385 -10.165528699770219 28.869282504469997 12.606451612903227 -69.5635962302715 -119.57916270983991 24.237903225806456 7.8032258064516133 8.2129032258064534 18.880471380471384 9.2968750000000018 10.484359726295212 14.360389610389612 58.508064516129039 11.085714285714287 17.81534090909091 13.095262096774196 10.050115207373274 8.4409722222222232 19.184659090909097 15.274294670846396 2256.9619321516502 12.381048387096776 6.6030303030303044 8.7303427419354858 2257.7716073795978
decision_type=2 2 2 2 2 2 2 2 2 2 2 2 2 2 2 2 2 2 2 2 2 2 2 2 2 2 2 2 2 2
left_child=1 3 6 9 7 13 18 -4 12 -1 -7 -10 -5 -3 -15 27 -17 -9 19 -2 21 22 -8 -16 -25 -26 -23 -12 -19 -18
right_child=2 5 4 8 -6 10 20 17 11 -11 15 -13 -14 14 23 16 29 28 -20 -21 -22 26 -24 24 25 -27 -28 -29 -30 -31
leaf_value=-1.8893945121765137 0.2309180613316543 0.037917914092540743 1.4094506782034171 -0.87529008558818289 1.8688482761383058 -0.28825945138931275 0.5618000634891146 1.1218491341128496 -0.94547779133641408 -1.3037885322570801 0.039869712263345722 -0.58994390772835859 -1.3515491615642201 -0.66102740899052315 -0.23001909960520928 -0.37984784662723547 0.15583058473164754 0.64551785003293205 -0.073297632521107089 0.61573667908492302 0.26382269205585607 0.55600232151647411 0.091526011732362578 -0.21971649547609001 -0.35867930736924925 -0.7666081324733538 0.86298229313072028 0.43952169815699266 0.990032571554184 -0.063865025650437293
leaf_weight=20 141 20 23 28 20 35 34 33 38 25 25 62 22 23 154 20 59 37 21 23 31 60 21 39 35 29 34 24 25 82
leaf_count=20 141 20 23 28 20 35 34 33 38 25 25 62 22 23 154 20 59 37 21 23 31 60 21 39 35 29 34 24 25 82
internal_value=0 -0.395319 0.581582 -1.01092 1.12645 -0.175057 0.375577 1.00062 -0.844979 -1.56406 -0.00891307 -0.725047 -1.08484 -0.310742 -0.335646 0.0376447 -0.022608 0.901642 0.244228 0.284887 0.510574 0.561911 0.382241 -0.306526 -0.420916 -0.543522 0.667038 0.235618 0.784435 0.0280643
internal_weight=0 740 503 195 138 545 365 118 150 45 245 100 50 300 280 210 161 95 185 164 180 149 55 257 103 64 94 49 62 141
internal_count=1243 740 503 195 138 545 365 118 150 45 245 100 50 300 280 210 161 95 185 164 180 149 55 257 103 64 94 49 62 141
is_linear=0
shrinkage=0.05


Tree=8
num_leaves=31
num_cat=0
split_feature=46 46 46 46 46 46 46 46 13 25 29 1 12 12 8 5 11 40 7 30 46 23 18 32 33 35 35 23 24 16
split_gain=103333 28844.1 27241.4 5568.05 5111.25 4322.75 3446.91 1568.39 1149.05 1131.11 1045.4 955.176 1079.4 951.002 926.955 1128.55 847.457 1215.16 839.126 886.757 832.14 782.937 779.699 746.373 1048.5 1012.1 757.995 927.323 715.244 1080.09
threshold=1.0000000180025095e-35 -52.494905637389131 52.136819302621014 101.2464668653936 -112.88277265468422 16.496678486325894 -20.687674179487654 -74.048856374833335 19.803225806451618 12.650705645161292 20.492424242424246 27.982758620689658 4.9692234848484853 6.3810483870967749 7.6373954599761058 15.108993157380256 58.306250000000006 0.70833333333333337 17.040625000000002 55.060661764705891 27.637843332514198 19.171554252199417 2.7376344086021507 20.983333333333338 8.8854838709677448 20.349798387096779 17.123106060606066 18.190524193548391 12.878676470588237 17.16685205784205
decision_type=2 2 2 2 2 2 2 2 2 2 2 2 2 2 2 2 2 2 2 2 2 2 2 2 2 2 2 2 2 2
left_child=1 4 5 9 -1 23 14 10 11 -4 -6 12 20 18 22 16 17 -16 19 -8 -7 -13 -3 24 -2 26 27 -26 -11 -30
right_child=2 6 3 -5 7 8 13 -9 -10 28 -12 21 -14 -15 15 -17 -18 -19 -20 -21 -22 -23 -24 -25 25 -27 -28 -29 29 -31
leaf_value=-1.7053110656738282 -0.11650093969626306 -0.70252084686960048 1.1812883800786476 1.5986223548650742 -1.3591890621185305 0.015887774090314732 0.11009405221669906 -0.76387147601161687 0.21940480013688407 0.91682619306079138 -0.93585540311677118 0.45431129256529473 0.53235440317127436 0.13004211639204333 -0.27782143105287105 -0.59389971571583899 -0.4718901652726345 0.17038999456912279 -0.47477503359317785 -0.18316721986504456 0.38850581136442003 0.7584846791975639 -0.38994019368574739 -0.19752805253321476 -0.06045832820236683 -0.11611221813363955 0.39142836263636127 0.32648361121614777 0.4421439939075047 0.90314013063907628
leaf_weight=25 39 38 23 32 25 29 31 70 75 57 35 56 45 31 62 31 32 20 20 153 31 34 42 22 32 24 48 30 27 24
leaf_count=25 39 38 23 32 25 29 31 70 75 57 35 56 45 31 62 31 32 20 20 153 31 34 42 22 32 24 48 30 27 24
internal_value=0 -0.460677 0.45114 1.00735 -1.05057 0.256168 -0.261908 -0.924659 0.385725 0.862916 -1.11224 0.449694 0.347242 -0.127982 -0.401786 -0.326403 -0.253663 -0.168502 -0.167192 -0.133759 0.208407 0.569221 -0.538416 0.0767823 0.111666 0.178072 0.242258 0.126772 0.795114 0.659083
internal_weight=0 615 628 163 155 465 460 130 270 131 60 195 105 235 225 145 114 82 204 184 60 90 80 195 173 134 110 62 108 51
internal_count=1243 615 628 163 155 465 460 130 270 131 60 195 105 235 225 145 114 82 204 184 60 90 80 195 173 134 110 62 108 51
is_linear=0
shrinkage=0.05


Tree=9
num_leaves=31
num_cat=0
split_feature=46 46 46 46 46 46 46 46 25 29 14 32 36 19 44 7 5 32 29 46 8 36 9 13 23 13 11 23 8 21
split_gain=93258 26031.8 24601.7 4785.64 4651.37 4290.52 3110.84 1620.68 1580.28 1307.34 1123.38 1120.94 1089.05 1024.88 1611.48 915.901 913.209 1431.8 898.687 869.874 861.28 803.737 921.079 812.307 777.417 739.609 728.717 835.218 708.81 704.131
threshold=1.0000000180025095e-35 -52.494905637389131 58.687539969140978 20.72852854935218 -119.57916270983991 117.8238625669385 -20.687674179487654 -74.048856374833335 12.606451612903227 20.067816091954025 13.095262096774196 21.548589341692793 8.2165178571428594 17.147090517241384 12.500000000000002 14.516685205784206 13.888608870967744 17.183035714285719 20.532291666666669 -44.208551458825006 7.9344086021505387 5.790491118077326 17.421798631476054 16.12701612903226 19.171554252199417 17.285786290322584 58.127016129032263 16.322916666666668 7.4408045977011499 61.453079178885638
decision_type=2 2 2 2 2 2 2 2 2 2 2 2 2 2 2 2 2 2 2 2 2 2 2 2 2 2 2 2 2 2
left_child=1 4 3 11 -1 8 19 9 -4 -6 13 12 29 14 24 -11 17 -15 25 -3 -10 -20 23 -23 -5 -8 -25 -28 -9 -2
right_child=2 6 5 10 7 -7 18 28 20 15 -12 -13 -14 16 -16 -17 -18 -19 21 -21 -22 22 -24 26 -26 -27 27 -29 -30 -31
leaf_value=-1.7096592855453492 0.0094257550401108288 -0.59312452359125023 1.2753774902094968 0.082541068829596054 -1.3969802243368967 1.6954747700691222 -0.1017045006669801 -0.96069273731925264 0.58058894319193699 -1.167379651069641 0.16172508171906597 -0.2583060392434709 0.46634404469620105 0.10829585582017898 0.63484531909864594 -0.70923779023190336 0.74407703426149163 0.66646139414774053 0.054692790936678649 -0.33598224498985996 0.91079702097088555 -0.35209727511974054 -0.41080267250537877 0.15072307751647063 0.38244200548593033 0.28275092799555174 0.043812601073928509 -0.37783470762272681 -0.61796276099048564 0.20157304812590918
leaf_weight=20 107 40 23 40 21 20 29 22 28 20 38 20 22 20 38 24 45 27 32 185 67 32 45 28 47 22 23 24 48 86
leaf_count=20 107 40 23 40 21 20 29 22 28 20 38 20 22 20 38 24 45 27 32 185 67 32 45 28 47 22 23 24 48 86
internal_value=0 -0.437643 0.428583 0.262505 -0.998042 1.01828 -0.248813 -0.892617 0.903505 -1.0724 0.41251 0.0997331 0.133039 0.456426 0.363204 -0.917484 0.583085 0.428944 -0.121583 -0.381696 0.813473 -0.173061 -0.221009 -0.141189 0.244557 0.064139 -0.0512013 -0.171497 -0.725678 0.0950458
internal_weight=0 615 628 490 155 138 460 135 118 65 255 235 215 217 125 44 92 47 235 225 95 184 152 107 87 51 75 47 70 193
internal_count=1243 615 628 490 155 138 460 135 118 65 255 235 215 217 125 44 92 47 235 225 95 184 152 107 87 51 75 47 70 193
is_linear=0
shrinkage=0.05


Tree=10
num_leaves=31
num_cat=0
split_feature=46 46 46 46 46 46 46 10 46 46 1 22 1 12 37 8 32 19 4 20 36 20 19 29 42 34 1 22 26 46
split_gain=84372.6 29705.3 16923.8 5276.37 3644.57 3039.48 2827.52 1330.77 1235.79 1129.69 1111.43 1011.29 1490.25 1277.65 1202.65 985.173 1017.29 948.383 883.107 903.811 879.275 859.308 828.771 825.081 829.028 899.143 804.572 769.971 1157.96 1104.09
threshold=10.187032749342736 -44.208551458825006 67.398806591989356 -91.579374076062308 -10.165528699770219 117.8238625669385 44.900251013264786 20.481554677206855 -69.5635962302715 -119.57916270983991 24.237903225806456 6.3786764705882364 27.196774193548389 6.138257575757577 2.9692234848484853 7.8032258064516133 17.389200561009819 8.2129032258064534 19.184659090909097 27.716907675194665 7.3175403225806459 29.032866379310349 13.650166852057843 24.577450980392161 2261.9113325488529 10.098387096774195 29.492439516129036 5.6614583333333348 15.396673387096776 17.341354362534961
decision_type=2 2 2 2 2 2 2 2 2 2 2 2 2 2 2 2 2 2 2 2 2 2 2 2 2 2 2 2 2 2
left_child=1 3 6 9 18 7 11 -4 17 -1 -6 13 -13 27 26 -10 -17 -5 -3 22 23 -21 -20 24 -12 -26 -14 29 -29 -2
right_child=2 4 5 8 10 -7 -8 -9 15 -11 20 12 14 -15 -16 16 -18 -19 19 21 -22 -23 -24 -25 25 -27 -28 28 -30 -31
leaf_value=-1.6241763186454774 0.017861383738705799 -0.19742459138412832 1.1615365425745645 -0.73671475627592642 -0.26791564737047469 1.6107010102272037 0.59426431333025298 0.7660696156322957 -0.82575764812921237 -1.1200143957138062 0.16588272255546643 0.2019893624267336 0.63110876441001895 -0.10450902036551774 0.84965969486670068 -0.74882548379898073 -0.33595191461814422 -1.1754036553881384 -0.13273161539564962 -0.77720199014459346 0.18267179736192676 -0.36017978787422184 -0.50585418477315791 -0.30220539371172589 0.16668378490777244 -0.23246095492396246 0.20171256953229511 0.2885820958763361 -0.19640231534838679 0.42630571055297672
leaf_weight=20 21 181 36 28 35 20 90 52 38 25 53 59 20 29 22 25 37 22 46 21 69 30 22 24 21 43 24 32 20 78
leaf_count=20 21 181 36 28 35 20 90 52 38 25 53 59 20 29 22 25 37 22 46 21 69 30 22 24 21 43 24 32 20 78
internal_value=0 -0.339628 0.499651 -0.869233 -0.150136 1.05431 0.347999 0.927852 -0.726777 -1.34409 -0.00705837 0.275331 0.384585 0.19946 0.547815 -0.625296 -0.502433 -0.929738 -0.266983 -0.372782 0.0364178 -0.531895 -0.253448 -0.0351532 0.0196267 -0.101492 0.396893 0.257838 0.10205 0.339666
internal_weight=0 740 503 195 545 108 395 88 150 45 245 305 125 180 66 100 62 50 300 119 210 51 68 141 117 64 44 151 52 99
internal_count=1243 740 503 195 545 108 395 88 150 45 245 305 125 180 66 100 62 50 300 119 210 51 68 141 117 64 44 151 52 99
is_linear=0
shrinkage=0.05


Tree=11
num_leaves=31
num_cat=0
split_feature=46 46 46 46 46 46 1 10 46 10 46 22 8 32 18 46 21 5 5 29 34 33 28 4 47 6 22 34 6 13
split_gain=76146.3 26809 15312.3 4761.92 3289.22 2960.09 2568.01 1307.81 1115.3 1042.2 1019.54 942.94 889.118 918.103 871.364 1036.93 1224.64 873.138 1062.14 868.59 917.573 840.367 821.52 851.279 986.609 815.456 815.415 785.574 959.687 1014.54
threshold=10.187032749342736 -44.208551458825006 71.107605060755319 -91.579374076062308 -10.165528699770219 44.900251013264786 30.873814041745735 20.481554677206855 -69.5635962302715 24.580208333333335 -119.57916270983991 9.0910815939278944 7.8032258064516133 17.389200561009819 2.6922348484848491 28.869282504469997 57.390518084066478 14.047916666666667 12.415246212121213 18.880471380471384 9.2968750000000018 9.2002224694104573 14.5247311827957 19.13118279569893 2256.9619321516502 15.77772177419355 6.5184453227931494 10.484359726295212 12.803225806451616 15.671875000000002
decision_type=2 2 2 2 2 2 2 2 2 2 2 2 2 2 2 2 2 2 2 2 2 2 2 2 2 2 2 2 2 2
left_child=1 3 5 10 19 11 7 -4 -5 27 -1 14 -10 -14 21 16 -16 18 -18 -3 -21 -2 26 -24 -25 -23 -22 -6 -29 -30
right_child=2 4 6 8 9 -7 -8 -9 12 -11 -12 -13 13 -15 15 -17 17 -19 -20 20 22 25 23 24 -26 -27 -28 28 29 -31
leaf_value=-1.5429674792289736 -0.1649306301757778 0.064698495119810115 1.1275634373937335 -0.88325098367780441 0.12484722216255391 0.57503712290525433 1.4208303801218669 0.68202268011868006 -0.78446977201261026 0.27473709282690079 -1.0640136756896972 0.55578355595469475 -0.71138421487808223 -0.31915431761661095 -0.077766964867197239 0.44733357704111509 0.3478335669210979 0.47947190111797111 -0.084030730774005261 -0.57893370555146884 -0.26979529158427168 -0.041358944478080327 -0.21529188742570116 -0.266537034433595 -0.62696151698336888 0.33402007923294336 0.1261977759691385 -0.42273262321949007 -0.26346229472901767 0.030624664965474491
leaf_weight=20 22 20 28 50 52 100 30 40 38 29 25 25 25 37 29 70 35 38 24 23 26 23 128 43 34 39 26 20 41 103
leaf_count=20 22 20 28 50 52 100 30 40 38 29 25 25 25 37 29 70 35 38 24 23 26 23 128 43 34 39 26 20 41 103
internal_value=0 -0.322647 0.474669 -0.825771 -0.142629 0.338965 1.03549 0.865481 -0.690438 -0.00670545 -1.27688 0.261564 -0.594032 -0.477312 0.235295 0.293038 0.207318 0.29255 0.17216 -0.253634 -0.276372 0.10056 -0.249294 -0.294318 -0.425686 0.194767 -0.0717988 -0.0444917 -0.0981845 -0.0531084
internal_weight=0 740 503 195 545 405 98 68 150 245 45 305 100 62 280 196 126 97 59 300 280 84 257 205 77 62 52 216 164 144
internal_count=1243 740 503 195 545 405 98 68 150 245 45 305 100 62 280 196 126 97 59 300 280 84 257 205 77 62 52 216 164 144
is_linear=0
shrinkage=0.05


Tree=12
num_leaves=31
num_cat=0
split_feature=46 46 46 46 46 46 46 25 46 39 32 14 36 29 4 46 33 29 8 5 11 11 40 36 9 4 13 41 10 13
split_gain=68751.4 19170.2 18154.1 3539.83 3415.79 3286.28 2371.71 1353.54 1041.53 1367.29 1000.98 987.703 956.151 874.138 1027.5 1666.79 1065.65 786.599 782.357 1012.29 756.603 741.482 1072.99 699.003 751.794 692.388 682.099 655.155 651.624 650.426
threshold=1.0000000180025095e-35 -52.494905637389131 58.687539969140978 20.72852854935218 -112.88277265468422 117.8238625669385 -20.687674179487654 12.606451612903227 -74.048856374833335 0.81666666666666676 21.548589341692793 13.095262096774196 7.9682459677419368 24.247306034482762 18.196774193548389 44.900251013264786 12.180107526881722 20.532291666666669 7.6373954599761058 15.108993157380256 58.508064516129039 58.306250000000006 0.63333333333333341 5.790491118077326 17.421798631476054 20.065591397849467 16.12701612903226 2213.7648517770263 21.984375000000004 17.285786290322584
decision_type=2 2 2 2 2 2 2 2 2 2 2 2 2 2 2 2 2 2 2 2 2 2 2 2 2 2 2 2 2 2
left_child=1 4 3 10 -1 7 18 -4 9 -6 12 13 -2 14 16 25 -5 29 28 21 -9 22 -20 -19 26 -16 -25 -10 -3 -8
right_child=2 6 5 11 8 -7 17 20 27 -11 -12 -13 -14 -15 15 -17 -18 23 19 -21 -22 -23 -24 24 -26 -27 -28 -29 -30 -31
leaf_value=-1.3919142608642581 0.076003584745813188 -0.6170787706545422 1.118262535592784 0.5711840893601029 -1.2441557074710727 1.4672174835205078 -0.084399721540253742 0.88418915921991525 -0.41094164215028289 -0.73782874912954866 -0.25300920974463226 0.11917954330381596 0.38929800987243657 0.65623636147273445 -0.089718098823840797 0.62267808914184575 0.21147679727652979 0.061605414515361195 -0.27594988531536524 -0.51384052211238496 0.58783364574755392 -0.39573151874355972 0.087518897358126735 -0.31666020909324288 -0.36697415226035651 0.23859475551261788 -0.040932843327522284 -0.7332017368596534 -0.32942293008168538 0.2761322255839001
leaf_weight=25 187 35 23 71 20 20 29 33 24 40 20 38 28 28 26 21 29 32 45 31 62 32 37 32 45 42 75 46 45 22
leaf_count=25 187 35 23 71 20 20 29 33 24 40 20 38 28 28 26 21 29 32 45 31 62 32 37 32 45 42 75 46 45 22
internal_value=0 -0.375766 0.367987 0.225322 -0.856671 0.874553 -0.213722 0.774101 -0.75374 -0.906604 0.0853312 0.354333 0.116805 0.395512 0.356886 0.23331 0.466869 -0.102631 -0.32975 -0.260497 0.690778 -0.191605 -0.111946 -0.150791 -0.195506 0.113063 -0.123393 -0.622713 -0.455272 0.0711239
internal_weight=0 615 628 490 155 138 460 118 130 60 235 255 215 217 189 89 100 235 225 145 95 114 82 184 152 68 107 70 80 51
internal_count=1243 615 628 490 155 138 460 118 130 60 235 255 215 217 189 89 100 235 225 145 95 114 82 184 152 68 107 70 80 51
is_linear=0
shrinkage=0.05


Tree=13
num_leaves=31
num_cat=0
split_feature=46 46 46 46 46 46 1 38 10 1 22 6 12 31 36 34 20 6 29 34 8 20 22 26 31 10 46 29 17 23
split_gain=62239.4 21988.1 12558.5 3882.27 2651.79 2351.48 2255.69 1971.5 1104.55 937.979 837.808 1588.2 1127.3 919.43 779.556 957.368 761.614 874.778 756.32 792.131 707.275 698.966 679.138 1029.46 939.836 772.846 798.116 675.09 997.445 657.437
threshold=10.187032749342736 -44.208551458825006 71.107605060755319 -78.836378085104101 -10.165528699770219 44.900251013264786 30.873814041745735 27.621212121212125 20.481554677206855 24.237903225806456 6.3786764705882364 14.841229838709678 6.138257575757577 5.4919354838709689 6.9354166666666677 11.508064516129034 30.703125000000004 13.965476190476192 18.880471380471384 9.2968750000000018 8.7077798861480087 26.234115347018577 5.6614583333333348 15.396673387096776 3.9016129032258067 21.650705645161292 26.171159124871114 21.650705645161292 6.2742946708463956 19.26965725806452
decision_type=2 2 2 2 2 2 2 2 2 2 2 2 2 2 2 2 2 2 2 2 2 2 2 2 2 2 2 2 2 2
left_child=1 3 5 7 18 10 8 -1 -4 -6 12 -12 22 -13 -11 -16 17 -5 -3 -20 -17 -7 24 -24 -2 26 -26 -21 -29 -30
right_child=2 4 6 16 9 21 -8 -9 -10 14 11 13 -14 -15 15 20 -18 -19 19 27 -22 -23 23 -25 25 -27 -28 28 29 -31
leaf_value=-0.87765123915672305 -0.0062947462499141696 0.068708445504307755 1.0185548084122795 -0.66404567422966165 -0.24626472047397072 0.60733296025325278 1.2981816697120667 -1.4650287687778474 0.60909703765064482 -0.057663661949252626 0.12553248926280783 0.32143852466192002 -0.11732487698438868 0.67716740347883286 0.32415906532667577 0.15065030302320209 -0.78646730274865129 -0.35561502005191564 -0.53067724173483644 -0.13781117558479311 -0.2017615163077911 0.32395340558141472 0.252602982823737 -0.20468122139573097 0.073923704690403422 0.58274654833407247 0.47473717581318775 -0.48693355917930603 -0.30804461145869161 -0.029313855048488172
leaf_weight=50 20 20 28 45 35 68 30 20 40 111 52 39 29 34 40 35 33 47 23 120 24 32 32 20 27 29 23 47 56 34
leaf_count=50 20 20 28 45 35 68 30 20 40 111 52 39 29 34 40 35 33 47 23 120 24 32 32 20 27 29 23 47 56 34
internal_value=0 -0.291699 0.42914 -0.747346 -0.12867 0.306243 0.937029 -1.04547 0.777697 -0.00662484 0.237257 0.3367 0.168199 0.48712 0.0333151 0.135322 -0.580395 -0.506478 -0.228339 -0.249557 0.00729634 0.516652 0.223035 0.0767244 0.299885 0.377399 0.258298 -0.224398 -0.300241 -0.202746
internal_weight=0 740 503 195 545 405 98 70 68 245 305 125 180 73 210 99 125 92 300 280 59 100 151 52 99 79 50 257 137 90
internal_count=1243 740 503 195 545 405 98 70 68 245 305 125 180 73 210 99 125 92 300 280 59 100 151 52 99 79 50 257 137 90
is_linear=0
shrinkage=0.05


Tree=14
num_leaves=31
num_cat=0
split_feature=46 46 46 46 46 46 19 18 20 32 5 10 1 19 19 37 9 43 29 1 29 34 28 19 23 11 22 1 13 23
split_gain=56171 19844.2 11334 3530.55 2393.24 2124.62 2057.75 999.055 922.996 921.72 920.457 911.632 881.548 788.345 877.893 1105.84 1046.19 743.772 689.17 735.897 682.579 714.898 710.181 780.225 819.422 1288.38 1105.3 985.113 779.182 738.581
threshold=10.187032749342736 -44.208551458825006 71.107605060755319 -91.579374076062308 -10.165528699770219 39.693156059571727 28.187026515151519 2.6614583333333335 32.000000000000007 17.389200561009819 12.627314814814817 24.580208333333335 25.765625000000004 6.9047379032258069 18.566964285714288 3.5500556173526143 15.583426028921025 3.5000000000000004 20.11139112903226 24.384469696969699 18.880471380471384 9.2968750000000018 14.5247311827957 16.343137254901965 14.857358870967744 57.963624338624349 5.8982758620689664 25.92428571428572 16.179144385026742 17.857358870967747
decision_type=2 2 2 2 2 2 2 2 2 2 2 2 2 2 2 2 2 2 2 2 2 2 2 2 2 2 2 2 2 2
left_child=1 3 5 10 20 13 7 -4 9 -5 -1 18 -11 -2 15 17 -16 -15 -6 -20 -3 -22 29 24 28 26 -26 -27 -24 -23
right_child=2 4 6 8 11 -7 -8 -9 -10 12 -12 -13 -14 14 16 -17 -18 -19 19 -21 21 22 23 -25 25 27 -28 -29 -30 -31
leaf_value=-0.86719314076683751 0.509052354381198 0.065273020416498184 1.0293191152314345 -0.6661668838119843 0.15807237343655692 0.46232951501552022 1.3039110585399296 0.63811392459799265 -0.90966378755867483 -0.54778306912127384 -1.3195724653161092 0.25692982128981889 -0.14810820113528858 -0.072237482261178751 0.18764753759853503 0.38394897339599476 0.56953469699826742 0.15888002889797739 -0.31226662068531436 -0.037269992536760325 -0.50414338170186335 -0.26819596046751198 -0.3089315150678158 -0.50549565222528248 -0.42943183332681656 -0.7474834817647934 0.0046236152337356048 -0.30981949940323833 0.080308193837602945 0.11321980367104212
leaf_weight=22 21 20 24 71 36 125 23 51 20 37 23 29 22 56 47 35 29 92 29 151 23 22 20 27 22 20 44 36 36 30
leaf_count=22 21 20 24 71 36 125 23 51 20 37 23 29 22 56 47 35 29 92 29 151 23 22 20 27 22 20 44 36 36 30
internal_value=0 -0.277114 0.407683 -0.709979 -0.122236 0.290931 0.890178 0.7633 -0.59345 -0.544802 -1.09841 -0.00629359 -0.398752 0.214414 0.190524 0.131202 0.333368 0.0714302 -0.0416338 -0.081575 -0.216922 -0.237079 -0.213178 -0.25504 -0.217049 -0.289731 -0.140062 -0.466128 -0.058706 -0.0481484
internal_weight=0 740 503 195 545 405 98 75 150 130 45 245 59 280 259 183 76 148 216 180 300 280 257 205 178 122 66 56 56 52
internal_count=1243 740 503 195 545 405 98 75 150 130 45 245 59 280 259 183 76 148 216 180 300 280 257 205 178 122 66 56 56 52
is_linear=0
shrinkage=0.05


Tree=15
num_leaves=31
num_cat=0
split_feature=46 46 46 46 46 46 46 29 27 46 32 19 36 33 16 32 3 37 32 22 27 35 3 9 29 17 5 14 38 38
split_gain=50732.8 14126.6 13415.5 3269.01 2665.36 2663.65 1414.03 1283.33 1151.63 1128.48 898.766 827.04 820.379 715.279 1418.34 701.914 699.102 889.938 832.066 681.897 680.552 879.176 834.753 786.532 664.483 651.107 767.326 618.445 600.612 981.075
threshold=1.0000000180025095e-35 -44.208551458825006 58.687539969140978 -119.57916270983991 20.72852854935218 101.2464668653936 -69.5635962302715 19.933259176863185 8.8284313725490211 -20.687674179487654 21.548589341692793 8.4440524193548416 8.2165178571428594 10.984375000000002 17.573593073593077 16.91935483870968 6.8032258064516133 2.9597423510466991 18.777721774193552 6.0687645687645695 10.403125000000001 17.123106060606066 4.9677083333333343 16.836021505376348 20.532291666666669 8.0813577586206922 9.7543010752688186 11.542050691244242 7.6392473118279582 11.034647550776585
decision_type=2 2 2 2 2 2 2 2 2 2 2 2 2 2 2 2 2 2 2 2 2 2 2 2 2 2 2 2 2 2
left_child=1 3 4 -1 10 13 7 -5 16 -3 12 27 20 -4 -15 -9 18 -18 19 -6 21 22 -2 -24 -11 26 -26 -8 -10 -30
right_child=2 9 5 6 8 -7 11 15 28 24 -12 -13 -14 14 -16 -17 17 -19 -20 -21 -22 -23 23 -25 25 -27 -28 -29 29 -31
leaf_value=-1.2800503873825075 -0.19454007327556611 -0.25187850330327011 0.79441612897122782 -1.0904100786555897 0.52676556123928586 1.1513772860169411 -0.81243305318057546 -0.40240221314132213 0.41888570303008676 0.072911052617664437 -0.24860731525346638 -0.34677728420158604 0.39110079583796592 0.31148605246629035 0.7799991245071094 -0.77778796165278463 0.0027228051965886898 0.46356080040335662 0.65467289327769673 0.21414291319009424 -0.14176008547656238 0.2798626421019435 0.0047644415554010649 0.34051536401877036 0.16602938796083133 -0.37390398929516477 -0.14062203549067764 -0.44960583182780645 -0.15861872058847679 0.22373987217583965
leaf_weight=20 30 185 41 22 33 32 24 20 21 51 20 53 22 35 30 33 22 20 37 37 32 52 53 26 24 24 136 23 23 62
leaf_count=20 30 185 41 22 33 32 24 20 21 51 20 53 22 35 30 33 22 20 37 37 32 52 53 26 24 24 136 23 23 62
internal_value=0 -0.322791 0.316109 -0.67448 0.193468 0.751573 -0.605272 -0.769388 0.305415 -0.159506 0.0719928 -0.482185 0.101816 0.630878 0.527723 -0.636133 0.395037 0.222169 0.462892 0.361522 0.0688407 0.110699 0.0299974 0.115265 -0.0867878 -0.131052 -0.0946243 -0.634879 0.179436 0.120278
internal_weight=0 615 628 195 490 138 175 75 255 420 235 100 215 106 65 53 149 42 107 70 193 161 109 79 235 184 160 47 106 85
internal_count=1243 615 628 195 490 138 175 75 255 420 235 100 215 106 65 53 149 42 107 70 193 161 109 79 235 184 160 47 106 85
is_linear=0
shrinkage=0.05


Tree=16
num_leaves=31
num_cat=0
split_feature=46 46 46 46 46 1 46 46 29 10 40 34 35 10 22 18 21 9 36 19 33 4 20 28 38 5 6 38 17 18
split_gain=45889.8 16132 9304.62 2950.28 1981.37 1825.22 1764.07 1276.16 1158.21 901.283 875.956 805.394 1079.84 902.933 765.267 785.248 767.537 805.628 747.494 746.403 707.706 687.467 763.933 739.352 703.174 659.297 639.919 616.952 674.041 591.646
threshold=10.187032749342736 -44.208551458825006 71.107605060755319 -119.57916270983991 -10.165528699770219 30.873814041745735 44.900251013264786 -69.5635962302715 19.933259176863185 20.481554677206855 1.0000000180025095e-35 10.484359726295212 13.776190476190479 21.095262096774196 9.0910815939278944 2.6922348484848491 57.300333704115694 17.254629629629633 6.9354166666666677 8.4440524193548416 9.2002224694104573 19.184659090909097 27.716907675194665 15.274294670846396 12.85215053763441 15.168880455407971 15.77772177419355 4.6887096774193564 6.4133811230585431 3.5819964349376119
decision_type=2 2 2 2 2 2 2 2 2 2 2 2 2 2 2 2 2 2 2 2 2 2 2 2 2 2 2 2 2 2
left_child=1 3 6 -1 21 9 14 8 -5 -4 -6 -12 -13 -14 15 20 17 -17 -15 -9 -2 29 24 -24 -23 -18 -22 -8 -29 -3
right_child=2 4 5 7 10 -7 27 19 -10 -11 11 12 13 18 -16 16 25 -19 -20 -21 26 22 23 -25 -26 -27 -28 28 -30 -31
leaf_value=-1.2160478496551514 -0.19225216497751801 -0.088237686859260145 0.87990298271179201 -1.0358895724469965 0.22624615137066162 1.1305273493131003 0.678794405812567 -0.60313534009607239 -0.60432631131613035 0.51003568704240032 0.12896108975013096 -0.4429022421408445 -0.24698260150304657 -0.10009878388806887 0.46800773620605468 -0.12023290769645462 0.2346694741557297 0.29845394313335422 0.17631057348657164 -0.32943841568633636 -0.071337414500506027 -0.30712500484216787 -0.19959944039583208 -0.58952781542414623 0.023735251120076732 0.49078485760837798 0.26119352155006847 0.53775008416010273 0.24291135780513287 -0.30810663172831904
leaf_weight=20 22 142 28 22 35 30 22 47 53 40 51 20 41 51 25 27 117 20 47 53 23 42 20 31 26 32 39 36 42 39
leaf_count=20 22 142 28 22 35 30 22 47 53 40 51 20 41 51 25 27 117 20 47 53 23 42 20 31 26 32 39 36 42 39
internal_value=0 -0.250473 0.368489 -0.640756 -0.11083 0.805658 0.262705 -0.575008 -0.730918 0.662334 -0.00533527 -0.0439322 -0.0993885 -0.0499621 0.202953 0.179287 0.234103 0.0579317 0.0324649 -0.458076 0.0513838 -0.196985 -0.290332 -0.436615 -0.18062 0.289674 0.137835 0.444948 0.378991 -0.135613
internal_weight=0 740 503 195 545 98 405 175 75 68 245 210 159 139 305 280 196 47 98 100 84 300 119 51 68 149 62 100 78 181
internal_count=1243 740 503 195 545 98 405 175 75 68 245 210 159 139 305 280 196 47 98 100 84 300 119 51 68 149 62 100 78 181
is_linear=0
shrinkage=0.05


Tree=17
num_leaves=31
num_cat=0
split_feature=46 46 46 46 46 46 46 38 10 12 36 30 10 27 25 36 8 25 37 18 13 12 4 24 4 20 34 34 15 31
split_gain=41415.6 14559.2 8397.42 2679.21 1788.19 1696.46 1606.42 1502.8 964.443 993.39 953.986 863.95 787.37 701.643 845.545 636.295 871.262 712.097 635.954 723.603 978.427 632.383 859.096 627.441 620.439 713.822 1157.89 726.295 713.523 854.238
threshold=10.187032749342736 -44.208551458825006 71.107605060755319 -78.836378085104101 -10.165528699770219 117.8238625669385 28.869282504469997 27.621212121212125 23.898275862068967 5.9848484848484853 5.9047379032258069 54.474137931034491 24.580208333333335 11.085714285714287 17.81534090909091 6.285786290322581 7.4408045977011499 15.567296996662961 2.3538899430740043 3.6189516129032264 16.179144385026742 6.138257575757577 14.546920821114371 11.285786290322582 19.184659090909097 26.576036866359452 12.577450980392159 10.844951923076925 12.606451612903227 5.9364919354838719
decision_type=2 2 2 2 2 2 2 2 2 2 2 2 2 2 2 2 2 2 2 2 2 2 2 2 2 2 2 2 2 2
left_child=1 3 6 7 24 11 13 -1 9 10 -8 -4 18 14 21 -5 -17 -18 -6 20 -20 22 -2 -13 28 -26 27 -27 29 -3
right_child=2 4 5 15 12 -7 8 -9 -10 -11 -12 23 -14 -15 -16 16 17 -19 19 -21 -22 -23 -24 -25 25 26 -28 -29 -30 -31
leaf_value=-0.7098602566123009 -0.026107702303577115 -0.12463147014190079 0.94341256558895115 -0.61535233094337149 -0.27505078566074376 1.176204788684845 0.045307100386846634 -1.2226856195926668 0.61502307461840777 0.075642652371420704 0.40812613059039882 0.78060817349524736 0.23955843262374402 -0.13113879368063949 0.45692254626698309 -0.6577703389383498 -0.066156817292389661 -0.42638174610979418 -0.12885909977182747 -0.1748502802103758 0.14540923538627804 -0.1231545321998142 0.26358760877186999 0.43842394209492047 -0.12424675564261828 -0.40734006085743507 -0.63361350331041555 -0.0046993840308416461 -0.30667651304325394 0.22874944522976876
leaf_weight=50 37 118 20 47 25 20 21 20 28 39 132 21 29 21 23 21 23 34 50 48 93 21 83 37 47 24 27 21 43 20
leaf_count=50 37 118 20 47 25 20 21 20 28 39 132 21 29 21 23 21 23 34 50 48 93 21 83 37 47 24 27 21 43 20
internal_value=0 -0.237949 0.350065 -0.608718 -0.105289 0.765376 0.24957 -0.856382 0.340885 0.300907 0.358327 0.660035 -0.00506851 0.140978 0.175822 -0.470027 -0.382459 -0.281028 -0.0379119 -0.00687282 0.0495112 0.129968 0.174265 0.562318 -0.187135 -0.275815 -0.374756 -0.219441 -0.128832 -0.0734168
internal_weight=0 740 503 195 545 98 405 70 220 192 153 78 245 185 164 125 78 57 216 191 143 141 120 58 300 119 72 45 181 138
internal_count=1243 740 503 195 545 98 405 70 220 192 153 78 245 185 164 125 78 57 216 191 143 141 120 58 300 119 72 45 181 138
is_linear=0
shrinkage=0.05


Tree=18
num_leaves=31
num_cat=0
split_feature=46 46 46 46 46 46 46 20 36 13 29 24 16 46 39 15 17 15 15 38 38 47 12 32 11 33 17 35 6 7
split_gain=37423.5 10401.1 9963.46 2417.59 2054.14 1656.02 1459.82 898.43 1126.04 894.362 876.954 698.89 852.339 683.455 991.196 681.508 750.757 626.644 693.172 620.102 998.146 779.299 610.993 602.349 1344.75 600.845 690.984 595.375 585.069 563.944
threshold=1.0000000180025095e-35 -52.494905637389131 52.136819302621014 101.2464668653936 -119.57916270983991 16.496678486325894 -28.684008099933632 28.703125000000004 5.6189516129032269 19.803225806451618 20.532291666666669 12.878676470588237 17.16685205784205 -74.048856374833335 0.81666666666666676 12.571212121212122 6.7704301075268827 13.484359726295212 11.707779886148009 13.016129032258066 9.9115384615384645 2252.8806571104765 5.2880184331797242 17.331875000000004 58.508064516129039 12.887500000000001 7.412802419354839 15.777272727272729 13.968245967741938 16.14479166666667
decision_type=2 2 2 2 2 2 2 2 2 2 2 2 2 2 2 2 2 2 2 2 2 2 2 2 2 2 2 2 2 2
left_child=1 4 5 11 -1 25 23 10 -9 15 22 -4 -13 14 -6 16 -7 18 -11 20 21 -12 -8 28 -25 26 -2 -15 -3 -28
right_child=2 6 3 -5 13 9 7 8 -10 17 19 12 -14 27 -16 -17 -18 -19 -20 -21 -22 -23 -24 24 -26 -27 29 -29 -30 -31
leaf_value=-1.1043676853179931 0.067507804765186294 -0.58298527632768338 0.61724722569601409 0.9974834382534028 -0.95112524466081094 0.35820762803128292 -0.02599614408205856 0.082753529548645025 -0.35137639483910499 0.14481601678963862 -0.1964915924406839 0.19183334591316767 0.57197246407469116 -0.68355832055211074 -0.53849507001943375 0.53395683479309086 0.14804506635160319 0.32670887053012848 -0.21751330332322555 0.068464227947406475 -0.37644452227128522 0.093814432221214952 0.29472293743380795 -0.0064253704791719275 -0.40967195536344292 0.23020814589091709 -0.361680623292923 -0.36077273487299683 -0.27978307224991844 -0.008525867330340239
leaf_weight=20 114 26 72 32 22 86 33 20 59 33 53 29 30 20 43 25 84 20 22 40 37 41 27 44 39 35 20 50 41 26
leaf_count=20 114 26 72 32 22 86 33 20 59 33 53 29 30 20 43 25 84 20 22 40 37 41 27 44 39 35 20 50 41 26
internal_value=0 -0.277236 0.271497 0.607875 -0.631466 0.153583 -0.157875 -0.0959162 -0.24147 0.233772 -0.0461381 0.512703 0.385124 -0.561406 -0.678155 0.290208 0.254363 0.0870375 -0.000115711 -0.103845 -0.156459 -0.0698688 0.118327 -0.285924 -0.195903 0.0425533 0.00150378 -0.452997 -0.397444 -0.162071
internal_weight=0 615 628 163 155 465 460 310 79 270 231 131 59 135 65 195 170 75 55 171 131 94 60 150 83 195 160 70 67 46
internal_count=1243 615 628 163 155 465 460 310 79 270 231 131 59 135 65 195 170 75 55 171 131 94 60 150 83 195 160 70 67 46
is_linear=0
shrinkage=0.05


Tree=19
num_leaves=31
num_cat=0
split_feature=46 46 46 46 1 46 46 46 39 10 8 32 19 6 22 22 3 16 31 20 22 14 36 24 32 8 32 30 47 19
split_gain=33784.5 11916.9 6913.65 2230.92 1555.28 1492.63 1371.16 841.186 1000.44 732.162 710.748 678.877 677.777 780.243 1001.74 1026.31 694.414 639.39 620.816 613.359 929.339 663.028 586.247 1088.12 572.396 644.158 560.967 666.975 804.423 629.399
threshold=10.187032749342736 -44.208551458825006 71.107605060755319 -112.88277265468422 30.873814041745735 -17.251758678921302 39.693156059571727 -71.783169380290687 0.81666666666666676 20.481554677206855 7.7777217741935489 17.389200561009819 6.9047379032258069 15.678709677419358 6.3230550284629983 5.9364919354838719 6.372685185185186 12.850389321468301 5.4919354838709689 28.499511241446729 6.7970588235294125 13.290625000000002 7.2154356060606064 14.064583333333335 19.836021505376348 7.732051282051283 16.384943181818183 56.593750000000007 2258.3642952537562 10.328125000000002
decision_type=2 2 2 2 2 2 2 2 2 2 2 2 2 2 2 2 2 2 2 2 2 2 2 2 2 2 2 2 2 2
left_child=1 3 6 -1 9 19 12 8 -5 -4 -9 -12 -2 16 15 -15 -14 -7 -16 21 -21 24 -8 -24 25 -3 -19 28 -28 -29
right_child=2 5 4 7 -6 17 22 10 -10 -11 11 -13 13 14 18 -17 -18 26 -20 20 -22 -23 23 -25 -26 -27 27 29 -30 -31
leaf_value=-0.99136417961120604 0.43671397935776479 -0.41852581577916298 0.75680511125496464 -0.92109805345535278 0.99289549420277279 0.22155184006939332 0.2666987386771611 -0.56721799643949067 -0.49608734381695591 0.4234408856183291 -0.48480383391891213 -0.16033975983920851 0.1250644330556194 0.21299893507553685 0.21728062094361694 -0.19891465969383718 -0.1386690962101732 0.040807176806163373 0.55330583304166792 -0.46796013592254548 -0.12428727389590161 0.12621056636174519 0.65295426536883627 0.19063614368438722 0.0521480377424847 -0.14287387123470432 -0.056708894371986389 -0.16526859019967644 -0.50515708282589911 0.042738105651037195
leaf_weight=25 21 31 28 20 30 24 70 39 45 40 28 38 87 62 27 20 35 114 28 42 37 21 35 20 22 67 20 66 20 81
leaf_count=25 21 31 28 20 30 24 70 39 45 40 28 38 87 62 27 20 35 114 28 42 37 21 35 20 22 67 20 66 20 81
internal_value=0 -0.214912 0.316173 -0.550353 0.693011 -0.094892 0.224988 -0.485499 -0.62686 0.560709 -0.39799 -0.297991 0.163518 0.141367 0.223261 0.112532 0.0494032 -0.0268123 0.388348 -0.195464 -0.306999 -0.132973 0.36268 0.484839 -0.17833 -0.23007 -0.0466154 -0.0999105 -0.280933 -0.0506527
internal_weight=0 740 503 195 98 545 405 170 65 68 105 66 280 259 137 82 122 325 55 220 79 141 125 55 120 98 301 187 40 147
internal_count=1243 740 503 195 98 545 405 170 65 68 105 66 280 259 137 82 122 325 55 220 79 141 125 55 120 98 301 187 40 147
is_linear=0
shrinkage=0.05


Tree=20
num_leaves=31
num_cat=0
split_feature=45 45 41 19 20 38 1 41 44 7 42 35 22 43 40 25 45 25 11 15 27 28 33 26 26 7 47 11 42 28
split_gain=28164.7 7067.71 6982.88 2489.44 2107.69 2080.18 1751.95 1525.47 1391.13 1675.82 1069.88 1034.21 1032.13 993.344 940.174 1266.75 908.014 867.09 957.659 833.375 761.833 677.923 672.716 840.626 789.147 664.849 698.179 636.23 633.589 799.21
threshold=-1.0000000180025095e-35 -10.499999999999998 2218.5924964064848 18.484375000000004 30.873814041745735 16.877791563275437 30.873814041745735 2288.3244696366673 7.5000000000000009 14.532291666666667 2314.7390144262276 12.161458333333334 5.6935483870967749 10.500000000000002 1.0000000180025095e-35 16.816964285714288 -6.4999999999999991 13.76209677419355 59.385856079404476 11.216517857142859 10.269657258064518 18.285786290322584 12.180107526881722 15.77772177419355 15.817018909899891 13.594117647058825 2256.9619321516502 60.030776515151523 2283.3916904994808 15.781929347826088
decision_type=2 2 2 2 2 2 2 2 2 2 2 2 2 2 2 2 2 2 2 2 2 2 2 2 2 2 2 2 2 2
left_child=1 6 4 8 28 11 -1 10 9 12 -7 -4 -3 14 -13 21 -5 18 -10 -15 -18 -16 24 -24 25 -19 27 -27 29 -2
right_child=2 3 5 16 -6 7 -8 -9 17 -11 -12 13 -14 19 15 -17 20 22 -20 -21 -22 -23 23 -25 -26 26 -28 -29 -30 -31
leaf_value=0.48173375573046134 -0.12196126161143184 0.38827024811790106 -0.39886063078175421 0.54101314246654508 -1.051049354672432 -0.28964798829608385 0.9419753174369152 -0.024643954369756912 0.50296531021595003 -0.29694074070809978 -0.61805439620248737 0.35103179272264246 -0.087213900327682503 -0.29148780504862465 -0.12905832395970243 0.35619000375270843 0.32144983293754714 -0.098099449835717681 0.099559975309031351 -0.038370983874503994 -0.021919809132814411 0.15666762452859145 0.14383780130973231 -0.25449006110429767 0.40472192955762154 -0.10511319786310197 0.38986273083090783 0.25188818648457528 -0.63136574923992161 -0.52252023996728836
leaf_weight=101 20 21 23 38 20 124 26 45 31 46 31 20 25 60 103 20 84 32 28 71 20 26 26 27 25 26 25 24 42 33
leaf_count=101 20 21 23 38 20 124 26 45 31 46 31 20 25 60 103 20 84 32 28 71 20 26 26 27 25 26 25 24 42 33
internal_value=0 0.244411 -0.231769 0.156322 -0.584528 -0.154202 0.575956 -0.280925 0.0821429 -0.0835429 -0.355329 -0.0757357 0.129855 -0.0509627 0.0291408 -0.0140661 0.331844 0.144615 0.311519 -0.154302 0.255417 -0.0714701 0.0913857 -0.0590839 0.151802 0.092708 0.174119 0.0662475 -0.486313 -0.371366
internal_weight=0 605 638 478 115 523 127 200 336 92 155 323 46 300 169 149 142 244 59 131 104 129 185 53 132 107 75 50 95 53
internal_count=1243 605 638 478 115 523 127 200 336 92 155 323 46 300 169 149 142 244 59 131 104 129 185 53 132 107 75 50 95 53
is_linear=0
shrinkage=0.05


Tree=21
num_leaves=31
num_cat=0
split_feature=46 46 46 46 46 46 25 27 32 46 39 36 19 33 20 23 23 36 41 28 43 35 3 34 4 27 35 3 9 14
split_gain=27791 7661.35 7454.9 1865.98 1712.2 1536.49 973.155 899.5 772.329 770.391 811.825 705.962 690.738 677.616 865.615 961.417 820.283 867.797 751.4 801.127 849.789 715.354 609.155 765.879 604.699 580.686 821.545 698.955 737.401 564.449
threshold=1.0000000180025095e-35 -44.208551458825006 58.687539969140978 -119.57916270983991 117.8238625669385 20.72852854935218 12.606451612903227 8.8284313725490211 21.348484848484851 -71.783169380290687 0.81666666666666676 7.9682459677419368 8.4440524193548416 7.5173237753882924 28.538352272727277 18.830459770114945 14.857358870967744 6.6507056451612909 2238.8405775693104 17.573655913978499 4.5000000000000009 15.34428879310345 5.3771551724137945 11.157072368421053 17.31129032258065 10.364919354838712 17.123106060606066 5.4445564516129039 16.836021505376348 11.105555555555556
decision_type=2 2 2 2 2 2 2 2 2 2 2 2 2 2 2 2 2 2 2 2 2 2 2 2 2 2 2 2 2 2
left_child=1 3 5 -1 6 8 -4 22 11 10 -5 25 29 -3 16 -16 17 -15 21 20 -20 -18 23 -7 -19 26 27 -2 -29 -11
right_child=2 13 4 9 -6 7 -8 -9 -10 12 -12 -13 -14 14 15 -17 18 24 19 -21 -22 -23 -24 -25 -26 -27 -28 28 -30 -31
leaf_value=-0.95542231261730193 -0.15114381433952423 0.16536294817924502 0.77789191487042808 -0.82561326189474638 0.98637031137943265 0.66742413016882818 0.41541832505088111 0.11619850101898302 -0.23904840764367866 -0.70021155804395674 -0.4588226679091652 0.31276602202228143 -0.23768380953506993 -0.18354943816004129 -0.38473621768052463 -0.092119891740954848 -0.54085400491952906 0.29752308676252143 -0.29080594996719261 -0.29393602445721628 0.050132220824447918 -0.15966339930891993 0.22941039225205465 0.28656613998340841 -0.023775339899239717 -0.14675866408330021 0.25849594083079636 -0.011475660722880136 0.34585959044369785 -0.35729239294926329
leaf_weight=20 42 20 23 22 20 22 95 106 21 20 48 28 55 29 61 52 20 32 23 35 89 32 94 33 27 33 47 42 22 30
leaf_count=20 42 20 23 22 20 22 95 106 21 20 48 28 55 29 61 52 20 32 23 35 89 32 94 33 27 33 47 42 22 30
internal_value=0 -0.238907 0.233962 -0.497903 0.558577 0.142539 0.48607 0.227536 0.0503089 -0.445615 -0.5741 0.0787038 -0.359958 -0.118659 -0.13286 -0.250081 -0.0867072 0.0404076 -0.142919 -0.0851329 -0.0198819 -0.306275 0.306742 0.438909 0.150488 0.0434686 0.0844981 0.00734805 0.111358 -0.49446
internal_weight=0 615 628 195 138 490 118 255 235 175 70 214 105 420 400 113 287 88 199 147 112 52 149 55 59 186 153 106 64 50
internal_count=1243 615 628 195 138 490 118 255 235 175 70 214 105 420 400 113 287 88 199 147 112 52 149 55 59 186 153 106 64 50
is_linear=0
shrinkage=0.05


Tree=22
num_leaves=31
num_cat=0
split_feature=46 46 46 46 46 19 46 13 27 10 46 39 10 37 20 7 19 10 37 11 4 25 34 9 34 37 28 14 46 9
split_gain=25083.7 9795.32 4403.38 1684.04 1538.05 1331.44 853.097 746.227 737.209 718.086 695.277 732.672 691.31 958.563 813.967 676.887 623.391 566.097 564.808 539.499 538.03 705.879 665.009 525.047 519.586 515.393 638.465 509.415 493.602 832.54
threshold=16.496678486325894 -44.208551458825006 76.511906596261056 -119.57916270983991 -10.165528699770219 28.187026515151519 44.900251013264786 19.803225806451618 5.8036684782608701 24.580208333333335 -71.783169380290687 0.81666666666666676 21.666360294117649 3.3892005610098184 25.737634408602155 14.203448275862071 8.4440524193548416 20.481554677206855 2.3514705882352946 61.599555061179096 19.423563218390807 14.77772177419355 12.594117647058825 16.836021505376348 11.300333704115685 2.7459677419354844 18.969669117647062 11.105555555555556 -17.251758678921302 17.718475073313787
decision_type=2 2 2 2 2 2 2 2 2 2 2 2 2 2 2 2 2 2 2 2 2 2 2 2 2 2 2 2 2 2
left_child=1 3 6 -1 20 17 7 12 -6 18 11 -5 13 15 -14 -2 27 -4 -10 -9 28 -22 24 -18 -23 -20 -27 -12 29 -3
right_child=2 4 5 10 8 -7 -8 19 9 -11 16 -13 14 -15 -16 -17 23 -19 25 -21 21 22 -24 -25 -26 26 -28 -29 -30 -31
leaf_value=-0.90765118390321742 0.24019460620890773 -0.2080361456567541 0.70658386516571048 -0.78433260267431093 -0.27535179739906673 0.99005654782056818 0.34114697912141034 -0.13695760975990975 -0.20059280021737022 0.25105375845098132 -0.66520098179578779 -0.4358815344671409 0.18545790588533559 0.38289797555344807 0.52435067751828368 -0.072920772035916653 -0.34257969485861917 0.40022962381573102 0.18185420407189265 0.16143925239642462 -0.052719836640689112 -0.34839417964220049 -0.53262473392486576 -0.021434489125385883 -0.019384801983833314 -0.040649153500023051 0.24620539112524553 -0.33942777504523597 0.033413791825186535 0.10209602763255438
leaf_weight=20 28 109 25 22 21 20 115 28 30 33 20 48 37 30 34 45 35 38 45 33 36 30 25 20 20 164 22 30 53 27
leaf_count=20 28 109 25 22 21 20 115 28 30 33 20 48 37 30 34 45 35 38 45 33 36 30 25 20 20 164 22 30 53 27
internal_value=0 -0.164222 0.307205 -0.473008 -0.0663144 0.634632 0.229558 0.174951 0.0108511 0.0312942 -0.423334 -0.545395 0.227706 0.144961 0.347745 0.0471783 -0.34196 0.521799 0.00350848 0.0244702 -0.147338 -0.234712 -0.322069 -0.2258 -0.21679 0.0300151 -0.00672012 -0.469737 -0.0960234 -0.146466
internal_weight=0 810 433 195 615 83 350 235 315 294 175 70 174 103 71 73 105 63 261 61 300 111 75 55 50 231 186 50 189 136
internal_count=1243 810 433 195 615 83 350 235 315 294 175 70 174 103 71 73 105 63 261 61 300 111 75 55 50 231 186 50 189 136
is_linear=0
shrinkage=0.05


Tree=23
num_leaves=31
num_cat=0
split_feature=46 46 46 46 38 46 46 11 46 5 13 15 1 20 36 29 23 23 11 33 44 21 21 36 11 5 24 2 25 28
split_gain=22711.8 6229.95 6090.23 1903.07 1299.55 905.565 755.156 725.805 834.701 721.959 673.47 750.933 709.018 643.121 913.267 774.327 637.302 624.307 1068.34 700.091 597.984 725.145 586.135 639.459 620.259 646.312 582.376 559.682 528.729 523.169
threshold=1.0000000180025095e-35 -52.494905637389131 44.900251013264786 101.2464668653936 31.941818181818189 -28.684008099933632 16.496678486325894 59.451041666666676 76.511906596261056 14.538352272727275 19.803225806451618 12.571212121212122 28.467741935483875 28.703125000000004 5.6189516129032269 20.532291666666669 15.095262096774196 18.190524193548391 58.968245967741943 11.887500000000001 7.5000000000000009 57.606451612903236 60.579796264855695 7.4924242424242431 61.985294117647065 14.984848484848486 13.035759897828866 61.123106060606069 15.240384615384617 17.618951612903228
decision_type=2 2 2 2 2 2 2 2 2 2 2 2 2 2 2 2 2 2 2 2 2 2 2 2 2 2 2 2 2 2
left_child=1 4 6 7 9 17 22 8 26 -1 11 12 20 15 -15 16 -7 19 -19 -3 -8 -22 23 -2 25 27 -4 -24 -12 -17
right_child=2 5 3 -5 -6 13 10 -9 -10 -11 28 -13 -14 14 -16 29 -18 18 -20 -21 21 -23 24 -25 -26 -27 -28 -29 -30 -31
leaf_value=-0.48088990656334324 0.032763063325955154 -0.48516149657113217 0.51347307572441714 0.79402083270251755 -0.82836840941260259 0.33602432737296284 -0.12103992227626884 0.27327821023505311 0.72148528504371656 -0.16688433858481322 0.16338143902830782 0.49669080149559747 0.33464753639941314 0.094042189419269562 -0.29692610295142158 -0.037005994356302328 -0.0021302037676306147 0.032237117034806445 -0.40121971844207671 -0.19359492057561875 -0.032483286667486719 0.27956683773260854 0.0791743154932813 -0.25563290003558686 0.34729228073900398 0.27745701670646666 0.18140737472668939 -0.22898472495701003 -0.13138476229947191 -0.24018064256580104
leaf_weight=109 57 35 31 32 24 22 23 87 25 22 32 21 49 20 59 129 38 44 21 50 29 52 41 29 22 23 23 23 29 42
leaf_count=109 57 35 31 32 24 22 23 87 25 22 32 21 49 20 59 129 38 44 21 50 29 52 41 29 22 23 23 23 29 42
internal_value=0 -0.215975 0.211504 0.440965 -0.490124 -0.123598 0.105845 0.372906 0.482622 -0.428156 0.166204 0.216321 0.177838 -0.0747986 -0.197947 -0.032683 0.12186 -0.224451 -0.107803 -0.313652 0.103957 0.167845 0.0331055 -0.0644867 0.110105 0.0501265 0.372038 -0.0315703 0.0232467 -0.0869085
internal_weight=0 615 628 198 155 460 430 166 79 131 235 174 153 310 79 231 60 150 65 85 104 81 195 86 109 87 54 64 61 171
internal_count=1243 615 628 198 155 460 430 166 79 131 235 174 153 310 79 231 60 150 65 85 104 81 195 86 109 87 54 64 61 171
is_linear=0
shrinkage=0.05


Tree=24
num_leaves=31
num_cat=0
split_feature=46 46 46 38 46 46 46 30 22 3 15 21 36 32 42 8 13 15 1 29 2 5 32 22 32 11 33 44 21 19
split_gain=20518.1 6812.37 4620.08 1804.52 1721.5 1114.62 879.47 821.56 1104.12 699.263 657.789 681.072 1312.15 677.553 645.897 611.914 607.807 677.717 639.888 570.834 747.104 666.252 887.78 572.767 621.184 566.039 540.476 539.681 654.444 512.286
threshold=-9.3782066953340273 44.900251013264786 -69.5635962302715 27.878787878787882 112.88277265468425 16.496678486325894 -44.208551458825006 54.474137931034491 5.1311827956989253 6.1125000000000007 14.046432062561097 60.579796264855695 7.338541666666667 18.12701612903226 2221.1779579698064 9.4388888888888918 19.803225806451618 12.571212121212122 28.467741935483875 21.650705645161292 63.67816091954024 13.589978448275863 19.803225806451618 4.0678160919540236 20.246212121212125 57.639784946236567 12.682459677419358 7.5000000000000009 57.606451612903236 15.776988636363638
decision_type=2 2 2 2 2 2 2 2 2 2 2 2 2 2 2 2 2 2 2 2 2 2 2 2 2 2 2 2 2 2
left_child=2 5 3 26 7 10 -4 8 -3 15 11 13 -13 29 -11 -9 17 18 27 23 21 22 25 -8 -25 -21 -1 -7 -29 -2
right_child=1 4 6 -5 -6 16 19 9 -10 14 -12 12 -14 -15 -16 -17 -18 -19 -20 20 -22 -23 -24 24 -26 -27 -28 28 -30 -31
leaf_value=-0.52449694334291941 -0.086008948094344562 0.82572008550167098 -0.30171219113748521 -0.94531534605700041 0.81588808707892901 -0.11498792339116336 0.16902395324273545 0.09223087033692827 0.30662688604955163 0.59991081346725605 0.24861633302988828 -0.045032619716891764 0.26164971432595885 -0.24956517214684384 0.27162859513153953 0.39453285264854254 0.022084355769587345 0.47185625916435603 0.31791515613392907 -0.16895374171435834 -0.46585653508486957 0.053854270586101663 -0.029392395085758635 -0.14691769770979882 0.1469771995430901 -0.49473327990621335 -0.22310637505281541 -0.030859119278089753 0.26558849926178274 0.20357067457267217
leaf_weight=51 56 20 100 23 24 23 22 47 21 29 27 102 53 46 31 26 61 21 49 24 23 29 36 125 21 30 21 29 52 21
leaf_count=51 56 20 100 23 24 23 22 47 21 29 27 102 53 46 31 26 61 21 49 24 23 29 36 125 21 30 21 29 52 21
internal_value=0 0.168043 -0.245576 -0.559756 0.418917 0.0760559 -0.172778 0.364162 0.559843 0.303839 0.0130008 -0.00988276 0.059833 -0.0977359 0.430298 0.1999 0.157893 0.205505 0.168946 -0.131186 -0.204985 -0.154565 -0.221722 -0.0688075 -0.104645 -0.349942 -0.436591 0.0987593 0.159453 -0.00703269
internal_weight=0 738 505 95 198 540 410 174 41 133 305 278 155 123 60 73 235 174 153 310 142 119 90 168 146 54 72 104 81 77
internal_count=1243 738 505 95 198 540 410 174 41 133 305 278 155 123 60 73 235 174 153 310 142 119 90 168 146 54 72 104 81 77
is_linear=0
shrinkage=0.05


Tree=25
num_leaves=31
num_cat=0
split_feature=46 46 46 38 46 46 46 27 25 14 15 13 27 27 18 13 33 2 14 12 42 29 12 30 3 26 8 21 39 16
split_gain=18562.5 5094.61 5017.75 1350.13 1302.12 1200.43 1027.79 911.113 763.278 748.233 745.687 949.65 711.261 635.422 788.659 828.433 728.063 614.449 613.785 938.964 599.63 953.789 878.564 571.107 586.837 555.421 499.678 559.337 485.39 484.914
threshold=1.0000000180025095e-35 -66.435237408838006 58.687539969140978 27.878787878787882 -28.684008099933632 117.8238625669385 28.869282504469997 10.660416666666668 12.606451612903227 9.7386363636363651 12.629166666666668 19.236111111111114 10.515640273704792 7.5469208211143703 2.5968750000000003 16.123106060606066 11.589978448275863 59.502424242424247 10.381048387096776 5.4031250000000011 2288.3244696366673 20.532291666666669 5.2880184331797242 60.837285902503304 6.1125000000000007 14.067972350230416 7.9160879629629637 61.190524193548391 0.55000000000000016 13.467708333333336
decision_type=2 2 2 2 2 2 2 2 2 2 2 2 2 2 2 2 2 2 2 2 2 2 2 2 2 2 2 2 2 2
left_child=1 3 6 -1 7 8 12 9 -4 17 23 -12 13 18 -15 -16 28 -3 19 -2 21 22 -6 24 -11 -20 -10 -28 -17 -23
right_child=2 4 5 -5 20 -7 -8 -9 26 10 11 -13 -14 14 15 16 -18 -19 25 -21 -22 29 -24 -25 -26 -27 27 -29 -30 -31
leaf_value=-0.41576235079765322 0.35238543762402103 -0.29445739713311198 0.65526306460732997 -0.84004632711410532 -0.032794830479003771 0.81572932031005618 0.21123745641671121 0.035418866707810331 0.15226612562934561 -0.51296835382365524 -0.76004869744181636 -0.27279870344325902 -0.12276312666427758 -0.067156887887155306 0.043607432835807022 -0.0031085029892299488 0.44907350605580865 0.046579912304878235 0.063532000496273944 -0.12097587205469609 -0.2185948707094347 0.099471830985238485 0.38773423200068269 -0.064700677218260602 -0.19165889312823614 -0.27411072747460724 0.29367687691535271 0.58876371893745205 0.32172920846420788 -0.11508184798274722
leaf_weight=75 22 25 23 25 27 20 180 28 27 27 20 20 45 34 52 23 41 28 21 20 54 31 23 27 30 29 42 26 23 175
leaf_count=75 22 25 23 25 27 20 180 28 27 27 20 20 45 34 52 23 41 28 21 20 54 31 23 27 30 29 42 26 23 175
internal_value=0 -0.195252 0.19121 -0.521833 -0.131838 0.45753 0.116206 -0.229606 0.396818 -0.271531 -0.33874 -0.516424 0.0610262 0.0922357 0.148697 0.201496 0.295865 -0.114287 -0.0139356 0.126975 -0.0671851 -0.0352471 0.160649 -0.254129 -0.343858 -0.132301 0.334247 0.406504 0.15931 -0.0827946
internal_weight=0 615 628 100 515 138 490 205 118 177 124 40 310 265 173 139 87 53 92 42 310 256 50 84 57 50 95 68 46 206
internal_count=1243 615 628 100 515 138 490 205 118 177 124 40 310 265 173 139 87 53 92 42 310 256 50 84 57 50 95 68 46 206
is_linear=0
shrinkage=0.05


Tree=26
num_leaves=31
num_cat=0
split_feature=46 46 46 46 1 38 23 46 6 33 36 34 18 21 32 8 2 20 12 5 40 21 23 37 27 1 32 31 5 19
split_gain=16842.9 5817.54 3520.05 1288.27 1074.72 918.422 953.503 764.486 655.837 915.177 734.99 600.454 576.305 567.005 582.239 756.329 690.569 664.917 572.483 554.536 546.78 655.851 856.48 648.684 580.474 542.637 841.785 817.717 858.845 668.983
threshold=10.187032749342736 -44.208551458825006 71.107605060755319 -112.88277265468422 30.873814041745735 4.1473214285714297 25.814990512333967 -17.251758678921302 14.205469845722302 12.655913978494626 6.285786290322581 10.539818548387098 2.6614583333333335 58.711981566820285 19.803225806451618 8.8360215053763458 58.396673387096783 28.723011363636367 4.5080645161290329 13.555443548387098 1.0000000180025095e-35 61.278494623655924 15.370833333333335 3.3832035595105681 9.0655913978494649 28.104278074866311 19.936491935483875 5.338541666666667 13.136574074074076 13.276988636363638
decision_type=2 2 2 2 2 2 2 2 2 2 2 2 2 2 2 2 2 2 2 2 2 2 2 2 2 2 2 2 2 2
left_child=1 3 5 -1 12 -2 25 13 9 -5 -10 19 -4 -3 15 16 -15 -18 -17 -9 -13 22 -22 24 -23 29 27 28 -27 -7
right_child=2 7 4 8 -6 6 -8 11 10 -11 -12 20 -14 14 -16 18 17 -19 -20 -21 21 23 -24 -25 -26 26 -28 -29 -30 -31
leaf_value=-0.72124273389577864 0.45172882127761843 0.038653966744203828 0.6076527525484563 -0.52472560670452584 0.74141724288463595 0.122969708669962 0.43732202839851375 0.20716140953203044 -0.4043070426417722 -0.15235049900683492 -0.10266804098981717 0.12004342294401593 0.28819392342120409 -0.53208833826439716 -0.024244831280505405 -0.29741130723901421 -0.027048870532409005 -0.40724249559900039 0.017110647987096741 -0.050425063758283054 0.049162365230066438 0.25207891094107787 -0.27803791782685688 -0.1519371010363102 -0.053902751784170838 -0.022212261615729915 -0.040790583768061231 0.41222271732985977 0.27571440360871918 -0.085346398832635922
leaf_weight=25 25 37 20 66 30 119 25 48 36 22 46 36 48 28 47 23 23 23 39 37 28 31 70 44 31 41 35 44 59 57
leaf_count=25 25 37 20 66 30 119 25 48 36 22 46 36 48 28 47 23 23 23 39 37 28 31 70 44 31 41 35 44 59 57
internal_value=0 -0.151744 0.223241 -0.386115 0.492131 0.158177 0.138864 -0.0678861 -0.336832 -0.431632 -0.235095 -0.019164 0.382152 -0.139862 -0.175955 -0.228385 -0.336313 -0.217146 -0.0995669 0.0950355 -0.0596097 -0.0913131 -0.184552 -0.00511105 0.0990881 0.117846 0.179143 0.232599 0.153564 0.0555037
internal_weight=0 740 503 195 98 405 380 545 170 88 82 325 68 220 183 136 74 46 62 85 240 204 98 106 62 355 179 144 100 176
internal_count=1243 740 503 195 98 405 380 545 170 88 82 325 68 220 183 136 74 46 62 85 240 204 98 106 62 355 179 144 100 176
is_linear=0
shrinkage=0.05


Tree=27
num_leaves=31
num_cat=0
split_feature=46 46 46 38 46 46 28 46 11 10 43 5 13 15 7 21 29 8 32 6 27 21 36 31 32 37 14 8 6 47
split_gain=15219.5 5082.74 3475.82 1450.1 1338.27 811.256 686.902 656.701 609.936 828.684 1113.55 645.071 530.68 610.589 557.021 707.175 521.953 519.982 536.392 510.012 652.763 622.828 807.481 598.184 478.378 579.542 542.625 628.441 587.662 524.413
threshold=-9.3782066953340273 44.900251013264786 -71.783169380290687 27.878787878787882 101.2464668653936 16.496678486325894 14.295161290322584 -44.208551458825006 59.451041666666676 23.257053291536057 1.5000000000000002 15.181985294117649 19.803225806451618 12.571212121212122 13.98529411764706 57.606451612903236 18.880471380471384 7.7777217741935489 17.389200561009819 18.307765151515156 10.12451612903226 61.492424242424249 7.3607526881720435 4.8200431034482767 20.153882575757581 3.26969696969697 12.571212121212122 9.3810483870967758 15.745967741935486 2244.6841436584991
decision_type=2 2 2 2 2 2 2 2 2 2 2 2 2 2 2 2 2 2 2 2 2 2 2 2 2 2 2 2 2 2
left_child=2 5 3 -1 8 6 -2 17 11 10 -10 -3 13 14 -7 -16 -9 -4 -19 20 21 -8 -23 -22 26 -26 28 -28 29 -18
right_child=1 4 7 -5 -6 12 19 16 9 -11 -12 -13 -14 -15 15 -17 24 18 -20 -21 23 22 -24 -25 25 -27 27 -29 -30 -31
leaf_value=-0.38590461708073109 -0.18448620209327113 0.50214629311597458 -0.40323566435239261 -0.86865895092487344 0.65749225274776113 0.27979729502808814 -0.019111305002694614 0.12687148895292055 0.29303193412427059 0.47043649515380032 -0.13162414534733846 0.19494680857658386 0.0081899922585389664 0.43239493015266606 -0.14767067145842772 0.1544219066339888 0.092796208560466775 -0.33901160085307702 -0.050600322179104151 0.23813145880041453 0.020633919477462771 0.05931710414927114 0.40690337469180426 -0.33269071355462077 0.097772897425152008 -0.22392502299376896 -0.16660554735891281 0.1876473985967182 -0.33111958769901145 -0.18969620733481388
leaf_weight=70 39 54 39 20 32 51 110 21 38 23 26 25 61 21 26 76 20 28 38 29 25 55 24 23 42 21 31 21 62 92
leaf_count=70 39 54 39 20 32 51 110 21 38 23 26 25 61 21 26 76 20 28 38 29 25 55 24 23 42 21 31 21 62 92
internal_value=0 0.144728 -0.211503 -0.493183 0.361426 0.065272 0.0114777 -0.150416 0.304353 0.213023 0.120515 0.404931 0.13509 0.179578 0.144878 0.0774179 -0.113811 -0.258489 -0.172957 0.0402092 0.0159909 0.0578089 0.164913 -0.148667 -0.1313 -0.00945974 -0.165264 -0.0235419 -0.207618 -0.139251
internal_weight=0 738 505 90 198 540 305 415 166 87 64 79 235 174 153 102 310 105 66 266 237 189 79 48 289 63 226 52 174 112
internal_count=1243 738 505 90 198 540 305 415 166 87 64 79 235 174 153 102 310 105 66 266 237 189 79 48 289 63 226 52 174 112
is_linear=0
shrinkage=0.05


Tree=28
num_leaves=31
num_cat=0
split_feature=46 46 46 38 16 45 1 14 6 14 6 15 46 36 43 13 0 16 34 5 46 13 29 38 27 16 47 38 32 21
split_gain=13759 4729.41 2922.96 1096.82 994.198 748.457 746.259 743.241 730.89 696.913 643.159 666.932 636.064 612.667 583.625 652.425 586.053 568.779 616.665 879.439 960.945 764.328 659.263 554.367 546.055 540.405 529.351 506.6 469.468 530.106
threshold=10.187032749342736 -44.208551458825006 76.511906596261056 31.941818181818189 17.718475073313787 -8.4999999999999982 28.16397849462366 12.96720430107527 16.34983314794216 10.721443965517244 14.205469845722302 12.357419354838711 -20.687674179487654 6.1492869875222826 3.5000000000000004 15.123106060606062 138.50000000000003 12.850389321468301 10.649553571428573 13.377155172413795 -6.9547397997994258 16.067816091954025 23.015625000000004 9.8722826086956541 7.3605769230769242 15.984848484848486 2256.6637232208946 9.7694128787878807 19.87992831541219 60.754310344827594
decision_type=2 2 2 2 2 2 2 2 2 2 2 2 2 2 2 2 2 2 2 2 2 2 2 2 2 2 2 2 2 2
left_child=1 3 5 10 9 8 14 23 25 -4 11 26 -3 -12 -7 -16 -17 -14 -19 20 -20 -21 -23 -8 -22 -2 -1 -27 29 -25
right_child=2 12 4 -5 -6 6 7 -9 -10 -11 13 -13 17 -15 15 16 -18 18 19 21 24 22 -24 28 -26 27 -28 -29 -30 -31
leaf_value=-0.38994654568861115 0.35199612980087602 -0.13689105275238087 0.5345912380218506 -0.6576940776705742 0.70291352212429059 -0.13053985844765389 0.34840033524415714 -0.072396935760974876 0.49525531900043673 0.17138923229649664 -0.41058335183631806 -0.59608656090718737 0.2024380267526095 -0.086783578169221678 0.34697067499160772 -0.070408711796802179 0.20917275157468074 0.065076764011565522 -0.33316649706275375 -0.13947716423056342 -0.27153806601251879 -0.024303412776101721 0.29680499684426093 0.091658112380740259 0.029732367871900284 0.23496012606968486 -0.093320030860957651 -0.10131410172297842 -0.066308659464120873 0.36042304305592554
leaf_weight=53 30 185 25 25 30 42 55 25 26 28 21 27 26 48 20 53 29 98 54 44 21 33 31 43 53 24 21 21 20 32
leaf_count=53 30 185 25 25 30 42 55 25 26 28 21 27 26 48 20 53 29 98 54 44 21 33 31 43 53 24 21 21 20 32
internal_value=0 -0.13715 0.201771 -0.348469 0.472905 0.14819 0.110633 0.180004 0.266812 0.342711 -0.302995 -0.383378 -0.0615403 -0.185331 0.026327 0.0909192 0.0284677 -0.0228184 -0.0403533 -0.0841336 -0.172793 0.020944 0.131233 0.222071 -0.0557633 0.187618 -0.305769 0.0780322 0.148933 0.206331
internal_weight=0 740 503 195 83 420 319 175 101 53 170 101 545 69 144 102 82 360 334 236 128 108 64 150 74 75 74 45 95 75
internal_count=1243 740 503 195 83 420 319 175 101 53 170 101 545 69 144 102 82 360 334 236 128 108 64 150 74 75 74 45 95 75
is_linear=0
shrinkage=0.05


Tree=29
num_leaves=31
num_cat=0
split_feature=45 45 45 1 19 20 38 8 20 18 43 18 38 25 33 11 22 35 4 3 4 23 6 6 11 34 17 44 7 7
split_gain=11283 3083.3 2944.62 1557.84 1520.21 1366.73 1086.75 1101.23 835.348 953.878 774.255 704.24 699.063 640.478 636.524 730.321 610.562 599.019 592.652 633.601 613.15 552.286 713.96 511.121 653.206 508.619 504.476 502.435 957.662 488.154
threshold=-1.0000000180025095e-35 -8.4999999999999982 8.5000000000000018 31.516544117647062 18.484375000000004 30.873814041745735 18.566964285714288 8.4217986314760527 24.206149193548391 2.6720430107526885 3.5000000000000004 3.6614583333333335 3.4430107526881728 13.615530303030305 11.085454545454548 58.966091954022993 8.4256465517241406 16.108387096774198 19.184659090909097 6.075757575757577 20.196774193548389 15.370833333333335 14.596875000000002 13.49193548387097 60.306451612903231 11.140394088669952 6.57820136852395 6.5000000000000009 14.435416666666669 13.784564393939396
decision_type=2 2 2 2 2 2 2 2 2 2 2 2 2 2 2 2 2 2 2 2 2 2 2 2 2 2 2 2 2 2
left_child=1 3 6 12 8 13 11 10 -3 -10 -8 16 -1 -4 25 -16 18 -13 19 21 -20 22 -2 -14 -25 -15 -23 28 -11 -29
right_child=2 4 5 -5 -6 -7 7 -9 9 27 -12 17 23 14 15 -17 -18 -19 20 -21 -22 26 -24 24 -26 -27 -28 29 -30 -31
leaf_value=0.49041425196393845 -0.052248895292480793 0.19208199167624118 -0.038810499370098117 0.74693335205316547 0.2201745426227053 -0.68388342572295147 -0.10312675885532215 -0.068168819671565739 -0.22983497200119826 0.13767502382397653 -0.45842553974817629 -0.41237562157213692 -0.0065327336173504587 -0.60732834614240216 -0.1095973049600919 -0.44740292979404334 0.21969442724667748 -0.06559376111536315 -0.32771494495868686 0.27994612517456213 -0.04444937735428045 0.1008475926660356 0.35224565386772161 0.36064353237366853 0.097249422636297017 -0.28454301658531894 -0.19929413795471193 -0.099022402803623871 -0.29115931997696559 0.12607117444621746
leaf_weight=31 24 56 25 20 137 23 23 81 45 23 46 20 20 26 48 24 29 33 25 24 81 21 20 68 36 23 42 31 30 108
leaf_count=31 24 56 25 20 137 23 23 81 45 23 46 20 20 26 48 24 29 33 25 24 81 21 20 68 36 23 42 31 30 108
internal_value=0 0.154696 -0.146695 0.331632 0.0826876 -0.325639 -0.0822139 -0.193208 0.0184019 -0.0226364 -0.339993 -0.0300224 0.278045 -0.269203 -0.316805 -0.222199 0.00313894 -0.196455 -0.0233594 0.0477641 -0.111257 -0.00431416 0.131612 0.224952 0.269469 -0.455817 -0.0992469 0.0259257 -0.105061 0.0758704
internal_weight=0 605 638 175 430 169 469 150 293 237 69 319 155 146 121 72 266 53 237 131 106 107 44 124 104 49 63 192 53 139
internal_count=1243 605 638 175 430 169 469 150 293 237 69 319 155 146 121 72 266 53 237 131 106 107 44 124 104 49 63 192 53 139
is_linear=0
shrinkage=0.05


Tree=30
num_leaves=31
num_cat=0
split_feature=46 46 46 38 46 19 46 10 18 22 23 21 10 31 33 47 42 37 10 32 17 3 42 29 31 14 47 36 23 16
split_gain=11319.5 3233.36 3030 1188.61 895.716 894.774 841.882 701.75 625.432 587.346 745.408 545.639 564.201 529.53 831.446 966.619 904.231 884.177 546.506 542.001 517.168 604.914 510.712 767.679 695.967 470.387 555.397 463.156 538.622 944.312
threshold=1.0000000180025095e-35 -71.783169380290687 71.107605060755319 27.878787878787882 28.869282504469997 28.187026515151519 -28.684008099933632 23.898275862068967 2.6614583333333335 5.6380952380952394 14.754301075268819 60.963541666666679 20.618181818181821 5.2295698924731191 12.952083333333336 2281.4064716597986 2260.406134934005 3.4217986314760513 23.143939393939398 17.426344086021508 6.1270161290322589 5.5080645161290329 2288.3244696366673 20.532291666666669 4.5236895161290329 11.589978448275863 2258.763392916409 5.6073781291172606 16.180194805194809 18.921875000000004
decision_type=2 2 2 2 2 2 2 2 2 2 2 2 2 2 2 2 2 2 2 2 2 2 2 2 2 2 2 2 2 2
left_child=1 3 4 -1 13 8 9 11 -4 10 -3 20 -13 19 15 16 17 18 -15 25 -6 -22 23 24 -8 26 -2 -25 -29 -30
right_child=2 6 5 -5 7 -7 22 -9 -10 -11 -12 12 -14 14 -16 -17 -18 -19 -20 -21 21 -23 -24 27 -26 -27 -28 28 29 -31
leaf_value=-0.33224290909511706 -0.19071089284760612 -0.17973816187723596 0.53153853236387183 -0.76930914856493482 0.22439589357624451 0.67754771968592775 -0.03359549689292908 0.41308980871524126 0.22201043059136355 -0.10539872801870619 -0.47894056472927338 0.42560105370036488 0.13594518136233091 -0.030189380521575611 0.24833950102329255 0.21936331145141438 -0.38135687353621639 0.20942723841770838 -0.36761399716138843 0.35348435640335085 0.14315046271899853 -0.13014806447550656 -0.19200808296876926 0.16317760735750197 0.33949087250232696 0.1614814702179283 0.1011647176093016 0.013470020344015211 -0.22835006629945812 0.1510990231484175
leaf_weight=70 28 68 24 20 42 23 25 28 51 117 30 29 40 30 24 23 28 23 20 20 41 40 54 20 25 75 39 75 91 20
leaf_count=70 28 68 24 20 42 23 25 28 51 117 30 29 40 30 24 23 28 23 20 20 41 40 54 20 25 75 39 75 91 20
internal_value=0 -0.152472 0.149316 -0.429369 0.102089 0.404725 -0.105004 0.179248 0.321059 -0.181033 -0.271331 0.145146 0.257685 0.0473313 -0.021038 -0.0731756 -0.139793 -0.0471388 -0.165159 0.109792 0.0820152 0.00818823 -0.0522746 -0.0227996 0.152948 0.0754692 -0.0208131 -0.0654567 -0.090041 -0.159981
internal_weight=0 615 628 90 530 98 525 220 75 215 98 192 69 310 148 124 101 73 50 162 123 81 310 256 50 142 67 206 186 111
internal_count=1243 615 628 90 530 98 525 220 75 215 98 192 69 310 148 124 101 73 50 162 123 81 310 256 50 142 67 206 186 111
is_linear=0
shrinkage=0.05


Tree=31
num_leaves=31
num_cat=0
split_feature=45 45 41 1 19 20 38 36 37 20 36 29 12 41 1 11 18 38 27 47 20 9 23 28 40 37 30 29 34 21
split_gain=9219.27 2561.01 2431.31 1334.23 1243.01 1065.73 878.011 827.211 809.913 794.481 697.828 683.653 762.132 839.885 670.723 653.525 609.898 599.342 573.717 573.314 559.673 604.045 551.852 597.752 554.51 498.461 467.08 551.84 465.882 426.91
threshold=-1.0000000180025095e-35 -8.4999999999999982 2218.5924964064848 31.516544117647062 18.484375000000004 30.873814041745735 16.877791563275437 8.5156402737047916 3.5645833333333337 23.761592741935488 5.6486676016830311 25.237356321839084 5.4805097451274376 2234.0669100225155 26.016129032258068 58.508064516129039 2.655711206896552 3.4430107526881728 10.269657258064518 2250.2105555203975 28.499511241446729 13.870833333333335 14.279220779220781 14.788363171355501 0.91666666666666685 2.6189516129032264 58.966629588431594 20.061553030303035 12.281524926686219 61.889112903225815
decision_type=2 2 2 2 2 2 2 2 2 2 2 2 2 2 2 2 2 2 2 2 2 2 2 2 2 2 2 2 2 2
left_child=1 3 5 17 8 -2 7 10 9 -3 -4 12 13 -12 25 -14 -11 -1 -6 -15 -16 -22 -18 -24 -25 -8 27 -19 -10 -17
right_child=2 4 6 -5 18 -7 14 -9 28 16 11 -13 15 19 20 29 22 26 -20 -21 21 -23 23 24 -26 -27 -28 -29 -30 -31
leaf_value=0.44813718210545278 -0.27091554760932923 0.22681413417948143 0.19125979111458247 0.68543132469058043 0.24804992669740239 -0.67248879879713064 -0.45853626158620631 0.27559207687154413 0.078326341581037823 -0.24726986374173845 -0.33809418058821139 -0.32904857781529429 0.18148862153291703 0.18447972682304681 0.0785592376952991 0.059450337228675688 -0.24708959000266117 0.29254461833408901 -0.012884180362407977 -0.1080601578053919 0.084090409427881249 -0.22312622716650368 -0.21353476898899923 -0.022911261525005104 0.19067663082054684 -0.18347396550700068 0.35114097258931887 0.035741296822491747 0.38245014563202862 -0.25333331793546682
leaf_weight=31 95 28 26 20 111 20 28 20 34 35 35 25 50 20 32 24 23 35 26 103 20 80 24 80 49 40 37 52 20 20
leaf_count=31 95 28 26 20 111 20 28 20 34 35 35 25 50 20 32 24 23 35 26 103 20 80 24 80 49 40 37 52 20 20
internal_value=0 0.139835 -0.132602 0.30109 0.0742078 -0.340754 -0.0868323 -0.0358543 0.0160778 -0.0234364 -0.0564118 -0.079659 -0.054918 -0.121987 -0.169162 0.0578146 -0.056645 0.251497 0.19853 -0.0604927 -0.103442 -0.161683 -0.0187366 0.015591 0.058219 -0.296735 0.202337 0.139053 0.190965 -0.0827241
internal_weight=0 605 638 175 430 115 523 323 293 239 303 277 252 158 200 94 211 155 137 123 132 100 176 153 129 68 124 87 54 44
internal_count=1243 605 638 175 430 115 523 323 293 239 303 277 252 158 200 94 211 155 137 123 132 100 176 153 129 68 124 87 54 44
is_linear=0
shrinkage=0.05


Tree=32
num_leaves=31
num_cat=0
split_feature=46 46 46 25 6 46 46 27 15 30 35 28 36 10 12 21 39 4 15 16 5 29 6 35 18 10 2 26 32 20
split_gain=9320.81 2640.43 2532.55 959.096 704.561 688.451 650.931 743.741 631.141 675.374 558.339 765.362 542.588 597.797 937.835 523.871 518.479 605.495 565.623 538.262 561.642 629.256 615.336 534.208 515.209 493.048 474.565 455.122 531.617 459.817
threshold=-0.61122551674702652 -71.783169380290687 67.398806591989356 19.693939393939399 20.06451612903226 28.869282504469997 -28.684008099933632 10.660416666666668 12.629166666666668 62.156862745098046 20.283333333333335 18.142424242424244 5.8449519230769242 23.898275862068967 5.9384469696969706 60.631481481481487 1.0000000180025095e-35 24.538720538720543 13.856960408684548 18.954459203036055 12.381048387096776 21.193750000000005 14.96720430107527 15.640625000000002 3.0151515151515156 20.481554677206855 58.44580645161291 16.237903225806456 15.984375000000002 25.114516129032264
decision_type=2 2 2 2 2 2 2 2 2 2 2 2 2 2 2 2 2 2 2 2 2 2 2 2 2 2 2 2 2 2
left_child=1 3 5 -1 25 10 7 8 9 24 11 26 -7 14 15 -14 -8 18 19 20 21 -18 -22 -23 -3 -4 -2 28 29 -28
right_child=2 6 4 -5 -6 12 16 -9 -10 -11 -12 -13 13 -15 -16 -17 17 -19 -20 -21 22 23 -24 -25 -26 -27 27 -29 -30 -31
leaf_value=-0.30284552958394806 -0.12677711138071923 -0.2923773147039494 0.43812739779241383 -0.69545278333127503 0.58706500363349912 -0.030659784283488992 -0.23635021457166383 0.067799613575140638 -0.34827947794020964 0.12498209729790688 -0.14615395730095251 0.27432451209445535 0.13227213295442716 0.43696887727763339 -0.078122743332024791 0.34064821139821472 0.18566366892088862 -0.28414630872153102 0.19902425741155944 0.11938366084966973 -0.057054211829196323 0.060986647124473874 -0.32763702332535211 -0.26981864506783698 -0.07864118919328407 0.18775095840295156 0.040237265229225161 -0.11657602071762085 0.037843706137350497 0.34585185069590807
leaf_weight=70 39 59 32 20 25 32 33 30 52 20 35 38 70 22 33 53 34 21 30 46 55 26 34 23 54 51 20 30 124 32
leaf_count=70 39 59 32 20 25 32 33 30 52 20 35 38 70 22 33 53 34 21 30 46 55 26 34 23 54 51 20 30 124 32
internal_value=0 -0.140151 0.13376 -0.390092 0.35437 0.0886355 -0.0966408 -0.163134 -0.200583 -0.142836 0.0422389 0.0655384 0.158893 0.19297 0.15856 0.22206 -0.049303 -0.0263567 -0.00452772 -0.0325395 -0.0731701 0.0203902 -0.160423 -0.0942893 -0.190238 0.284282 0.0331552 0.0634337 0.0941172 0.228308
internal_weight=0 607 636 90 108 528 517 215 185 133 318 283 210 178 156 123 302 269 248 218 172 83 89 49 113 83 245 206 176 52
internal_count=1243 607 636 90 108 528 517 215 185 133 318 283 210 178 156 123 302 269 248 218 172 83 89 49 113 83 245 206 176 52
is_linear=0
shrinkage=0.05


Tree=33
num_leaves=31
num_cat=0
split_feature=46 46 46 38 46 30 22 28 4 42 6 13 19 13 10 32 38 43 6 5 37 10 35 10 29 28 34 33 34 37
split_gain=8441.99 2796.78 1988.72 948.526 895.742 616.837 910.75 736.302 743.432 570.763 530.937 484.157 452.748 646.371 646.469 765.91 642.817 597.607 598.408 590.912 701.227 541.484 435.169 527.187 728.545 571.836 552.784 756.034 547.849 573.409
threshold=-9.3782066953340273 44.900251013264786 -71.783169380290687 27.878787878787882 117.8238625669385 54.474137931034491 5.1311827956989253 16.865151515151521 18.507575757575761 2212.2234839637717 20.364182692307697 13.395432692307695 4.202445652173914 19.033482142857146 24.247306034482762 20.25403225806452 16.421875000000004 7.5000000000000009 13.850446428571431 14.499511241446728 2.8643678160919546 22.310096153846157 12.756661991584854 21.650705645161292 23.015625000000004 14.546920821114371 12.898275862068967 11.589978448275863 12.241666666666669 3.0307765151515156
decision_type=2 2 2 2 2 2 2 2 2 2 2 2 2 2 2 2 2 2 2 2 2 2 2 2 2 2 2 2 2 2
left_child=2 10 3 -1 5 6 -3 8 -7 -9 22 -4 -13 14 15 16 17 -14 -19 20 -15 -18 -2 25 28 -24 -26 -28 29 -25
right_child=1 4 11 -5 -6 7 -8 9 -10 -11 -12 12 13 19 -16 -17 21 18 -20 -21 -22 -23 23 24 26 -27 27 -29 -30 -31
leaf_value=-0.28382304854158846 -0.12908788154254089 0.64450313396751879 0.072429985643336275 -0.67426088720560085 0.5857993150502443 0.15802251823867364 0.17305172795341128 0.2147525873449114 0.47214765971706757 -0.09969567723812596 0.24011226796052038 -0.35287661243762292 0.13611579781228847 0.088311351936411209 -0.38666020535553497 0.065203924175529254 -0.38277625864257619 -0.304456553206994 -0.05287533308689793 0.23064489215612413 -0.21369344993145206 -0.092894732020795345 -0.19079224548169546 0.19439559189433403 0.055483852018570083 0.028529867006059223 0.14943570689513133 0.54769262779842731 -0.10956970332190395 -0.030082689762115478
leaf_weight=70 37 20 33 20 20 48 21 27 31 31 34 21 22 37 27 42 49 39 60 21 40 24 35 66 29 197 26 22 44 50
leaf_count=70 37 20 33 20 20 48 21 27 31 31 34 21 22 37 27 42 49 39 60 21 40 24 35 66 29 197 26 22 44 50
internal_value=0 0.107789 -0.157521 -0.370587 0.268533 0.232885 0.403028 0.181967 0.281287 0.0466854 0.0488495 -0.111314 -0.127188 -0.114059 -0.154899 -0.128384 -0.170295 -0.0996015 -0.151983 -0.00445587 -0.0685743 -0.287473 0.0359978 0.0490217 0.10147 -0.00455752 0.227839 0.33197 0.0406557 0.0976377
internal_weight=0 738 505 90 198 178 41 137 79 58 540 415 382 361 263 236 194 121 99 98 77 73 506 469 237 232 77 48 160 116
internal_count=1243 738 505 90 198 178 41 137 79 58 540 415 382 361 263 236 194 121 99 98 77 73 506 469 237 232 77 48 160 116
is_linear=0
shrinkage=0.05


Tree=34
num_leaves=31
num_cat=0
split_feature=45 45 45 1 19 20 43 3 3 38 8 18 43 22 33 11 6 42 35 38 23 22 25 3 25 0 42 37 30 11
split_gain=6846.26 1941.28 1848.47 1074.83 1000.66 865.521 744.897 928.601 1056.9 728.473 858.83 592.929 591.959 566.133 519.927 562.459 586.623 511.774 478.644 475.709 472.183 553.862 518.307 572.831 438.567 435.82 538.401 432.811 417.658 490.364
threshold=-1.0000000180025095e-35 -8.4999999999999982 8.5000000000000018 31.516544117647062 18.484375000000004 30.873814041745735 6.5000000000000009 4.221598877980365 7.8153409090909101 18.566964285714288 8.4217986314760527 3.6486676016830297 3.5000000000000004 8.4256465517241406 8.4415292353823101 58.835668103448285 14.205469845722302 2236.3641402472313 16.108387096774198 3.4430107526881728 15.677995391705071 5.7680491551459303 14.861904761904764 5.226041666666668 13.915898617511521 143.00000000000003 2266.1237850672269 3.4354166666666672 58.966629588431594 60.233592880978868
decision_type=2 2 2 2 2 2 2 2 2 2 2 2 2 2 2 2 2 2 2 2 2 2 2 2 2 2 2 2 2 2
left_child=1 3 9 19 6 14 7 -3 17 11 12 13 -11 20 -4 -16 -17 -9 -13 -1 22 -22 23 -2 -8 -6 -27 -19 29 -21
right_child=2 4 5 -5 25 -7 24 8 -10 10 -12 18 -14 -15 15 16 -18 27 -20 28 21 -23 -24 -25 -26 26 -28 -29 -30 -31
leaf_value=0.39157374236852893 0.14605351345879691 -0.32294388276338581 -0.43514451045881625 0.60585930392146115 0.28216370543731112 -0.54113448715728263 0.33340836817568004 0.22481975440274585 -0.2887586036214122 -0.076569296743558807 -0.04363149886513934 -0.35747970910299398 -0.38723790269830954 0.22323520928621293 -0.09518087239277255 -0.51617149472236634 -0.14201956174590372 -0.043952292741696333 -0.053875077822629153 0.19886363817934405 -0.22868780271174055 -0.010879098681797242 0.21453272983049737 -0.22325444475171113 0.069264568019319669 -0.097901411851247164 0.18440610996463844 0.17495283871118367 0.31329968476768688 -0.050877972493569061
leaf_weight=31 21 25 22 20 56 23 22 33 27 23 81 21 46 28 82 20 22 102 34 57 39 116 39 21 55 24 57 29 37 30
leaf_count=31 21 25 22 20 56 23 22 33 27 23 81 21 46 28 82 20 22 102 34 57 39 116 39 21 55 24 57 29 37 30
internal_value=0 0.120502 -0.114269 0.260897 0.0633644 -0.256047 0.0112082 -0.0363913 0.00111554 -0.0631805 -0.154055 -0.0204498 -0.283682 0.0106642 -0.211136 -0.171393 -0.320187 0.0488387 -0.169797 0.216386 -0.0145561 -0.0656826 0.0832785 -0.0386005 0.144734 0.17491 0.100759 0.00450762 0.172589 0.112746
internal_weight=0 605 638 175 430 169 293 216 191 469 150 319 69 264 146 124 42 164 55 155 236 155 81 42 77 137 81 131 124 87
internal_count=1243 605 638 175 430 169 293 216 191 469 150 319 69 264 146 124 42 164 55 155 236 155 81 42 77 137 81 131 124 87
is_linear=0
shrinkage=0.05


Tree=35
num_leaves=31
num_cat=0
split_feature=42 41 41 20 30 42 33 28 31 47 15 25 15 20 33 7 41 1 29 38 21 9 41 37 9 9 29 8 33 23
split_gain=5277.29 2364.43 2338.56 1610.54 911.113 892.681 831.067 833.007 827.39 745.65 738.821 707.9 698.309 644.028 764.669 622.522 616.477 695.686 566.802 705.74 599.248 563.486 535.648 508.785 706.607 752.075 554.677 522.621 563.018 532.523
threshold=2260.406134934005 2288.3244696366673 2277.4355286261557 33.169981060606069 62.428931451612911 2285.0096061282816 12.698588709677422 17.618951612903228 5.0615530303030312 2261.7185186803395 10.539818548387098 12.694827586206898 12.523689516129034 27.716907675194665 10.629032258064518 13.114224137931037 2256.4545453926589 27.287683823529417 24.772727272727277 4.1473214285714297 63.442222222222227 15.061553030303033 2233.1016520731714 2.3442887931034488 15.647580645161293 15.065591397849465 21.507575757575761 8.6094819159335305 11.934408602150539 18.656891495601176
decision_type=2 2 2 2 2 2 2 2 2 2 2 2 2 2 2 2 2 2 2 2 2 2 2 2 2 2 2 2 2 2
left_child=2 3 9 5 11 6 7 10 -9 18 15 21 -12 14 -14 -2 -7 -18 19 -1 -20 -4 -21 26 25 -25 -24 29 -29 -26
right_child=1 -3 4 -5 -6 16 -8 8 -10 -11 12 -13 13 -15 -16 -17 17 -19 20 22 -22 -23 23 24 27 -27 -28 28 -30 -31
leaf_value=0.29921671690849155 -0.0068587098609317436 0.094403289387324701 0.20739366136999293 -0.57016735786483408 0.57079729189475381 -0.29786707526262929 0.095241175235991016 -0.100765306612148 -0.46102446645498274 0.34053225785493857 0.086819577028696568 0.15409676042107637 0.16627866505086422 -0.357121886809667 -0.23319995597652765 -0.34445590600371362 -0.0049624622558002117 -0.29917008432094011 -0.34391351468861103 -0.18478179044193693 0.034242999824610626 0.56134407857190005 0.057240349770738531 0.087028045881362204 -0.0053256277653683983 0.43340039306879047 -0.28388391631570731 0.04247522918241365 -0.22469180108358466 0.260208320101457
leaf_weight=26 22 133 22 21 21 98 59 34 30 20 87 114 25 21 23 36 54 32 20 27 22 23 26 42 41 25 22 49 33 35
leaf_count=26 22 133 22 21 21 98 59 34 30 20 87 114 25 21 23 36 54 32 20 27 22 23 26 42 41 25 22 49 33 35
internal_value=0 -0.0945066 0.11231 -0.140863 0.261263 -0.123559 -0.075198 -0.11137 -0.269637 0.0432078 -0.0640383 0.220381 -0.00739031 -0.126177 -0.0251382 -0.216402 -0.212133 -0.114435 0.0270489 0.0493218 -0.145832 0.388302 0.0276643 0.0486754 0.0802026 0.216271 -0.0991083 0.0225025 -0.0650432 0.11696
internal_weight=0 675 568 542 180 521 337 278 64 388 214 159 156 69 48 58 184 86 368 326 42 45 300 273 225 67 48 158 82 76
internal_count=1243 675 568 542 180 521 337 278 64 388 214 159 156 69 48 58 184 86 368 326 42 45 300 273 225 67 48 158 82 76
is_linear=0
shrinkage=0.05


Tree=36
num_leaves=31
num_cat=0
split_feature=46 46 46 38 14 22 23 26 13 30 6 35 32 42 28 46 33 21 26 22 12 7 29 5 25 5 30 25 33 25
split_gain=6377.63 2408.01 1183.29 734.07 510.099 525.415 793.026 789.56 556.757 659.492 505.411 568.889 599.821 560.593 500.917 545.27 474.022 617.843 618.334 575.547 453.883 444.159 440.325 436.311 431.571 577.965 491.099 444.096 435.834 400.745
